<Nnet> 
<AddShift> 1024 1024 
<LearnRateCoef> 0  [ -0.03485731 -0.1485933 -0.1161097 -0.1790677 -0.06052376 -0.1441866 -0.1353152 -0.1145388 -0.08900649 -0.1124381 -0.08031225 -0.142551 -0.08264346 -0.07776269 -0.03763292 -0.1635536 -0.09303048 -0.09914512 -0.312977 -0.1123797 -0.1760807 -0.09365006 -0.1916467 -0.08673032 -0.1251119 -0.06438263 -0.3225307 -0.08240823 -0.08293576 -0.08747044 -0.1593699 -0.3186291 -0.0638129 -0.1418419 -0.1178125 -0.04789295 -0.1149266 -0.07436036 -0.1957834 -0.1837107 -0.06236164 -0.03847003 -0.1901339 -0.1105422 -0.1035671 -0.07401935 -0.2883283 -0.2024337 -0.1769823 -0.1043447 -0.09109399 -0.1800157 -0.03989195 -0.1640881 -0.1694477 -0.09802944 -0.09544839 -0.1266654 -0.3165066 -0.1951558 -0.1020019 -0.09055543 -0.1230586 -0.1411146 -0.1906378 -0.1534851 -0.07382831 -0.06501719 -0.03875109 -0.1708271 -0.09048692 -0.158709 -0.03529837 -0.2037111 -0.06004537 -0.1964517 -0.1531349 -0.06240951 -0.1583712 -0.1132393 -0.05644575 -0.05790045 -0.07209536 -0.1567849 -0.1758987 -0.08725099 -0.09413736 -0.04522617 -0.1436783 -0.1875694 -0.1464492 -0.1529292 -0.05867406 -0.1287262 -0.1912733 -0.1140452 -0.2050272 -0.17063 -0.1519045 -0.09717677 -0.2028772 -0.16194 -0.06498651 -0.1826491 -0.0718261 -0.101872 -0.3162549 -0.1464086 -0.070844 -0.2632267 -0.06283925 -0.0967363 -0.09836327 -0.1340405 -0.1142977 -0.1083233 -0.1043845 -0.1146071 -0.1887955 -0.1800737 -0.0905752 -0.1160437 -0.1609244 -0.1766181 -0.08460981 -0.2294108 -0.1057607 -0.06859308 -0.08129451 -0.0654125 -0.2876462 -0.1168055 -0.07431141 -0.1851524 -0.1751568 -0.0627058 -0.1289608 -0.2036733 -0.1171806 -0.1157495 -0.07430194 -0.05450887 -0.08807179 -0.06799859 -0.07479966 -0.1112286 -0.1424282 -0.04212727 -0.1099941 -0.0652107 -0.1772042 -0.3822977 -0.2146764 -0.1490318 -0.1848646 -0.1194396 -0.295912 -0.06142515 -0.1006038 -0.2196149 -0.09757407 -0.05996972 -0.1656637 -0.1166526 -0.08794479 -0.1886296 -0.1736601 -0.08994412 -0.1746732 -0.09169503 -0.1173183 -0.2556421 -0.1048623 -0.06702289 -0.1430456 -0.04802037 -0.1037396 -0.2059394 -0.3289105 -0.129128 -0.2748261 -0.05721508 -0.09832291 -0.1709903 -0.1936206 -0.1015981 -0.3065704 -0.1932482 -0.09765588 -0.1753562 -0.1424689 -0.04302642 -0.1822869 -0.07862045 -0.1048611 -0.1664808 -0.1168871 -0.1573554 -0.1439757 -0.1814204 -0.03266707 -0.1435567 -0.0830237 -0.0307192 -0.1409205 -0.03404921 -0.1688844 -0.1807344 -0.2680597 -0.1079598 -0.06558548 -0.1768605 -0.06788131 -0.1154833 -0.09380863 -0.09830993 -0.06568526 -0.1075465 -0.2064162 -0.1061049 -0.1493133 -0.176189 -0.1239057 -0.1852047 -0.1713286 -0.09568706 -0.1052668 -0.1375782 -0.07176585 -0.1724229 -0.1386091 -0.1842838 -0.2339989 -0.07892182 -0.06050213 -0.1191169 -0.1046954 -0.09139262 -0.1675919 -0.1184436 -0.1452015 -0.07415449 -0.1937855 -0.05899601 -0.1881297 -0.1004544 -0.09084006 -0.06099619 -0.05975879 -0.0521724 -0.1371683 -0.1269913 -0.182832 -0.08160319 -0.1215231 -0.1576809 -0.07561076 -0.1616761 -0.04935376 -0.0933806 -0.3077976 -0.09013951 -0.08872491 -0.1485682 -0.03945153 -0.2076749 -0.1607378 -0.1608713 -0.1754566 -0.04788702 -0.06795159 -0.08437852 -0.04059848 -0.05003212 -0.05099482 -0.1897193 -0.0713167 -0.1789249 -0.1502473 -0.2384917 -0.1503351 -0.1119429 -0.1326997 -0.1443229 -0.05025089 -0.07194679 -0.04972718 -0.1828597 -0.05237367 -0.03910728 -0.1081109 -0.04401512 -0.1636448 -0.07616328 -0.1199385 -0.09916192 -0.2500069 -0.08207551 -0.09513005 -0.1738128 -0.1308017 -0.06682455 -0.1510859 -0.1765038 -0.06568059 -0.1273698 -0.08766733 -0.0328555 -0.0664268 -0.04378454 -0.09616126 -0.1788943 -0.1911937 -0.2168985 -0.06464215 -0.127571 -0.1824161 -0.1493299 -0.1013056 -0.3221278 -0.1021282 -0.1483749 -0.03853242 -0.03382723 -0.04403876 -0.1718579 -0.1012435 -0.0812178 -0.2901149 -0.1225477 -0.3079176 -0.1297787 -0.09067882 -0.1070069 -0.07143369 -0.1036312 -0.3369041 -0.1388704 -0.1084632 -0.1486944 -0.05474191 -0.07391918 -0.1918938 -0.1806557 -0.08975685 -0.1906129 -0.1562447 -0.09876865 -0.0882789 -0.112348 -0.02636765 -0.06886719 -0.1879936 -0.1890484 -0.09037646 -0.1282439 -0.1294386 -0.05694053 -0.1388263 -0.1775198 -0.06881715 -0.1483395 -0.09378732 -0.1365968 -0.2630725 -0.0723277 -0.03492574 -0.09767943 -0.1739491 -0.03187332 -0.1069917 -0.183946 -0.1788366 -0.1824193 -0.08704668 -0.1719037 -0.1637517 -0.1178658 -0.05578938 -0.1740286 -0.1096302 -0.1491561 -0.1741259 -0.07303276 -0.1462543 -0.1055518 -0.1380593 -0.1960748 -0.1125165 -0.09944522 -0.07829266 -0.09957364 -0.18978 -0.1001327 -0.08949366 -0.1152505 -0.1766528 -0.09513684 -0.05452496 -0.2336173 -0.03324623 -0.1019011 -0.1233312 -0.1368502 -0.09610632 -0.1096857 -0.09763011 -0.1457466 -0.07633576 -0.2746579 -0.07463194 -0.07873453 -0.1229537 -0.1096517 -0.3083461 -0.1136012 -0.1848063 -0.133975 -0.1518795 -0.158819 -0.184548 -0.1110099 -0.1071637 -0.06350788 -0.07792599 -0.1568737 -0.131524 -0.07136214 -0.1801357 -0.126805 -0.08003775 -0.04976279 -0.1876451 -0.1059226 -0.1009506 -0.09104463 -0.08648 -0.2186578 -0.09928019 -0.07242624 -0.162468 -0.1930562 -0.1614389 -0.2997026 -0.06371778 -0.04362559 -0.07184441 -0.1847194 -0.1524395 -0.1813335 -0.1713952 -0.167655 -0.1569316 -0.1558798 -0.04800481 -0.09754216 -0.140013 -0.1675364 -0.2939587 -0.1098035 -0.1239346 -0.1732877 -0.1144677 -0.09700292 -0.06355846 -0.04242123 -0.1958944 -0.1965324 -0.1860006 -0.1716495 -0.1525283 -0.1306676 -0.0614857 -0.1006469 -0.1637431 -0.4142832 -0.1513599 -0.157679 -0.2014333 -0.07420852 -0.09538104 -0.136833 -0.0650797 -0.1024762 -0.184176 -0.1062849 -0.1785111 -0.1423775 -0.07014273 -0.2430357 -0.1356582 -0.1446066 -0.05902885 -0.09779336 -0.07369328 -0.08490021 -0.08052815 -0.1579677 -0.1379573 -0.08427495 -0.1578028 -0.1842729 -0.1571427 -0.07744282 -0.1056892 -0.1904946 -0.2039796 -0.08128092 -0.2013263 -0.2302499 -0.1827985 -0.09371828 -0.07827626 -0.3025983 -0.07679147 -0.1944609 -0.2210942 -0.1906373 -0.1885398 -0.1444391 -0.1237762 -0.1327965 -0.1287662 -0.03322285 -0.06760421 -0.1128993 -0.02042427 -0.14401 -0.08509813 -0.05250359 -0.08977259 -0.1204979 -0.07374248 -0.09918636 -0.06598708 -0.1276552 -0.1225071 -0.1716483 -0.1800805 -0.1829396 -0.1136468 -0.07009377 -0.08789082 -0.08215507 -0.1878704 -0.08297802 -0.09112719 -0.09789859 -0.1115826 -0.129706 -0.08526734 -0.1702003 -0.1780221 -0.3337421 -0.1289537 -0.07971419 -0.08933525 -0.09317759 -0.05544861 -0.2610407 -0.06769048 -0.1542463 -0.09317693 -0.2841421 -0.0659055 -0.1880715 -0.1617568 -0.1777136 -0.0568064 -0.06375148 -0.1769327 -0.1768318 -0.1048846 -0.06918082 -0.1632447 -0.0881357 -0.1225578 -0.08943696 -0.1571356 -0.0728887 -0.04060008 -0.04277649 -0.1292303 -0.1316489 -0.09810978 -0.3014103 -0.1606803 -0.3472514 -0.1216322 -0.1201513 -0.07932045 -0.128932 -0.2565654 -0.1688671 -0.07836194 -0.1658497 -0.1479853 -0.1832572 -0.3231598 -0.03395148 -0.1717057 -0.2794336 -0.08634274 -0.09058829 -0.08979377 -0.1602121 -0.1926853 -0.1857423 -0.2457499 -0.111912 -0.1751575 -0.1400294 -0.2174065 -0.2559283 -0.1785299 -0.1019285 -0.1448554 -0.08897861 -0.07473697 -0.06286202 -0.09417043 -0.09289899 -0.1789478 -0.08132108 -0.05291716 -0.05300669 -0.04037558 -0.05081601 -0.1076566 -0.0428967 -0.07263619 -0.05974279 -0.07551885 -0.07515861 -0.1658242 -0.265681 -0.141142 -0.192167 -0.1790338 -0.07776478 -0.1503005 -0.1330173 -0.06402194 -0.08328334 -0.0399666 -0.1366953 -0.1730809 -0.1795792 -0.05137527 -0.1853095 -0.07524654 -0.08035825 -0.1705622 -0.3341725 -0.05562022 -0.08804026 -0.1727243 -0.03804591 -0.04976663 -0.09029395 -0.2669312 -0.1135687 -0.1398795 -0.08959766 -0.1110197 -0.2971584 -0.1481218 -0.2615589 -0.1612289 -0.09286109 -0.06531207 -0.1912539 -0.07809996 -0.07304735 -0.09505936 -0.1742783 -0.08575887 -0.2129866 -0.1516157 -0.1740344 -0.111591 -0.07318896 -0.289983 -0.07189485 -0.08975822 -0.1489173 -0.1626702 -0.1290488 -0.2256883 -0.2831177 -0.1677855 -0.06830545 -0.1530952 -0.1247704 -0.1387691 -0.03277057 -0.1007374 -0.05782386 -0.02460118 -0.1474025 -0.07679833 -0.1828538 -0.132188 -0.09590725 -0.2000581 -0.1311416 -0.1714603 -0.1681776 -0.2660637 -0.1689966 -0.05144483 -0.1637467 -0.1107249 -0.04966938 -0.08616303 -0.2387661 -0.0988901 -0.07030369 -0.3142568 -0.1652198 -0.1601076 -0.1285656 -0.04445625 -0.1779705 -0.103739 -0.05728121 -0.0727433 -0.1279884 -0.1852515 -0.181487 -0.1850951 -0.2713563 -0.08258633 -0.08038807 -0.06642376 -0.1060463 -0.1459136 -0.2016587 -0.07734354 -0.07623983 -0.04909759 -0.1543275 -0.1389111 -0.02881034 -0.1707565 -0.1460217 -0.1463017 -0.08655169 -0.1782273 -0.1241912 -0.04164953 -0.1458359 -0.09358212 -0.02923671 -0.1767513 -0.05831083 -0.1938178 -0.1925909 -0.1632852 -0.1530896 -0.03842437 -0.09642941 -0.09276494 -0.08561745 -0.1695126 -0.06792717 -0.07677957 -0.1891465 -0.3118044 -0.1491606 -0.1608888 -0.09650702 -0.08117991 -0.1201417 -0.0632517 -0.07207352 -0.1707424 -0.1518097 -0.07800698 -0.2740388 -0.1353442 -0.1122565 -0.1020603 -0.3905763 -0.1297643 -0.05283454 -0.1108731 -0.06346268 -0.05772579 -0.1804357 -0.07261382 -0.1032457 -0.1065068 -0.1533214 -0.1363481 -0.1484497 -0.06157161 -0.08064429 -0.1984266 -0.1077768 -0.1581582 -0.1796902 -0.06450916 -0.1910414 -0.03155556 -0.06141314 -0.1337551 -0.1308128 -0.04269856 -0.1121935 -0.2728939 -0.0913216 -0.1807137 -0.04806155 -0.1751439 -0.1167859 -0.04179352 -0.08548377 -0.08111187 -0.2519642 -0.03773338 -0.1076975 -0.1193523 -0.3863921 -0.04981285 -0.1525343 -0.163876 -0.06128924 -0.07939864 -0.1588219 -0.05777306 -0.03879981 -0.08951601 -0.1377939 -0.07829211 -0.06341674 -0.1057129 -0.1083249 -0.0916671 -0.06939329 -0.1400321 -0.07031485 -0.1632403 -0.04014751 -0.0567382 -0.0598221 -0.1718357 -0.0515769 -0.09817674 -0.1784457 -0.07580975 -0.08115555 -0.2057265 -0.05322631 -0.1848733 -0.08418324 -0.09921543 -0.08405768 -0.1710866 -0.09566356 -0.09481367 -0.1515062 -0.3859489 -0.1986129 -0.1218734 -0.2903089 -0.1918304 -0.1698558 -0.09950913 -0.1051821 -0.08039239 -0.07072224 -0.08476724 -0.1139865 -0.08767456 -0.3180697 -0.1584422 -0.05418222 -0.03767357 -0.1646814 -0.1525621 -0.1172595 -0.1521241 -0.17372 -0.06975462 -0.1858021 -0.1434991 -0.03457744 -0.1013893 -0.0844482 -0.1814346 -0.06611376 -0.07863326 -0.03819785 -0.07103109 -0.09757882 -0.2293934 -0.3279944 -0.1801286 -0.1824539 -0.1618999 -0.1476619 -0.1083562 -0.306834 -0.1040349 -0.1701602 -0.04883244 -0.1309718 -0.05183375 -0.2032965 -0.1805051 -0.08342703 -0.137529 -0.07709585 -0.03930163 -0.1742704 -0.1703441 -0.1054178 -0.1315805 -0.2175137 -0.05635568 -0.1591375 -0.07001895 -0.1579329 -0.1040631 -0.2274567 -0.3264228 -0.1239511 -0.1844021 -0.259011 -0.05929603 -0.1234466 -0.1331128 -0.08800802 -0.06902444 -0.1851281 -0.0846231 -0.1284972 -0.09040502 -0.1677939 -0.08279482 -0.1801233 -0.07563823 -0.0744334 -0.1878149 -0.143698 -0.01935763 -0.1457861 -0.05033303 -0.1298625 -0.128866 -0.04349616 -0.1149338 -0.1430131 -0.1770349 -0.1256061 -0.1559204 -0.1047172 -0.07418957 -0.03490308 -0.176888 -0.08401024 -0.1538416 -0.07539994 -0.05308702 -0.1138872 -0.1021001 -0.2603552 -0.02049875 -0.1924837 -0.1404237 -0.0775559 -0.1869375 -0.128889 -0.211621 -0.06709813 -0.08487811 -0.102033 -0.07311957 -0.1853047 -0.1550948 -0.1749819 -0.06272052 -0.1589512 -0.0984899 -0.09370966 -0.1674237 -0.2793077 -0.2724098 -0.07988916 -0.1713634 -0.06854761 -0.09163964 -0.112272 -0.1673857 -0.1632593 -0.3279546 -0.2649386 -0.04443631 -0.1899405 -0.1592984 -0.09005111 -0.08206338 -0.1910588 -0.1791583 -0.1528584 -0.1522267 -0.04282678 -0.1147369 -0.1819442 -0.1090471 -0.3328167 -0.0661755 -0.07330374 -0.2257265 -0.1530119 -0.3186875 -0.08101542 -0.1294939 -0.1557429 -0.2012741 -0.1200194 -0.1400555 -0.1683511 ]
<!EndOfComponent> 
<Rescale> 1024 1024 
<LearnRateCoef> 0  [ 8.199945 5.160422 5.499525 3.989243 8.022931 4.699608 4.979222 4.278708 6.069044 5.083869 6.551751 4.889188 6.628642 6.45012 7.297061 4.605009 6.382151 6.255591 2.979211 5.312891 4.533972 5.366897 4.249818 5.975363 5.50299 5.747341 2.496057 5.983193 5.801252 6.706458 4.257737 2.647777 7.360138 5.085767 4.704064 6.372071 5.3273 6.762573 4.154285 4.450357 8.016744 8.556542 4.515169 4.616111 5.827147 7.727219 2.801116 3.179167 4.457909 5.335105 6.699725 4.416484 7.116224 4.862054 3.995619 7.030619 5.055498 5.410812 2.973448 4.029678 6.679208 6.203527 5.645174 4.74045 3.788013 4.714601 6.711313 6.447739 7.01556 4.271446 6.764008 4.947674 8.084538 3.570314 6.740867 3.583257 3.532605 5.060696 5.117655 4.303478 6.134463 6.057209 5.733977 5.06715 4.329677 6.213749 6.908326 7.497544 5.142202 4.269381 4.064184 3.685738 6.573768 5.556983 4.393624 5.2117 3.217915 3.385991 4.837537 5.556602 4.104459 4.7096 5.602931 4.496161 4.909065 6.14867 2.694413 3.809746 5.611168 2.989534 8.008936 5.373619 6.252991 5.522743 5.528843 4.00119 4.685634 4.951176 4.317564 4.132373 5.596397 5.924247 4.813002 4.692194 5.170264 3.983603 5.819548 6.007421 7.117758 6.461664 2.813193 5.347202 5.788037 3.710006 4.383202 7.938186 5.381074 3.354223 4.694686 5.426039 5.059468 5.532801 5.803554 7.561476 7.010695 4.400369 5.222831 7.06238 6.231579 4.912179 3.958261 2.674188 3.037509 4.885224 3.336409 5.936858 2.945203 6.421711 5.253016 3.176935 6.550692 7.61271 4.755601 4.985733 5.125604 4.245491 3.670992 6.069656 4.454124 6.264123 5.643612 3.173097 5.719989 7.695016 4.452756 8.247155 5.976809 3.919755 2.673004 4.847769 3.115902 5.715481 5.247188 4.654877 3.98775 5.861754 3.079489 4.411263 5.432445 4.730887 4.425633 7.006811 4.569006 5.397571 5.401255 4.298722 5.418158 3.682856 5.255971 3.371592 8.535783 5.349726 6.840182 8.963492 5.303328 8.310375 4.536269 4.441916 3.044052 5.845276 7.908484 4.774226 6.574311 5.748375 6.314575 4.118008 5.743682 4.900255 3.904843 6.239675 5.01396 4.312591 5.544379 4.290192 4.711132 5.499787 5.280801 4.76555 7.110505 4.826281 4.939281 4.341096 3.289206 5.644678 8.183824 5.723288 5.215847 6.125177 4.988063 5.712518 5.23102 7.144866 4.347465 5.632289 4.111126 6.044578 5.751607 7.57596 6.712018 7.801089 4.56509 5.899986 4.551739 7.390407 5.782714 5.011539 4.669531 4.654 7.312335 5.89422 2.940845 6.340578 6.952433 4.973563 9.433471 3.210282 4.996124 4.742086 4.573252 7.257387 5.935596 6.693542 8.100913 6.94695 6.259125 3.388422 5.228536 4.562692 5.090527 3.30514 4.254953 4.637418 5.440696 4.413558 6.227668 5.519001 6.926219 4.396169 6.726652 6.730136 5.650999 6.716297 3.919217 5.891876 5.47213 6.279443 3.079793 6.150396 6.451623 4.567709 5.169856 6.514897 4.901737 4.058113 5.428675 4.916068 5.816116 8.606861 6.194678 6.063564 7.389917 4.508408 4.193347 2.980608 6.900201 5.204845 4.439713 4.891675 4.62841 3.010307 5.871098 4.611635 6.660126 7.346484 6.811825 4.678 6.395525 7.469842 3.020254 6.003116 2.429155 4.177247 6.232577 5.353843 6.212098 6.22342 3.016761 4.54582 5.719656 4.946854 6.467906 5.503268 4.384833 4.444462 6.27596 4.491635 4.321213 6.889357 6.116771 5.822288 9.265034 6.079377 4.475656 4.477859 5.568867 3.749061 4.107014 7.04656 5.281653 4.731499 8.116312 4.914092 6.531437 4.733319 2.970856 5.537298 7.959804 6.455286 4.2775 9.191469 6.027385 4.320704 4.457763 4.57426 5.703418 4.692555 4.493583 5.435171 6.20768 4.5832 6.159102 5.246637 4.152488 5.094924 5.254404 5.947634 4.896178 3.339553 4.529119 7.01966 5.365291 6.127337 4.359669 5.699773 6.92286 4.731307 4.422206 6.264478 5.467408 3.250741 8.160666 5.662674 5.812003 4.98624 6.739414 6.089845 5.332397 4.726686 6.276735 3.173137 6.874762 7.412436 4.846054 5.222004 2.666727 5.175554 4.547575 5.394526 6.871129 5.061314 4.2875 4.750726 5.145854 7.359379 4.576159 4.610953 5.393298 5.216706 4.384557 5.291443 6.349017 7.734657 4.562088 5.51936 5.347342 5.825577 4.51299 3.080049 6.101274 6.518159 3.884183 4.125532 5.060581 2.483738 6.916874 7.628784 5.686646 4.560203 5.191316 4.404206 3.491778 4.532411 5.079389 4.752122 6.338862 5.418886 4.918872 4.372015 2.737983 5.311493 6.357563 4.299479 5.753678 5.422386 7.160772 8.44633 4.363292 4.01805 4.539155 3.924592 5.191807 4.090817 5.054008 5.453601 4.992846 2.658465 4.773749 4.365593 3.290127 7.885976 5.977971 5.398949 6.341391 5.133517 4.454139 5.461438 4.407518 3.713547 5.993376 3.21032 5.040303 5.034497 7.014194 6.211365 6.239671 6.059679 7.12506 5.065795 5.424466 6.939713 4.906696 4.544281 4.018794 5.891212 6.73975 3.926943 3.657498 4.886751 4.156583 3.114358 4.208969 4.498263 6.086166 2.727259 6.031204 4.354748 3.69648 4.359537 4.41886 4.773495 5.760808 3.766862 3.750853 7.497 7.504849 5.741996 9.43428 5.314063 5.251252 6.776078 5.544337 5.60817 4.87516 4.282873 4.916299 5.630065 3.842124 4.611551 4.524849 3.80416 6.617296 5.824664 6.97655 8.000171 4.424113 5.840188 5.972775 6.048908 4.974956 4.986312 5.300478 4.67249 4.555898 3.122323 5.228365 5.965123 5.981475 4.997941 6.593359 2.931366 7.493379 5.051969 6.235141 2.958969 5.913724 4.348555 4.698859 4.521225 6.992264 6.814734 4.532248 4.294207 6.643293 6.758677 4.720067 6.338226 5.555523 7.393879 4.10529 5.861856 7.286906 6.891624 5.500628 5.612261 6.233483 3.006959 4.398142 2.960591 5.75224 6.415807 6.40036 5.578128 3.207013 4.613231 5.876366 5.822872 5.250093 4.573614 2.846889 7.987989 4.560422 2.937874 5.747813 6.62387 7.110104 3.753139 4.473936 4.39284 3.298606 4.833283 4.750428 5.066964 3.144372 3.034225 4.5533 5.493988 5.332222 5.906139 7.826534 6.27401 6.02516 6.70754 4.465686 5.639816 5.871731 5.966172 6.665938 7.294947 5.818228 6.718425 7.088716 6.625401 6.009972 5.350032 4.910978 2.946217 4.8002 4.329713 4.584217 4.928364 4.7403 4.708432 5.74305 7.219664 7.887582 4.528742 4.697183 4.834259 5.709876 4.275675 5.262167 5.381984 3.657798 2.350244 5.539369 8.826027 4.711604 8.342542 6.013833 6.615318 3.191369 5.778891 4.223731 5.415279 5.358329 2.514856 4.90646 3.201853 4.806467 5.194807 6.739644 4.463765 6.886336 4.5551 5.118744 5.369311 5.74754 3.062644 4.180715 4.407512 5.760086 6.666852 2.805492 8.006972 5.881041 3.953028 4.898816 5.769974 3.062949 3.325696 4.471028 6.298175 4.691787 4.979367 6.927977 8.828824 5.863708 9.049989 8.512053 5.261534 6.54477 4.365569 4.984878 6.15658 4.031302 5.390678 4.390794 4.712954 3.061936 3.797905 8.130215 4.879003 5.135624 6.665749 4.704344 3.005052 4.220115 5.896833 2.436574 4.742932 4.900053 4.844101 6.930413 4.456184 5.547354 8.274025 6.280005 5.554333 4.653132 4.184283 4.627147 2.997502 6.406945 6.125669 6.662892 5.606145 4.765307 4.265563 5.396074 5.162957 6.991308 4.342236 5.236685 9.174223 4.41037 5.21452 4.473153 6.546615 3.400902 4.53914 8.177866 5.302328 5.371868 7.971176 4.588335 8.63229 3.750693 4.170583 4.649316 4.897251 8.319194 7.348855 5.599429 4.565888 4.05277 6.604364 5.235111 4.389874 3.222825 3.80182 4.630876 5.90701 5.896755 4.857211 6.103733 5.284256 4.524243 3.702956 4.546875 2.960772 5.373451 5.551534 6.471724 2.782981 5.29948 8.916778 4.431728 7.734757 6.55904 4.631021 5.473592 4.50299 5.417597 4.724308 5.31502 4.649099 5.858013 6.685965 3.741966 6.289542 4.975633 4.247153 5.699262 4.321194 7.121471 6.484648 5.403639 3.693374 6.392365 5.970371 3.296406 6.868295 4.068089 5.979396 4.551055 4.850892 6.556511 8.735054 5.719668 3.435008 7.29514 5.914284 6.051807 2.608637 9.685802 4.781566 5.723705 6.379536 6.770276 3.496523 5.917968 8.855102 5.29554 5.227877 5.017807 5.406508 5.710127 5.809237 6.369822 5.292784 4.28507 5.967604 4.356182 7.843597 7.074437 5.572779 3.886528 6.456707 8.129035 4.523916 5.719999 4.733827 3.298591 6.37121 4.285223 5.610472 6.710848 6.97092 4.583771 5.8284 5.673659 4.085251 2.942237 3.608154 3.82057 3.151065 4.117067 4.476847 6.244804 5.899699 7.021028 7.354012 7.517577 5.911153 6.871118 2.410898 3.676929 6.444844 7.301522 4.793058 4.385597 6.197616 4.224913 4.513078 6.972937 4.42113 5.276019 6.911336 5.895683 6.489452 3.289441 5.796461 5.488251 7.784413 6.321464 5.813721 3.419133 2.76728 4.578144 4.339956 4.505726 5.029992 5.762207 2.871796 5.31955 4.98589 6.76212 4.948227 5.874268 3.385858 4.572404 4.634636 4.887199 5.771588 7.45078 4.534574 4.608908 4.600617 4.539583 3.508912 5.912986 4.951395 5.395826 4.984453 5.199589 3.810405 2.408303 5.269521 4.523734 3.139252 5.424029 3.844083 4.754618 6.73438 6.454924 4.480281 7.036886 4.753091 4.712202 4.499645 6.124562 3.481596 5.52684 6.454767 4.297532 5.209472 9.39822 4.294923 5.702864 4.499089 5.294634 7.980368 4.490652 5.245716 4.413442 5.91579 4.905059 5.275521 6.932465 8.049479 4.451175 5.534088 4.943078 6.166176 5.581347 4.479871 5.854883 3.134414 9.220531 4.222323 5.075176 6.778972 4.575966 4.859493 3.206581 6.577496 5.543028 5.41435 6.570708 4.274613 5.11531 4.306551 5.889216 4.631282 4.159147 6.42942 4.26203 2.773885 3.104831 5.309892 4.04928 7.049758 5.672673 5.84638 5.879742 5.417688 2.375964 2.932055 6.281973 4.321404 4.714176 4.975549 5.49043 3.374424 4.666276 4.997955 4.796543 7.155852 5.582312 4.367518 6.32667 2.837297 5.793224 5.757582 3.240464 5.035167 2.475114 6.998376 5.619304 4.639442 4.200255 6.180588 4.674472 4.42488 ]
<!EndOfComponent> 
</Nnet> 
