<Nnet> 
<AddShift> 1024 1024 
<LearnRateCoef> 0  [ -0.09104651 -0.2019214 -0.08512741 -0.104313 -0.07919329 -0.07563602 -0.07930046 -0.09881146 -0.133558 -0.05053113 -0.07474056 -0.06501461 -0.1066477 -0.07741427 -0.08069374 -0.03231357 -0.08818452 -0.1004923 -0.1006163 -0.1981567 -0.1285056 -0.1281606 -0.1476493 -0.1453292 -0.08214957 -0.0867292 -0.07412741 -0.1046725 -0.1765851 -0.07374306 -0.09416661 -0.1100947 -0.07648346 -0.05838849 -0.128625 -0.06469329 -0.04497667 -0.1005405 -0.0914261 -0.1381704 -0.1205001 -0.08896104 -0.09609444 -0.0899023 -0.06250565 -0.07508918 -0.1018155 -0.107243 -0.07713886 -0.07142261 -0.09920406 -0.185498 -0.1147619 -0.1005566 -0.06373782 -0.1403987 -0.07920157 -0.06432981 -0.1350903 -0.06603389 -0.06076097 -0.08121078 -0.2932136 -0.1085099 -0.08905586 -0.2355336 -0.1072338 -0.06642723 -0.1229808 -0.09528848 -0.1352983 -0.09384596 -0.08356555 -0.07309766 -0.05560913 -0.08373521 -0.06287328 -0.07324837 -0.1040726 -0.07191034 -0.1148234 -0.1201025 -0.08786038 -0.1031091 -0.1056264 -0.0677015 -0.0719922 -0.06847422 -0.08787847 -0.07728511 -0.2020881 -0.07219597 -0.09560536 -0.09513886 -0.08575468 -0.118456 -0.07438309 -0.06540244 -0.1052509 -0.05025756 -0.1106635 -0.08822175 -0.0878543 -0.05538365 -0.08538299 -0.07570496 -0.1179613 -0.08963086 -0.1125676 -0.1229027 -0.1403949 -0.158775 -0.06354342 -0.1156824 -0.06036685 -0.06391107 -0.09484648 -0.06617555 -0.1014959 -0.07262948 -0.07615235 -0.1167023 -0.1151785 -0.05404763 -0.0708746 -0.08412766 -0.0743024 -0.1492932 -0.1330277 -0.1218556 -0.1120915 -0.1092634 -0.05758219 -0.1307944 -0.1117705 -0.0996839 -0.08727241 -0.103422 -0.07829735 -0.08734148 -0.07111279 -0.1004038 -0.07748371 -0.06404592 -0.1253301 -0.1166733 -0.1059306 -0.0676294 -0.1046577 -0.09990236 -0.06994968 -0.1448956 -0.07701612 -0.1155259 -0.1103074 -0.0791918 -0.07492298 -0.06350588 -0.09630046 -0.1203145 -0.06152824 -0.1119819 -0.106273 -0.02279974 -0.06099748 -0.1639045 -0.1229811 -0.07654535 -0.08865716 -0.05615321 -0.08715025 -0.09760872 -0.1036881 -0.1287279 -0.130435 -0.1252072 -0.1211093 -0.1093113 -0.1354497 -0.08723389 -0.1945988 -0.06962655 -0.1036284 -0.05964077 -0.07539869 -0.1639107 -0.1077993 -0.09737195 -0.07379359 -0.06742562 -0.06712598 -0.09631417 -0.07284266 -0.08486328 -0.06395375 -0.1021426 -0.07224683 -0.06892485 -0.1190639 -0.1046666 -0.08235293 -0.1034089 -0.07504827 -0.1326165 -0.1035221 -0.07944553 -0.06363245 -0.09677874 -0.08469889 -0.1060427 -0.1297594 -0.09042684 -0.1449041 -0.08308395 -0.07191128 -0.09686746 -0.06809023 -0.07769006 -0.08810082 -0.1823529 -0.1253477 -0.07220736 -0.1251003 -0.1440672 -0.2161812 -0.1031841 -0.07202997 -0.07639386 -0.09484917 -0.1219016 -0.06108425 -0.09354069 -0.1273596 -0.1518443 -0.09550414 -0.1123942 -0.09076616 -0.1318411 -0.07262 -0.09737739 -0.09991807 -0.1488464 -0.06722369 -0.05391543 -0.09991869 -0.08876196 -0.09426229 -0.1365183 -0.09604032 -0.07832409 -0.07269282 -0.09501268 -0.06897015 -0.08086333 -0.1068239 -0.1161983 -0.07232989 -0.1039496 -0.07377102 -0.108551 -0.1123993 -0.1424795 -0.09707086 -0.08506604 -0.1327011 -0.07317787 -0.1277884 -0.1134804 -0.08413604 -0.09051125 -0.08906975 -0.09949069 -0.1212855 -0.09905724 -0.08535416 -0.08201928 -0.1448126 -0.08615947 -0.1364273 -0.07923393 -0.1269821 -0.1823641 -0.05478572 -0.1289755 -0.1047151 -0.09994955 -0.08202607 -0.04942766 -0.07548008 -0.09096757 -0.06799483 -0.06148659 -0.07241102 -0.09084922 -0.0982229 -0.06372939 -0.07851744 -0.08466968 -0.1122317 -0.05191968 -0.100651 -0.08821201 -0.1309381 -0.07934943 -0.1059317 -0.05988153 -0.1036393 -0.05990839 -0.06309885 -0.06922527 -0.08057871 -0.09732288 -0.05864477 -0.07776768 -0.05495538 -0.07019912 -0.06698156 -0.08671121 -0.1149745 -0.08747537 -0.116369 -0.07268769 -0.05427824 -0.09133721 -0.06588405 -0.1281729 -0.07688314 -0.109927 -0.1292966 -0.08822191 -0.07128924 -0.2893201 -0.1098981 -0.09434404 -0.1021476 -0.1713543 -0.1326755 -0.1132934 -0.05799347 -0.06465606 -0.2606457 -0.06684014 -0.0835746 -0.05819291 -0.07556463 -0.08983824 -0.1412282 -0.08132734 -0.113127 -0.08472861 -0.101755 -0.1160601 -0.07683795 -0.082716 -0.1085895 -0.05975741 -0.1038395 -0.1529509 -0.08442745 -0.1116387 -0.1023885 -0.05489956 -0.1145075 -0.1032112 -0.08067406 -0.06019251 -0.08395877 -0.06850708 -0.09087469 -0.08670606 -0.09527705 -0.1111346 -0.08484846 -0.09232996 -0.05648292 -0.06789416 -0.07959422 -0.07262257 -0.05999505 -0.1688211 -0.1044742 -0.0828898 -0.1541469 -0.1287871 -0.06649808 -0.09448706 -0.08068591 -0.1518077 -0.0748811 -0.09728627 -0.07519805 -0.08984371 -0.07787926 -0.09416468 -0.1164253 -0.0622214 -0.1106807 -0.08716827 -0.1521437 -0.06337883 -0.06940326 -0.1203828 -0.139016 -0.09107845 -0.1405597 -0.1297497 -0.04776773 -0.1486791 -0.04972862 -0.1336165 -0.04625972 -0.09033574 -0.1055052 -0.1088572 -0.146852 -0.1266448 -0.14437 -0.06401064 -0.06958834 -0.1054265 -0.0745853 -0.1166088 -0.0901878 -0.0784239 -0.1109034 -0.1156849 -0.09652966 -0.1051865 -0.08716879 -0.07473371 -0.1524146 -0.08548581 -0.04008675 -0.09325363 -0.1085867 -0.0963133 -0.08206446 -0.1240024 -0.141308 -0.122988 -0.06328288 -0.05976149 -0.1000798 -0.146378 -0.08959606 -0.1217057 -0.09962276 -0.09287853 -0.08435198 -0.07865681 -0.09749319 -0.0899177 -0.1096574 -0.09966892 -0.0696497 -0.08004344 -0.04784933 -0.09421594 -0.1222233 -0.1276503 -0.06570978 -0.1018872 -0.08890691 -0.06865196 -0.09222245 -0.1074505 -0.06718628 -0.07721799 -0.1123034 -0.09914406 -0.08232698 -0.0868092 -0.07039952 -0.07820095 -0.10271 -0.1354384 -0.08569567 -0.1026802 -0.11379 -0.09328749 -0.07476667 -0.07097057 -0.09508044 -0.05725914 -0.05817062 -0.07604054 -0.133441 -0.09573085 -0.1365597 -0.0908208 -0.06658019 -0.1117932 -0.06459307 -0.08895548 -0.09717203 -0.08964667 -0.05241854 -0.09428461 -0.1801363 -0.1211778 -0.07241709 -0.104775 -0.05488838 -0.0497163 -0.0853983 -0.07664033 -0.09882528 -0.09841479 -0.07047867 -0.07822221 -0.0863719 -0.08992899 -0.1297074 -0.07607804 -0.0804386 -0.08257043 -0.07677326 -0.09277397 -0.1263943 -0.05701975 -0.1507818 -0.07283954 -0.09156441 -0.2508815 -0.1100123 -0.1449295 -0.09917752 -0.1096463 -0.09041899 -0.1315169 -0.09787121 -0.1231945 -0.1413189 -0.09407132 -0.07068797 -0.1027679 -0.1283406 -0.09297559 -0.08279067 -0.06870486 -0.05889965 -0.08361313 -0.1072957 -0.06563197 -0.0948401 -0.08274205 -0.09694453 -0.1355 -0.1081885 -0.08831564 -0.2228093 -0.06088866 -0.09664188 -0.09528226 -0.04375722 -0.07132342 -0.1428621 -0.09384462 -0.06190018 -0.1488326 -0.06628567 -0.07559673 -0.07935275 -0.09151977 -0.09066404 -0.1012531 -0.1041805 -0.09714793 -0.1266994 -0.1015768 -0.1847922 -0.05588782 -0.06101577 -0.0607422 -0.08855861 -0.1179013 -0.1580867 -0.08920064 -0.1210974 -0.1089245 -0.1638989 -0.1243954 -0.1286772 -0.07435982 -0.06926028 -0.1109729 -0.09509341 -0.05599263 -0.09569861 -0.0992994 -0.1063559 -0.1119788 -0.09613758 -0.09211416 -0.06432722 -0.1293568 -0.1234146 -0.09093075 -0.07700244 -0.08889116 -0.0729746 -0.1174885 -0.09070201 -0.1969029 -0.07670109 -0.08717474 -0.09531427 -0.1885873 -0.1206076 -0.08506026 -0.3209255 -0.07493984 -0.1063865 -0.1121455 -0.1731047 -0.1763424 -0.09466401 -0.1668914 -0.1040173 -0.2028991 -0.09011402 -0.1002807 -0.3849607 -0.1652445 -0.0740888 -0.1340176 -0.07367338 -0.03836451 -0.08639424 -0.1302457 -0.06861112 -0.08719251 -0.07669299 -0.16361 -0.1164494 -0.08679901 -0.07728607 -0.05001006 -0.09724276 -0.08990636 -0.06450392 -0.08989934 -0.1690184 -0.07090971 -0.1195169 -0.06106221 -0.1585389 -0.0880829 -0.08746823 -0.1327287 -0.05936876 -0.1391482 -0.09875471 -0.151016 -0.1061937 -0.1044884 -0.08771429 -0.0982146 -0.06350622 -0.07966708 -0.1287605 -0.104271 -0.08780504 -0.2025721 -0.09353834 -0.0815615 -0.06049062 -0.08017963 -0.06909076 -0.07128499 -0.1136281 -0.08226749 -0.07250962 -0.08701381 -0.1337012 -0.1309767 -0.08335209 -0.0699887 -0.06349168 -0.06155151 -0.08490497 -0.1094976 -0.09111373 -0.1144685 -0.106535 -0.08441617 -0.08307995 -0.1399966 -0.1074483 -0.1276482 -0.1297286 -0.09152268 -0.06092732 -0.1003066 -0.08800402 -0.15022 -0.1660873 -0.1033717 -0.132687 -0.1378732 -0.1149841 -0.09200297 -0.1378859 -0.07679605 -0.1212707 -0.1046166 -0.106443 -0.1025154 -0.09375767 -0.1039947 -0.06368392 -0.07442857 -0.1104451 -0.08890086 -0.08478644 -0.04759485 -0.156227 -0.1264292 -0.1022049 -0.09207402 -0.1196017 -0.05992988 -0.09087005 -0.1002215 -0.1242189 -0.07138153 -0.08302487 -0.05772628 -0.08656997 -0.06728738 -0.07793554 -0.1569577 -0.2101887 -0.1001656 -0.08130985 -0.07035109 -0.06712412 -0.08930741 -0.107157 -0.04178831 -0.08065727 -0.06982712 -0.06361165 -0.1198497 -0.05468225 -0.1188886 -0.1500284 -0.08062059 -0.05859311 -0.0667554 -0.08214264 -0.09461208 -0.1438599 -0.09586093 -0.09661977 -0.08559719 -0.1129341 -0.09708115 -0.083757 -0.06876416 -0.08666117 -0.05432144 -0.1367415 -0.08767548 -0.04615411 -0.1031911 -0.09875533 -0.1348511 -0.1273617 -0.07999181 -0.09747502 -0.1001187 -0.117035 -0.07670435 -0.1454439 -0.06836101 -0.06212673 -0.09269574 -0.1444447 -0.09459906 -0.05990557 -0.1143418 -0.09846756 -0.08724951 -0.1016346 -0.07675853 -0.1149536 -0.08530827 -0.1686642 -0.122565 -0.1916444 -0.1533055 -0.2218529 -0.06679624 -0.07113612 -0.06781133 -0.07496548 -0.0940458 -0.1059864 -0.1067803 -0.06345851 -0.09369409 -0.037636 -0.1075755 -0.07193465 -0.07906195 -0.05491119 -0.0910487 -0.06825797 -0.06779523 -0.09093339 -0.1438454 -0.06485262 -0.1086146 -0.128502 -0.06270496 -0.03708296 -0.08092462 -0.121017 -0.107389 -0.1077221 -0.1076945 -0.09105521 -0.1710857 -0.08589106 -0.02282135 -0.1006116 -0.1108392 -0.08691894 -0.1324588 -0.05485379 -0.0869047 -0.1046041 -0.1704331 -0.1068236 -0.06004926 -0.0854264 -0.08353546 -0.1710395 -0.08902317 -0.0992672 -0.07365035 -0.1412035 -0.1270779 -0.06065802 -0.1303948 -0.1008539 -0.1154057 -0.09172098 -0.04058588 -0.1243983 -0.09357429 -0.1577037 -0.114802 -0.1359212 -0.07429492 -0.1031809 -0.1075388 -0.1043489 -0.05870241 -0.08532874 -0.07032262 -0.1159612 -0.06218175 -0.1030833 -0.1346152 -0.08079769 -0.1024815 -0.08090246 -0.2105762 -0.05924889 -0.1053773 -0.1250515 -0.09361906 -0.06334665 -0.06726836 -0.1068394 -0.08198886 -0.05927026 -0.08510145 -0.0578832 -0.1423516 -0.09419329 -0.1253977 -0.1200049 -0.06853835 -0.1086811 -0.08573189 -0.06515156 -0.1316471 -0.06423501 -0.08855055 -0.05490564 -0.0932174 -0.09125706 -0.06209268 -0.09910306 -0.08590572 -0.08315577 -0.1323895 -0.09348992 -0.1496263 -0.2466344 -0.07699437 -0.09433169 -0.07795179 -0.07233018 -0.0553112 -0.06758232 -0.09560982 -0.09370376 -0.1063817 -0.07267066 -0.1639008 -0.08163238 -0.08542735 -0.1023266 -0.0807573 -0.09545694 -0.06863999 -0.08292031 -0.1443698 -0.1053207 -0.1111827 -0.08494408 -0.08210679 -0.2006774 -0.09544375 -0.05921025 -0.07039103 -0.1081334 -0.1318291 -0.07733952 -0.08834522 -0.09260603 -0.08035035 -0.07748163 -0.05019202 -0.1586939 -0.09668855 -0.1474933 -0.1633389 -0.1363721 -0.08655801 -0.05623832 -0.1174818 -0.08351563 -0.05244805 -0.1309136 -0.08346991 -0.09611857 -0.1089497 -0.1344693 -0.0961825 -0.08305377 -0.1136363 -0.08554213 -0.07337102 -0.08462391 -0.1060208 -0.3457769 -0.07482481 -0.1199028 -0.06409083 -0.07466103 -0.08558343 -0.08342104 -0.08263557 -0.1028215 -0.1324161 -0.07772565 -0.09055965 -0.07079493 -0.1032021 -0.1076589 -0.1000513 -0.1325163 -0.08979789 -0.08658617 -0.1156746 -0.1504731 -0.0753158 -0.191733 -0.07525208 -0.06885961 -0.09083495 -0.2168884 -0.06976764 -0.1346212 -0.110409 -0.08494082 -0.1212086 -0.1071113 -0.08590873 -0.104202 -0.07568432 -0.07411367 -0.1006637 -0.0734079 -0.0644852 -0.06830359 -0.06844013 -0.09036859 -0.09293269 -0.08119595 -0.0683198 -0.04720482 -0.1047682 -0.08090005 -0.1758469 -0.05255034 -0.07423931 -0.1044328 -0.08449454 -0.1210578 -0.06605248 -0.08906691 -0.1135544 -0.1145671 -0.05621287 -0.07436831 -0.09697353 -0.08611536 -0.05134786 ]
<!EndOfComponent> 
<Rescale> 1024 1024 
<LearnRateCoef> 0  [ 6.882675 3.449857 6.74976 4.809552 7.185456 7.00771 6.671078 5.935575 4.929201 5.820717 5.956742 7.713005 4.321055 6.901817 7.144595 12.90475 6.006591 7.353466 6.562955 2.770964 4.536335 4.600327 3.922062 4.944293 6.043941 5.692882 7.372933 6.275853 3.376343 6.029178 6.189325 5.688461 7.089067 5.897563 5.80411 8.651261 11.06127 5.810995 4.368776 3.864324 5.607344 6.496494 6.026961 6.165991 5.77126 7.499187 4.730037 5.688859 5.752575 6.942589 5.334045 3.12298 5.946047 5.420535 6.952366 3.990998 6.43921 8.792061 5.903224 9.235981 5.810192 7.613678 2.580581 5.106626 6.477419 2.763177 4.122728 7.311476 5.613903 5.258685 5.274622 4.308016 7.054445 7.3254 8.840839 6.560782 7.962832 6.530759 6.057205 6.796921 5.434229 4.341077 5.46731 4.803551 5.959377 6.778916 7.732388 8.439382 6.588932 6.939506 3.145081 7.846647 5.278523 7.338798 6.43936 4.355018 7.679432 7.608017 5.623236 7.409857 4.517265 7.101094 7.602324 10.47444 4.831669 7.272327 5.54691 6.255888 6.194394 4.877909 4.728262 4.618834 6.668718 5.179958 7.2767 7.459715 6.680909 7.393023 6.078831 7.1217 6.159983 5.592443 5.638743 8.822888 6.711757 5.662139 4.901771 4.000961 5.011263 5.30517 4.706013 5.621243 7.17655 4.443732 5.622823 5.832396 7.17229 5.744853 6.995169 6.619542 7.159522 6.67722 6.928714 6.949358 4.225704 5.465799 5.841437 8.016908 6.716939 5.154711 7.788509 3.830085 8.13235 4.656549 6.006528 6.179783 7.564002 7.157556 5.771422 3.893038 9.039642 4.731116 6.334169 7.894976 6.609119 4.300078 4.218189 7.386552 5.98263 7.399333 7.135538 6.295078 6.142446 3.86883 4.523748 5.441602 3.822369 5.90485 5.677224 5.302497 3.452516 8.669191 5.744154 7.891144 7.306747 3.213468 5.078102 6.511018 5.559694 8.321882 6.26569 6.364079 7.456182 7.616314 7.723994 5.876158 6.801712 8.686359 5.239094 6.204216 6.89538 5.141923 7.752388 4.791888 6.377637 6.089625 6.718601 6.341637 6.257717 5.178591 5.127251 6.059762 5.119554 5.036257 7.341162 6.616334 7.698021 6.266285 6.389147 3.642565 5.377243 5.839269 4.808292 5.046616 3.137312 4.263949 6.653834 7.198227 6.16978 4.591468 6.837807 5.39226 5.126254 4.948943 7.802931 4.27023 6.688106 4.743872 7.714121 6.292853 4.534852 3.954302 6.247439 8.935078 6.020046 4.207313 5.318378 4.273551 6.612297 6.470258 7.324494 4.304405 7.546097 6.875245 5.30409 6.150899 8.066877 5.830237 7.557332 5.404503 5.17009 3.710719 6.689429 6.648051 4.89223 6.560614 5.761443 6.076951 4.721578 6.183666 5.724459 4.778494 4.578743 5.083831 6.361973 6.816503 4.987776 6.766034 3.481595 7.557788 5.223054 4.67648 8.241218 4.743371 4.850066 6.508014 6.905239 7.96605 7.144297 6.293569 7.751145 8.339584 7.940085 4.649041 5.21587 5.687062 7.063272 7.32146 4.360044 7.054489 6.662669 5.104731 5.108951 5.432982 5.425796 6.535862 6.20366 9.05852 7.831308 6.701056 4.729166 6.395738 5.730558 7.517369 8.190312 6.568848 6.89436 5.703099 4.727143 4.888501 4.880836 6.701648 8.881378 6.263164 8.148107 5.085763 5.633528 6.362138 5.209089 5.826462 7.405722 2.587255 5.57887 5.764293 4.328053 4.324262 4.860299 5.553034 7.387383 7.414175 2.749169 7.267883 6.802245 9.088342 6.958333 4.480698 4.895829 7.454894 5.701149 6.35765 5.630413 5.766 8.667208 6.94547 5.45035 9.660227 6.086146 4.188058 7.045139 6.32606 6.171618 8.062121 6.175605 5.981565 6.207819 7.777687 6.287014 7.323634 7.549599 5.96874 3.670088 4.609859 6.517236 6.041757 9.342317 6.594701 6.493256 8.435703 8.429988 3.911231 5.78328 6.657366 4.668407 5.086364 7.691011 6.802098 5.735721 4.958348 7.487033 5.748933 6.79932 5.727396 6.950413 5.339776 5.009954 7.824416 5.77762 5.368292 4.657844 7.606271 6.417707 5.064642 4.683158 6.551734 4.48435 3.931789 5.785541 4.877716 5.444828 5.404757 7.383975 5.323544 5.379491 5.948664 4.183699 5.678914 4.841472 7.59496 8.236525 6.193631 6.584775 4.930704 6.962026 7.635783 5.595694 5.671318 5.289141 5.987525 6.451562 8.463972 3.606771 6.334568 10.00282 4.560615 5.003141 6.027711 6.881315 5.453496 4.012467 5.763052 7.77175 8.654658 4.425679 3.575333 6.726958 5.995031 5.195694 5.238114 7.205359 6.908088 6.317416 5.473673 5.92733 4.728875 6.801685 6.873123 9.087206 6.742291 5.987469 5.32948 6.690771 6.02839 6.076009 7.546329 6.467738 5.013527 7.760865 4.669433 4.702679 6.179539 5.759884 6.506422 8.236391 6.598019 5.6842 5.474288 4.414691 5.620286 5.419491 6.309034 6.956808 7.851336 5.493911 6.048227 8.943974 5.726059 5.140935 6.764294 4.139372 5.000983 7.980295 5.993819 6.94214 4.535988 6.028613 6.236551 8.773863 5.831135 4.370304 5.616459 5.742413 5.60542 6.868093 9.866228 5.758166 7.679434 5.584919 4.787115 8.070189 8.20829 6.424786 6.564581 4.958902 6.822971 6.994966 6.740461 6.967288 5.549731 3.976632 7.267643 3.574752 5.851463 4.335176 2.721004 5.059142 4.872015 4.317389 6.11157 7.483743 4.666766 5.480368 4.189331 4.543607 5.996073 5.897545 5.055349 3.57242 5.048964 7.300098 5.603132 7.893459 6.880197 5.577808 6.627007 6.051901 6.223253 4.172592 5.962911 5.304957 6.417867 2.757857 7.976968 6.350738 6.380683 8.265914 7.099461 5.290102 6.40155 6.703192 4.993298 5.425336 6.324758 7.633019 6.105272 6.347378 5.625695 5.984452 6.44204 5.407817 4.827003 4.465065 9.534692 8.494824 8.956527 6.713155 4.566255 3.480061 5.031379 5.581183 5.677299 3.061066 3.578549 5.093309 6.380293 6.907766 6.015953 6.968783 8.280272 5.820309 5.4321 6.072936 4.924706 5.43155 5.791094 7.970612 5.18935 3.807106 4.768678 7.662456 6.482964 7.320621 4.488699 5.484469 3.116202 5.628413 6.878869 6.07058 3.493514 5.731229 6.481728 2.388906 7.357434 5.515889 4.742201 3.216886 3.982268 6.413866 4.396483 5.723568 2.876842 5.934549 6.156993 2.256205 3.321017 7.986011 4.208503 6.008363 7.688719 6.777905 5.902477 8.325759 4.948065 4.186323 3.082807 5.703058 6.058945 6.872328 9.470632 7.192022 6.167408 7.27494 5.458038 4.832602 6.899382 5.644776 5.271087 4.578575 5.772142 4.41364 5.28586 9.610452 4.125739 5.335781 5.313124 6.502489 5.635057 5.636784 6.047529 8.071776 5.135205 4.878709 6.249157 6.389198 3.665699 5.681146 6.625026 8.762366 5.926183 6.16039 7.643789 5.677529 6.525696 6.080907 5.930373 4.378071 3.488406 4.106177 7.991456 7.110242 6.640999 5.180613 6.006983 6.872984 4.981678 5.813029 6.838945 7.563895 3.264704 6.031369 5.815818 5.266316 4.957824 8.370683 4.285539 6.593011 4.366971 3.241925 5.678868 4.297719 5.394566 5.828813 6.300127 4.699368 6.906808 5.714889 4.320124 4.54263 5.535061 5.865317 6.463336 7.233389 7.177784 5.788147 7.079815 6.747664 8.621164 4.817242 4.295843 5.717495 5.506884 5.354923 8.120233 7.426267 5.351843 5.120048 5.221063 7.127208 6.626149 6.351715 9.635605 7.906756 3.158303 2.851694 6.17913 7.713751 6.584061 5.913201 6.761768 5.993604 10.06741 6.565228 6.896243 7.706901 5.684463 8.079432 5.015685 4.601015 7.192964 7.366536 5.456736 6.355094 5.135122 5.128457 5.325945 6.786098 6.489537 6.163531 5.208681 6.084771 7.732385 6.413021 8.424165 4.241138 6.336278 9.343334 5.516707 6.344689 5.197743 5.640585 6.272884 5.211177 7.027684 5.559028 7.081053 5.206463 7.646569 8.005516 6.240031 4.568071 6.149767 7.480398 5.005355 7.102198 6.104404 5.461247 6.443908 5.162314 6.829003 3.423303 5.269253 3.048506 3.680306 2.87472 8.250954 5.714465 8.114167 6.774865 5.455946 5.096367 6.047781 6.901953 4.775871 11.7261 6.305422 6.036972 4.971693 5.809762 7.196425 7.165674 7.830645 6.955204 5.168144 6.405198 5.22364 4.646396 7.685658 12.08174 4.545847 4.185139 5.514986 5.905369 4.478675 6.027606 3.368319 6.438375 8.136928 5.238516 5.660979 7.081913 5.343361 6.079745 7.496785 5.938911 3.146613 5.085039 6.179041 6.498154 6.265633 4.144958 6.269454 6.203129 5.439399 5.128647 4.134237 9.001022 4.944922 6.394549 5.364356 5.340899 11.34549 5.501949 6.006067 5.325799 4.023471 4.820104 5.29014 5.828115 5.198098 4.581044 7.186193 6.385475 8.282838 4.693995 7.648557 5.810401 5.332802 6.829584 5.459997 6.553704 3.310875 7.580699 6.088736 4.95896 4.975629 7.913248 8.190577 4.657662 6.408769 6.59092 7.994742 6.093951 4.389853 4.850893 5.652729 5.116491 6.5283 5.85793 5.511154 7.733941 4.144382 8.347147 6.880809 6.35746 5.81263 6.103829 8.770215 5.776068 6.105965 5.318029 4.048691 4.638372 5.486634 3.275518 7.898244 6.056744 6.855179 8.480154 7.114734 7.461691 5.368186 3.69943 5.349784 8.673995 4.706233 7.019983 6.5078 5.553398 7.348232 5.458975 7.421382 6.032887 3.37247 5.874979 4.335165 5.471272 6.016232 3.07415 5.880162 8.215463 7.536704 5.764999 6.007861 7.99376 7.389834 7.271087 4.88666 7.091148 9.182897 3.681053 6.054563 3.439206 4.373306 4.239516 5.134267 8.668387 5.235243 6.899687 10.15355 4.815107 5.59619 5.970713 6.216157 5.177326 4.672275 6.236482 5.998805 6.611898 7.70746 6.901847 5.981117 2.222228 7.198289 5.657168 8.328326 6.168446 5.91647 6.278666 5.454689 5.070277 5.759794 5.991332 6.974188 6.374122 6.523657 5.433971 6.285668 3.80428 4.690998 6.673343 5.781406 4.557778 7.894465 3.061351 6.233974 7.629686 6.812634 3.746608 6.250764 4.268387 5.290238 5.499659 5.354534 5.991449 6.563624 5.30996 4.193377 7.95533 5.252124 7.08486 8.117969 7.596943 8.28337 7.079082 6.758698 7.283183 7.566368 7.042703 6.433705 7.027484 4.298369 8.983626 8.535131 5.799567 7.271826 5.71585 7.402738 7.025735 4.535897 5.637535 8.940291 4.527171 6.925757 5.268317 7.718616 ]
<!EndOfComponent> 
</Nnet> 
