<Nnet> 
<AddShift> 1024 1024 
<LearnRateCoef> 0  [ -0.08417625 -0.09572504 -0.07997482 -0.1009811 -0.01431576 -0.08546676 -0.05487151 -0.01492442 -0.07201857 -0.08212996 -0.06303997 -0.01332742 -0.07315553 -0.08934018 -0.06901119 -0.09358276 -0.1429059 -0.08942908 -0.06900442 -0.1663243 -0.06759395 -0.1552229 -0.08687692 -0.0871009 -0.27494 -0.04669448 -0.10765 -0.1027207 -0.08649936 -0.1045234 -0.1096612 -0.03511308 -0.07824448 -0.06165758 -0.09401039 -0.09135702 -0.0880935 -0.1187273 -0.1062988 -0.1133926 -0.09310933 -0.07611895 -0.2543638 -0.06078719 -0.09738217 -0.05594634 -0.03711209 -0.04079286 -0.06079964 -0.09169373 -0.05992028 -0.2579598 -0.1024552 -0.05044524 -0.0659788 -0.1185043 -0.08232538 -0.1629407 -0.07426578 -0.06603952 -0.09111863 -0.09722934 -0.07845443 -0.07079685 -0.04825525 -0.1825093 -0.01440511 -0.01505211 -0.1068951 -0.05898583 -0.07433491 -0.06390651 -0.1352016 -0.01432591 -0.09690738 -0.08735686 -0.0776758 -0.0866001 -0.08030391 -0.08601739 -0.1429724 -0.3181992 -0.09439301 -0.08331864 -0.05509783 -0.06427876 -0.08761253 -0.08041447 -0.07769605 -0.09796309 -0.1095357 -0.09969094 -0.1691 -0.1168819 -0.1654341 -0.2222948 -0.1733486 -0.0992976 -0.07045209 -0.07093236 -0.01369463 -0.08448043 -0.1123332 -0.09858511 -0.2332373 -0.1076963 -0.06289028 -0.1308411 -0.1421345 -0.09782773 -0.09404615 -0.09560845 -0.09140878 -0.08402661 -0.08756255 -0.1240173 -0.08720872 -0.1327747 -0.0661833 -0.119464 -0.07340333 -0.06626935 -0.07859998 -0.1199714 -0.1250807 -0.09781972 -0.2847604 -0.08456946 -0.09977375 -0.08513836 -0.05438618 -0.1058972 -0.08738897 -0.01726795 -0.04263133 -0.09158222 -0.0719104 -0.133641 -0.07478704 -0.06815629 -0.106927 -0.05839039 -0.07699613 -0.2873479 -0.1068776 -0.01419383 -0.09470955 -0.1375176 -0.1556609 -0.2441683 -0.1677885 -0.06164008 -0.03500634 -0.1001012 -0.1101087 -0.07052863 -0.01417207 -0.08343864 -0.09433019 -0.07162531 -0.08679076 -0.1177344 -0.01701283 -0.08464373 -0.09348483 -0.06868241 -0.08058032 -0.07566436 -0.1432135 -0.06656424 -0.09378808 -0.1057355 -0.0838535 -0.08832559 -0.08255608 -0.01456775 -0.3036304 -0.08933545 -0.1137295 -0.07144952 -0.1894545 -0.04914127 -0.01413771 -0.09596841 -0.05366651 -0.08733414 -0.1065231 -0.10113 -0.1478434 -0.01446231 -0.09809295 -0.100664 -0.1442636 -0.1582197 -0.1847015 -0.09321365 -0.09717032 -0.09731124 -0.04687483 -0.08240814 -0.1142322 -0.1134766 -0.2014726 -0.06929659 -0.1325949 -0.100529 -0.1059973 -0.08243797 -0.06806733 -0.07138977 -0.05563848 -0.06373998 -0.09862828 -0.1186798 -0.08666457 -0.09645399 -0.116266 -0.07930505 -0.08731119 -0.08698323 -0.09480365 -0.03730579 -0.04994066 -0.09100091 -0.07269812 -0.1424316 -0.05192044 -0.05164168 -0.120991 -0.2848836 -0.123926 -0.1327969 -0.1072323 -0.0773318 -0.1596885 -0.1092921 -0.07626449 -0.08950157 -0.1260199 -0.09607259 -0.07972446 -0.01480646 -0.09437349 -0.09870067 -0.1608445 -0.1828673 -0.1018515 -0.1270128 -0.07306568 -0.1051707 -0.09042141 -0.0815163 -0.2299601 -0.04721371 -0.2050063 -0.1411997 -0.01520484 -0.2512912 -0.05834396 -0.1152403 -0.07093441 -0.2763223 -0.06673703 -0.1113892 -0.1032448 -0.1292892 -0.1143662 -0.0887185 -0.1032856 -0.09477741 -0.1136307 -0.06932993 -0.1353707 -0.09695376 -0.06820054 -0.06099503 -0.107009 -0.08541019 -0.05530227 -0.06927469 -0.08020433 -0.09534629 -0.05697817 -0.07122194 -0.09465878 -0.01459527 -0.01394527 -0.03615965 -0.1194616 -0.05097391 -0.07896668 -0.03438756 -0.1721565 -0.07804146 -0.01378525 -0.08823304 -0.08382747 -0.03929791 -0.08264475 -0.01434987 -0.05924039 -0.07049133 -0.10572 -0.1166598 -0.09914795 -0.07069009 -0.08798483 -0.1202765 -0.08535068 -0.01471453 -0.08333492 -0.07484248 -0.08024742 -0.08941731 -0.09405582 -0.07833719 -0.08519249 -0.0516575 -0.03881866 -0.07301181 -0.08816249 -0.01516648 -0.09890436 -0.07400584 -0.07788613 -0.06828914 -0.1031921 -0.116815 -0.1611329 -0.07302642 -0.08183888 -0.08458126 -0.05942935 -0.07181226 -0.06059027 -0.08695311 -0.06608254 -0.1065318 -0.1164441 -0.07432715 -0.0534844 -0.1052412 -0.08858006 -0.1200117 -0.08323564 -0.2547271 -0.06985559 -0.1061939 -0.07830425 -0.1116886 -0.08803159 -0.08104949 -0.1256821 -0.05443012 -0.1609615 -0.07765192 -0.07204352 -0.09757628 -0.1307138 -0.07944017 -0.08308481 -0.125936 -0.1157737 -0.0138391 -0.1207391 -0.1458979 -0.08204169 -0.08823024 -0.06626597 -0.2201903 -0.1143909 -0.1043101 -0.1038696 -0.1385643 -0.08021252 -0.01426197 -0.06737909 -0.07041411 -0.09779492 -0.06867748 -0.04244778 -0.04972126 -0.08865843 -0.1122763 -0.07983913 -0.06256912 -0.08371234 -0.01530805 -0.06793451 -0.08864613 -0.0891434 -0.06542518 -0.07077596 -0.06829916 -0.06987178 -0.135586 -0.04807789 -0.1037354 -0.09125376 -0.1363275 -0.08489201 -0.1091277 -0.3188891 -0.09203066 -0.09775116 -0.083564 -0.09713756 -0.1900836 -0.02548878 -0.03424311 -0.04801039 -0.1007664 -0.1305514 -0.06989035 -0.08720109 -0.05250582 -0.1150267 -0.05440267 -0.145923 -0.1025311 -0.1342839 -0.1162049 -0.2078016 -0.0643535 -0.06931928 -0.08993065 -0.08174447 -0.09584408 -0.1035815 -0.07762122 -0.07222267 -0.1353583 -0.08688014 -0.01438482 -0.07916154 -0.1500085 -0.1104741 -0.2401848 -0.1152875 -0.07876265 -0.0997728 -0.08066761 -0.09584408 -0.2419329 -0.1257227 -0.0149927 -0.09296656 -0.2346235 -0.07443463 -0.08992464 -0.04758951 -0.08081965 -0.121596 -0.06212063 -0.08268682 -0.05829805 -0.04572637 -0.08865447 -0.1502284 -0.06431542 -0.09338799 -0.01537712 -0.1065582 -0.09773867 -0.09145129 -0.1041244 -0.09383308 -0.1039976 -0.05698203 -0.07098861 -0.08015587 -0.09110564 -0.09796365 -0.01410579 -0.06339506 -0.1037267 -0.1239572 -0.08240357 -0.1132339 -0.1025071 -0.05731937 -0.1143752 -0.06997025 -0.07416198 -0.06949382 -0.1073187 -0.07400436 -0.1126601 -0.07740104 -0.06821581 -0.09255412 -0.1248982 -0.079654 -0.1102064 -0.08940524 -0.05921934 -0.1161935 -0.07327635 -0.09181534 -0.01564661 -0.0786657 -0.06144497 -0.07800686 -0.07880433 -0.08321449 -0.08496996 -0.06886892 -0.0597806 -0.1169793 -0.06589668 -0.04589862 -0.0146102 -0.07327395 -0.08009489 -0.0155902 -0.190753 -0.0657711 -0.08912563 -0.09259947 -0.07982665 -0.04372612 -0.1200331 -0.2195521 -0.1825814 -0.01474601 -0.09273707 -0.1630398 -0.1061885 -0.09597839 -0.08340939 -0.118059 -0.05473936 -0.09191626 -0.09226693 -0.1047893 -0.0842233 -0.07480073 -0.1060272 -0.07578858 -0.07038071 -0.06663067 -0.09398007 -0.1054631 -0.09458656 -0.1119548 -0.07922281 -0.09421763 -0.1578317 -0.05301534 -0.09792598 -0.1128313 -0.07991233 -0.08843125 -0.09682622 -0.08721582 -0.1016947 -0.08332486 -0.04708317 -0.07947879 -0.06312392 -0.1503632 -0.1056809 -0.08058303 -0.01789529 -0.1047319 -0.06582541 -0.06585678 -0.09580175 -0.09615327 -0.09284983 -0.0804082 -0.05639821 -0.09621346 -0.03051175 -0.1236776 -0.06201321 -0.09942851 -0.07010193 -0.01468869 -0.0147001 -0.1095603 -0.09849499 -0.06621263 -0.05831058 -0.05490679 -0.1822368 -0.08740278 -0.1117963 -0.08568174 -0.1016634 -0.01408042 -0.1093778 -0.07643539 -0.05307619 -0.06184454 -0.09198841 -0.09759591 -0.09414045 -0.07217336 -0.05289552 -0.07449634 -0.06106564 -0.0921809 -0.2746104 -0.06112845 -0.08127014 -0.09434103 -0.09043072 -0.08872491 -0.1310636 -0.02994119 -0.1491409 -0.05988633 -0.07615624 -0.09598241 -0.07681039 -0.07255749 -0.1719433 -0.09866776 -0.1331407 -0.06164586 -0.08290518 -0.1229165 -0.08217108 -0.0995476 -0.06445871 -0.1942262 -0.0807033 -0.108661 -0.07160529 -0.1304581 -0.06900087 -0.08050451 -0.08753067 -0.1032867 -0.07533598 -0.1170644 -0.138311 -0.1663437 -0.09825461 -0.1687426 -0.08926149 -0.07921985 -0.3295857 -0.0693952 -0.05960618 -0.01446855 -0.0795824 -0.1327524 -0.1055935 -0.09834553 -0.1049774 -0.06848504 -0.02963132 -0.08897879 -0.07696163 -0.1127857 -0.1405961 -0.06150655 -0.09509385 -0.1153992 -0.1234938 -0.1080856 -0.07564843 -0.09316366 -0.07556558 -0.1214887 -0.1005304 -0.08092426 -0.05083245 -0.07264775 -0.06585152 -0.09295359 -0.1435452 -0.09114637 -0.1461084 -0.06504232 -0.04574938 -0.2577974 -0.209637 -0.0939571 -0.124527 -0.08494245 -0.04986595 -0.1092101 -0.0599059 -0.06022988 -0.127663 -0.1000948 -0.08987581 -0.08007213 -0.3314192 -0.07447708 -0.05210655 -0.08171449 -0.1714434 -0.06464069 -0.08842466 -0.1230938 -0.1286356 -0.1322343 -0.04168048 -0.08458625 -0.06321312 -0.09205849 -0.08826268 -0.107326 -0.1114964 -0.07229505 -0.08913152 -0.1989791 -0.06658947 -0.057061 -0.07329693 -0.09207664 -0.1067995 -0.1053084 -0.0553873 -0.0793431 -0.129258 -0.0925286 -0.07804448 -0.01673462 -0.06907366 -0.04083413 -0.1393232 -0.06306653 -0.04794995 -0.09471974 -0.1216266 -0.1351437 -0.05142555 -0.1383028 -0.09453058 -0.08879746 -0.1869226 -0.05237421 -0.04792456 -0.06039695 -0.06549856 -0.05287537 -0.060466 -0.05772388 -0.1684121 -0.1414418 -0.2352167 -0.1088706 -0.08034321 -0.1242501 -0.1266299 -0.08082864 -0.1507582 -0.09224807 -0.08153673 -0.06490859 -0.06448064 -0.271296 -0.1356763 -0.07800049 -0.0139092 -0.07871805 -0.08325029 -0.1006451 -0.05802982 -0.1026336 -0.08436269 -0.1027447 -0.08180895 -0.1281255 -0.1403351 -0.1424184 -0.0677301 -0.05876122 -0.01405088 -0.04996189 -0.01467565 -0.09723847 -0.1038199 -0.0937299 -0.08495507 -0.1403949 -0.06685993 -0.1480646 -0.06605334 -0.1042462 -0.06842392 -0.06986948 -0.04592847 -0.07584143 -0.1045248 -0.08605849 -0.08819353 -0.0993889 -0.08663436 -0.2444451 -0.08236193 -0.07514776 -0.117817 -0.1536645 -0.1240683 -0.09887741 -0.130278 -0.09378927 -0.1009617 -0.09943767 -0.08441377 -0.05641049 -0.0917271 -0.0558678 -0.07884819 -0.07094482 -0.05088538 -0.0766735 -0.095838 -0.06604484 -0.01372174 -0.07568533 -0.0667314 -0.06102028 -0.07857685 -0.09285524 -0.08317579 -0.1102695 -0.1498379 -0.1037931 -0.05244577 -0.1438532 -0.3133102 -0.0985744 -0.2385941 -0.07783281 -0.06243056 -0.07346743 -0.07218624 -0.04223435 -0.08623568 -0.1036692 -0.06646221 -0.1181481 -0.0767666 -0.01361293 -0.2339725 -0.08017144 -0.09308103 -0.1122368 -0.08519193 -0.09931635 -0.01554832 -0.0910893 -0.08233196 -0.08277886 -0.07018613 -0.1862484 -0.08761957 -0.08075608 -0.09992573 -0.01488473 -0.2341438 -0.07298351 -0.07963733 -0.06276456 -0.08850291 -0.1624962 -0.04787749 -0.1538837 -0.03819386 -0.06014987 -0.06762031 -0.06443409 -0.05823313 -0.08718304 -0.08393658 -0.06207354 -0.09463531 -0.08334704 -0.1150731 -0.2044807 -0.09137474 -0.1137742 -0.0854969 -0.1187639 -0.1034535 -0.1230457 -0.1276401 -0.04830272 -0.06673286 -0.05513691 -0.06397898 -0.1380376 -0.1001184 -0.1281058 -0.09450596 -0.1211135 -0.1284453 -0.06263391 -0.09119717 -0.07491837 -0.1369886 -0.25501 -0.07932469 -0.08186574 -0.06910847 -0.05068536 -0.09863701 -0.0139517 -0.07235473 -0.0917747 -0.05700481 -0.09317023 -0.0623503 -0.09949284 -0.05740644 -0.07902889 -0.104695 -0.09500685 -0.100544 -0.1418689 -0.0952182 -0.01408442 -0.07526172 -0.0647495 -0.1490309 -0.07950413 -0.05057376 -0.05672003 -0.0856138 -0.07358319 -0.07111372 -0.08457708 -0.239119 -0.07887001 -0.06629167 -0.08961171 -0.1765172 -0.1129425 -0.1210521 -0.04070751 -0.1123422 -0.08123343 -0.07559429 -0.07271346 -0.01486132 -0.09378774 -0.09855931 -0.06985794 -0.1267082 -0.01527009 -0.05293344 -0.0569931 -0.08754354 -0.09447417 -0.04069645 -0.09104609 -0.07048433 -0.1126097 -0.1215534 -0.1037534 -0.08737303 -0.106083 -0.1263895 -0.09081583 -0.0158836 -0.1346013 -0.06865778 -0.08975413 -0.09027156 -0.06579309 -0.09602255 -0.08567103 -0.1361309 -0.01472206 -0.07844846 -0.0885052 -0.07837527 -0.07963322 -0.1039166 -0.2315787 -0.1084081 -0.08078662 -0.07535992 -0.05997203 -0.06300201 -0.07177565 -0.08724384 -0.06625784 -0.04548549 -0.01448118 -0.2655174 -0.1108049 -0.09589799 -0.1003055 -0.1068036 -0.08614734 -0.08178851 -0.2335903 -0.1014329 -0.07884394 -0.07349154 -0.1631144 -0.09750269 -0.04790663 -0.09585645 -0.08637987 -0.1038304 -0.03593513 -0.09456588 -0.0797828 -0.09728388 -0.06358467 -0.1310692 -0.08115654 -0.2372715 -0.07519921 -0.04605295 -0.06235996 -0.1056001 -0.2290502 -0.124497 -0.08004281 -0.01701095 -0.1639668 -0.07975991 -0.09328878 -0.09673385 ]
<!EndOfComponent> 
<Rescale> 1024 1024 
<LearnRateCoef> 0  [ 5.660545 6.928745 8.723376 4.332207 405.9756 5.763 9.01767 349.2904 8.769421 5.996132 7.671202 511.993 5.343458 4.442654 5.98754 4.605769 5.060893 5.115491 7.110675 3.042757 5.823864 4.649171 5.803578 6.161162 2.619843 8.943644 7.442976 6.732474 4.856117 4.592885 5.438555 8.238501 8.567943 8.659634 7.669608 7.787534 5.844244 6.973051 6.273621 6.061331 7.580891 6.306151 2.756449 6.576844 5.675803 6.749316 8.222918 7.337762 9.30646 8.749318 5.937736 2.822538 5.295503 7.245476 5.05163 4.124496 7.321082 4.838519 6.070714 5.694875 6.116438 5.463231 7.754775 8.609547 6.100548 3.779829 394.558 336.0509 6.583311 8.738559 6.751111 5.976276 4.703723 405.7768 7.436094 7.17006 7.465637 7.49613 6.934156 4.377335 5.612769 2.382275 5.463291 6.627404 6.765095 9.167751 7.905734 8.594389 7.581392 6.074589 6.587655 7.312511 3.266259 3.787962 3.660521 2.918062 4.12718 6.371065 6.908768 6.164657 469.0914 5.728011 4.959186 7.594625 2.784902 5.045836 9.473796 5.883297 5.078815 7.00251 6.821033 6.840735 7.081115 4.702218 7.651356 5.479411 4.22923 5.106483 6.55185 6.494267 9.405916 9.909329 4.98062 5.578701 5.677162 6.412073 2.557711 6.966179 6.87192 7.408551 5.988551 6.022363 7.285307 156.9981 7.529991 6.20178 5.997097 4.225071 8.449317 7.885007 4.236463 6.704981 9.212163 2.601334 4.769658 417.7622 5.86238 4.536528 4.294892 3.105735 3.674386 6.438961 6.977182 5.124317 4.719623 8.050138 415.8549 6.498585 5.831263 5.884454 5.331406 4.656096 223.326 6.504003 6.224467 9.064869 7.490753 8.600181 3.566472 5.858478 7.35991 6.794302 6.115829 6.898053 8.932255 386.8613 2.347163 5.873844 5.464467 8.615499 3.261544 7.158782 424.173 5.410202 6.975857 6.166648 4.904948 7.401897 4.103754 390.5302 6.768122 5.103693 4.169018 3.483 3.630368 4.647847 6.813622 5.526414 7.347026 8.270666 3.960533 5.057298 2.942511 9.005645 4.411157 5.095131 5.982473 6.75286 7.647499 4.909236 8.327432 7.459879 6.78069 3.839241 7.114854 7.522484 5.261067 6.955994 7.637784 4.618392 8.160609 8.366931 6.12973 7.080059 5.601043 4.676164 6.413885 7.494792 5.707525 2.991647 5.285416 5.680044 6.607873 9.188574 3.785521 4.349624 8.546756 6.555202 4.883831 7.084239 6.58979 354.8593 7.553817 6.900269 4.848451 3.245014 5.199822 3.682725 7.529696 6.843367 6.160744 7.134563 3.258836 7.289229 2.999585 4.563692 328.5523 3.088348 5.598941 6.08292 8.959316 2.672764 5.752316 4.702129 5.63254 5.22374 6.961226 4.684145 6.447684 3.859141 5.195589 6.247048 4.833389 5.42832 9.250484 9.934539 5.834711 7.664235 6.687605 7.268966 7.142456 6.708496 8.181231 5.965854 6.163193 374.5638 442.2318 7.917752 5.238643 6.790651 6.44657 8.813604 3.11794 5.262305 459.519 6.430304 7.77087 7.159695 4.928277 403.1056 5.855865 5.835944 7.568023 5.010699 6.092961 9.060505 7.500616 5.231865 8.199263 356.1148 7.221426 6.683733 8.451637 7.074903 6.039508 8.639114 8.454582 6.355881 7.286928 8.773692 6.351546 325.616 6.887264 8.532478 7.80831 5.187009 6.108842 4.73935 3.944685 8.117658 5.767644 7.160323 6.472864 9.4446 5.587829 7.908933 5.459458 4.885509 6.539903 7.245488 6.821771 5.308916 7.633191 5.139431 8.06846 2.830675 8.081702 6.396185 6.118184 6.252759 7.894097 7.551208 4.264524 6.682419 3.089047 7.319841 7.478505 6.977344 4.706936 4.459244 7.145826 4.657791 6.235804 453.8567 4.711132 5.167556 8.360109 5.68701 6.472034 3.156435 4.843164 6.244146 7.151748 4.347011 8.956753 410.6678 7.958775 6.377254 7.250536 5.57902 16.68956 7.755207 6.155591 5.672955 8.180262 7.614332 7.27517 300.3414 5.574245 4.252526 5.067905 6.095479 7.33181 4.991109 6.1736 4.372915 6.683146 7.011335 8.155383 4.843209 8.167188 7.076641 2.315539 5.424476 6.227618 6.721559 4.439263 3.10964 71.10452 8.480182 6.914693 5.945864 3.603231 6.940371 7.196762 9.350959 6.361058 6.00041 4.048428 6.469767 4.925713 5.880323 3.518348 5.993325 6.240296 7.349915 9.158323 6.763787 4.530658 5.752256 4.856111 4.71007 7.032095 396.8816 7.280379 4.488975 7.730391 3.130798 7.032578 6.689321 5.795011 7.022327 6.853308 2.93215 4.864347 326.3265 7.060276 2.902916 6.715677 7.857191 7.168897 6.448306 5.419332 5.571131 7.836936 9.808087 8.12481 6.562872 4.028075 9.251956 5.774458 304.0192 6.168682 7.569866 7.316648 5.774295 7.435888 5.733647 6.760642 7.49525 6.645679 7.607789 4.323777 424.8388 5.382424 6.046726 4.392599 8.141826 6.637694 5.573466 8.520947 6.402343 6.183281 5.307773 9.595122 3.983841 5.848202 5.136176 7.080986 8.987492 5.528019 5.632665 8.270967 5.998501 7.201894 9.14026 5.278883 6.943283 7.904375 278.1198 5.451276 8.170235 4.969637 5.197062 6.714138 8.485805 4.84606 5.731578 5.652576 6.479519 6.623209 376.5887 5.281056 7.683351 294.1939 4.011058 5.340449 6.124316 4.634418 7.221898 9.381512 5.119436 3.017869 3.769522 341.2091 6.727476 3.782162 4.376242 7.346042 8.561517 5.831933 6.362635 6.793792 6.888103 6.712388 6.177552 4.549995 6.362068 6.192704 9.289121 7.473432 6.812175 7.069684 6.015022 5.561327 6.76212 4.925333 4.288077 5.623631 6.890157 5.964463 8.843731 6.273088 7.611846 8.331613 7.364633 7.094561 6.460083 5.425299 7.970724 4.966743 6.516195 6.275848 139.9621 5.169443 7.338171 6.055202 5.336212 4.776186 6.332468 7.873626 7.91457 6.532826 9.297646 5.273484 5.458953 5.702322 7.693628 369.6488 355.2794 6.145917 5.747619 5.703499 7.011107 6.800761 3.477101 5.232782 6.549472 7.326965 7.418765 424.5703 6.212306 7.941067 11.46234 9.175799 7.573092 4.998376 7.738642 6.300086 7.914368 8.282554 7.363933 7.162316 2.775798 5.460551 8.546921 6.976509 4.336162 5.948597 5.671949 8.44173 3.898138 9.075754 6.487189 5.375748 9.196319 7.05251 3.678744 6.397496 5.319691 7.062593 6.127156 4.024298 5.240342 5.449908 5.508963 3.577992 7.406076 5.325695 5.541264 4.52755 6.03102 4.908602 6.524665 6.653495 5.40778 4.606188 4.373127 4.383739 7.201737 3.230738 4.854443 6.035683 2.260978 9.205644 8.728742 390.2463 5.360531 3.544566 5.270403 4.185553 5.680648 6.164592 8.791717 6.00843 8.658604 6.476835 3.716817 8.381635 7.348071 6.071799 5.644407 6.787135 6.601935 4.912022 9.62335 5.213409 5.066719 7.723785 5.761144 7.614707 5.677344 7.813117 4.957045 6.921531 3.930043 8.695045 6.93643 2.777998 3.002467 7.698105 6.275101 7.90182 6.772583 4.825534 8.087577 7.792859 5.375436 7.255633 7.898836 8.11619 2.249365 7.177409 7.328646 7.946351 3.075104 8.030373 6.034476 4.417325 4.239838 6.30742 8.542254 5.932797 8.585203 6.454968 6.405212 6.516868 5.826044 8.64767 5.249409 3.86032 8.987752 5.560219 8.17267 8.216358 5.194264 5.360065 6.251177 8.03433 4.309617 5.295992 6.848436 189.3093 8.483814 6.522537 4.238198 6.179895 6.50139 6.356048 6.624264 5.786798 7.19153 5.635281 4.252747 8.177293 3.186939 6.386662 6.495097 6.136123 5.924402 7.466145 9.315262 8.235545 3.956524 3.44694 3.156624 5.722832 8.323824 3.663672 4.724488 4.862524 4.371142 7.692364 7.522492 6.66188 7.372812 2.869975 4.721562 8.507638 441.1484 5.912836 6.539808 5.409918 7.004147 6.621168 7.435046 4.911044 6.00014 4.367566 3.526736 4.281001 6.833942 7.422457 433.9362 7.536531 369.6508 6.625257 5.318497 5.751479 7.636052 4.895599 5.686069 4.570584 7.165335 6.115815 7.847655 6.257318 6.761069 4.651381 7.108413 7.138973 8.164063 4.29981 5.714212 2.81539 7.587111 4.917807 5.987219 5.034128 6.25679 5.284148 5.013659 6.814851 6.412687 6.13246 7.292375 10.11945 7.570853 6.895133 6.692341 8.814366 10.7668 5.013428 5.630446 7.357771 465.5265 5.961561 7.080303 8.279248 6.967994 6.544649 8.852686 7.117472 4.606891 4.332482 11.95611 3.643243 2.73028 5.96971 2.912706 6.222205 7.319655 9.2862 4.939551 7.496237 7.271194 7.181007 7.427773 4.738675 7.826655 473.3082 2.9834 4.547608 7.758243 5.281814 7.324176 5.275298 310.0048 6.808045 6.284139 8.597 9.708707 3.809942 5.235172 6.259393 7.176456 360.7637 3.028346 5.467671 7.441515 7.208405 4.202222 3.62202 6.470235 4.913298 7.852548 6.406637 9.807394 9.022431 6.069959 6.08667 7.384682 5.847834 5.054133 7.505179 6.016241 2.912121 5.798859 5.214505 7.912518 6.448784 5.264506 4.562815 6.063756 6.900019 5.280389 9.210937 10.58191 3.752739 5.676545 5.307724 5.311133 6.543685 5.767204 8.153852 7.440579 6.681699 3.620274 2.676221 7.667635 5.515113 4.851131 7.51074 6.191157 441.9279 9.207241 6.22771 6.913338 6.950853 5.157471 7.625302 5.699432 6.481003 6.608799 4.86353 7.124387 4.432421 6.580343 430.3887 5.237656 7.602374 4.591646 7.545314 9.041669 6.783023 7.550911 5.629605 8.618237 5.920865 2.902861 8.285647 9.043216 6.232454 3.65679 5.174877 4.491127 7.018759 5.804251 7.324945 8.696916 7.813901 358.9473 7.68382 5.740363 7.177209 3.70618 294.6572 9.962385 5.91492 4.909638 7.583535 7.598075 6.529459 5.327757 4.649224 6.501311 6.71562 7.180019 7.003636 3.636615 7.143736 275.4206 5.599055 8.782856 5.723362 7.226056 5.466109 7.762202 6.846558 3.935244 375.734 6.999677 8.044994 8.690066 8.546062 7.00724 3.362033 5.855933 6.093581 9.073807 6.464171 8.689303 5.654555 7.942496 7.813391 7.161532 372.0528 2.705044 5.846593 5.935784 7.284185 6.32362 4.402143 5.763361 3.157245 4.912859 5.576952 8.289961 3.303986 6.68108 6.177807 6.705856 7.658036 6.413806 7.636835 7.250892 6.490045 7.388302 9.067005 5.003781 9.167015 2.80808 6.047132 8.327794 9.174025 6.264175 2.79351 3.94398 7.188667 202.6764 3.151069 7.612423 7.136672 5.448895 ]
<!EndOfComponent> 
</Nnet> 
