<Nnet> 
<AddShift> 1024 1024 
<LearnRateCoef> 0  [ -0.01417886 -0.08997329 -0.08113775 -0.08514398 -0.01350846 -0.02133669 -0.09557347 -0.01303251 -0.07084718 -0.114008 -0.08339327 -0.01285383 -0.1104769 -0.08946514 -0.0812103 -0.1114042 -0.09299865 -0.07583045 -0.08866468 -0.06905037 -0.09883422 -0.09098709 -0.09548017 -0.01301039 -0.1148929 -0.118315 -0.01301274 -0.09963939 -0.1008097 -0.08311892 -0.1116329 -0.06161128 -0.01318816 -0.06188887 -0.01310147 -0.05535743 -0.06450201 -0.09510074 -0.07452567 -0.09629346 -0.1550997 -0.08839882 -0.05719374 -0.0805167 -0.06581134 -0.1609431 -0.1270685 -0.1106859 -0.01372708 -0.01319129 -0.08434242 -0.06517487 -0.08664896 -0.08020806 -0.1416136 -0.08922891 -0.04732371 -0.01359038 -0.09212305 -0.0142182 -0.1124509 -0.01320424 -0.3053705 -0.01327069 -0.08787113 -0.07595939 -0.01498718 -0.06407842 -0.1289677 -0.02770913 -0.06539521 -0.2088609 -0.06133135 -0.01314958 -0.1022331 -0.07280241 -0.01334485 -0.119197 -0.1217696 -0.06458862 -0.1207581 -0.06868818 -0.07009447 -0.106149 -0.114502 -0.02351506 -0.04849462 -0.0140167 -0.05578278 -0.1070728 -0.1039207 -0.083971 -0.07954853 -0.1876538 -0.09496014 -0.09193066 -0.1766136 -0.07152153 -0.08899999 -0.04545723 -0.07963405 -0.01304613 -0.08850291 -0.09718294 -0.2001435 -0.1133592 -0.1126312 -0.101889 -0.09699967 -0.07699977 -0.08840159 -0.05535166 -0.07655872 -0.06607774 -0.115307 -0.1492332 -0.1852915 -0.01411333 -0.08416977 -0.05309999 -0.0963394 -0.0783253 -0.08404468 -0.05694218 -0.08189971 -0.08477397 -0.0888584 -0.08116969 -0.01316995 -0.1105501 -0.08709042 -0.100744 -0.01299826 -0.01339764 -0.01322327 -0.01345057 -0.1020103 -0.07932772 -0.05731181 -0.01379099 -0.05604883 -0.09744617 -0.01334351 -0.03736593 -0.08744636 -0.07159211 -0.08788261 -0.08714812 -0.0694899 -0.09839754 -0.1247521 -0.1118824 -0.08554192 -0.09670297 -0.08686975 -0.07380501 -0.01295692 -0.1141556 -0.08673833 -0.1122033 -0.0791655 -0.09171298 -0.01317029 -0.07229035 -0.01308158 -0.04882994 -0.1085718 -0.01310102 -0.06371775 -0.1164819 -0.07672435 -0.0138721 -0.09849454 -0.1257584 -0.08090366 -0.01434969 -0.06819482 -0.09827507 -0.08478497 -0.1065312 -0.1275111 -0.04088046 -0.05759326 -0.06485251 -0.1376822 -0.1967935 -0.09764446 -0.0585761 -0.08064099 -0.08529717 -0.1438231 -0.05317044 -0.09928264 -0.07690705 -0.08747929 -0.0922593 -0.07742538 -0.07713718 -0.08030468 -0.01360479 -0.09204118 -0.07913454 -0.08160673 -0.07634986 -0.07982124 -0.1031671 -0.07881532 -0.0131846 -0.01515402 -0.2043398 -0.106801 -0.1082123 -0.01334198 -0.06411429 -0.06895441 -0.08643652 -0.09320236 -0.3867557 -0.0587209 -0.07844847 -0.1157438 -0.1607433 -0.08065958 -0.0130687 -0.0835966 -0.07896103 -0.1307842 -0.315194 -0.1468579 -0.07470121 -0.0983966 -0.08855031 -0.1220478 -0.01289066 -0.114852 -0.09608962 -0.101126 -0.0881129 -0.07069939 -0.07783852 -0.08981598 -0.01335159 -0.01372111 -0.09639721 -0.01349268 -0.08736595 -0.01312176 -0.08182994 -0.01360931 -0.07399582 -0.07940744 -0.08268137 -0.1031417 -0.09328321 -0.09055416 -0.08055314 -0.01444322 -0.08357356 -0.08870294 -0.06877158 -0.09311354 -0.1328518 -0.06285071 -0.08408718 -0.08187316 -0.01341768 -0.07477725 -0.01326451 -0.1254654 -0.0923219 -0.01383596 -0.1093275 -0.1039477 -0.08208705 -0.1053289 -0.07049738 -0.2344829 -0.1049171 -0.08506262 -0.08001122 -0.08627683 -0.09308869 -0.09703679 -0.01368571 -0.06812406 -0.01551187 -0.01349621 -0.09180487 -0.07738651 -0.07991606 -0.09427733 -0.07102756 -0.07937656 -0.03062512 -0.01261119 -0.1100282 -0.1162672 -0.06263606 -0.1696172 -0.0135261 -0.05025277 -0.06198635 -0.01347392 -0.1355283 -0.1091406 -0.05243038 -0.01324508 -0.0788952 -0.09036683 -0.01263277 -0.09706113 -0.0567915 -0.09472236 -0.01389517 -0.09418712 -0.04029115 -0.08837353 -0.08922307 -0.1481899 -0.06711135 -0.0828691 -0.01327448 -0.1102352 -0.01304447 -0.01401889 -0.1227598 -0.09442811 -0.05638768 -0.1108677 -0.01272913 -0.07098882 -0.3333529 -0.09732734 -0.0672913 -0.08561462 -0.1495326 -0.06429832 -0.1066142 -0.05508192 -0.01319132 -0.08009406 -0.1134351 -0.08939798 -0.06546101 -0.1031531 -0.09090146 -0.03660542 -0.1195455 -0.09158379 -0.08123606 -0.09262092 -0.0601732 -0.1025651 -0.1015896 -0.08156592 -0.112057 -0.07912971 -0.08914576 -0.05767916 -0.1018222 -0.01314601 -0.1113959 -0.01402119 -0.01288051 -0.1102044 -0.08273112 -0.1108072 -0.01311354 -0.06211979 -0.06234305 -0.06382417 -0.0863663 -0.07753294 -0.08549429 -0.08297841 -0.01293497 -0.06913271 -0.08706059 -0.1019926 -0.06504852 -0.01419739 -0.1524979 -0.08561412 -0.09261774 -0.05987437 -0.2314585 -0.1515833 -0.01393888 -0.09671051 -0.06818575 -0.01291553 -0.08313425 -0.0743526 -0.1167267 -0.09436858 -0.3458216 -0.0750844 -0.01387753 -0.0130435 -0.2043478 -0.08839107 -0.08378047 -0.0886821 -0.1408344 -0.09899548 -0.07434915 -0.1122467 -0.05709507 -0.01390488 -0.08516476 -0.150739 -0.08773455 -0.0944517 -0.1101295 -0.0129678 -0.01333886 -0.01327016 -0.1600935 -0.1026099 -0.1593769 -0.06561159 -0.1046678 -0.06930862 -0.08105557 -0.0611564 -0.07919747 -0.01369363 -0.1509444 -0.08781432 -0.07881745 -0.0900528 -0.07983623 -0.05380941 -0.01332841 -0.0133318 -0.07833489 -0.08538759 -0.1382093 -0.1373357 -0.08637009 -0.01342619 -0.08300821 -0.07249362 -0.06665742 -0.06098974 -0.08324964 -0.1284721 -0.06864645 -0.06945054 -0.08747042 -0.1918102 -0.07104745 -0.09535976 -0.1060548 -0.01360989 -0.01349855 -0.08615111 -0.07591327 -0.09274683 -0.07794032 -0.06638128 -0.05936456 -0.07709511 -0.1010728 -0.09077469 -0.0489913 -0.07373108 -0.09200948 -0.08899581 -0.05192322 -0.1212967 -0.1168534 -0.1180032 -0.01442215 -0.06142482 -0.0732037 -0.2041724 -0.07487649 -0.09326596 -0.06385165 -0.07101724 -0.01355283 -0.08253898 -0.06743985 -0.08380499 -0.09022219 -0.05769349 -0.01295955 -0.1319911 -0.01323615 -0.09370739 -0.08566862 -0.06068365 -0.08420072 -0.08689442 -0.1123321 -0.059055 -0.07642036 -0.09858875 -0.01330475 -0.08571093 -0.0913422 -0.1220794 -0.09325649 -0.07228818 -0.09404033 -0.0789777 -0.09401253 -0.07620811 -0.07777552 -0.08375602 -0.01337879 -0.09483648 -0.01442181 -0.05569789 -0.05881229 -0.08053363 -0.05864745 -0.05563462 -0.09176452 -0.1180513 -0.09129058 -0.09837039 -0.05785852 -0.09219614 -0.06697994 -0.117288 -0.01354928 -0.076126 -0.0848246 -0.1549258 -0.1049284 -0.06917652 -0.07359203 -0.09072208 -0.1312039 -0.08233264 -0.078306 -0.09882813 -0.06331161 -0.119241 -0.01309096 -0.013506 -0.1157451 -0.07853475 -0.09228739 -0.09425532 -0.1256487 -0.05796614 -0.01281993 -0.05948117 -0.01309581 -0.08168068 -0.01331512 -0.07679425 -0.0147689 -0.03377688 -0.08321032 -0.09351519 -0.08478785 -0.08695646 -0.1072477 -0.1200774 -0.1527363 -0.2070188 -0.09767815 -0.0924546 -0.1126599 -0.05783956 -0.05065631 -0.01321567 -0.09732156 -0.07642578 -0.0572241 -0.08625668 -0.01328871 -0.1147392 -0.07438531 -0.01350938 -0.0137634 -0.08838698 -0.07809439 -0.0914965 -0.1230416 -0.01318087 -0.2270684 -0.06927692 -0.06114893 -0.06670901 -0.08208836 -0.07742295 -0.114458 -0.09740458 -0.01336845 -0.01300605 -0.07619043 -0.07526325 -0.1183136 -0.07623136 -0.01371489 -0.01361289 -0.0557146 -0.01325479 -0.05554448 -0.1042494 -0.01399241 -0.01473739 -0.145785 -0.08052877 -0.0967373 -0.05236186 -0.05266598 -0.09695611 -0.1149334 -0.051966 -0.08854355 -0.09215827 -0.1130944 -0.109766 -0.07237976 -0.0677097 -0.07459493 -0.06458511 -0.09639379 -0.1125106 -0.08505543 -0.09744619 -0.08450609 -0.1292015 -0.1401653 -0.1226337 -0.08857153 -0.06166189 -0.07968847 -0.06469966 -0.08835464 -0.05982086 -0.01354627 -0.07738063 -0.06347566 -0.07163407 -0.1147529 -0.1184342 -0.1329902 -0.04844112 -0.1035846 -0.01390271 -0.1206938 -0.100453 -0.09035273 -0.1881647 -0.1214076 -0.1399291 -0.2496554 -0.08126137 -0.01289084 -0.09979872 -0.07102837 -0.08161263 -0.07816392 -0.1283767 -0.07229449 -0.01305396 -0.04806301 -0.06881838 -0.08365391 -0.0533187 -0.06929573 -0.07705394 -0.1141565 -0.07828283 -0.07322349 -0.0735225 -0.07143152 -0.07215814 -0.1222277 -0.0863892 -0.0924824 -0.06571818 -0.2473771 -0.1465199 -0.01319572 -0.01420419 -0.01403314 -0.09382906 -0.01311419 -0.1917393 -0.1069384 -0.01298204 -0.05670922 -0.1027319 -0.07627413 -0.1064384 -0.08640453 -0.01408222 -0.07280896 -0.1304656 -0.09598895 -0.09304232 -0.1128196 -0.09949605 -0.1156784 -0.07561067 -0.05990093 -0.05450705 -0.06347655 -0.01322469 -0.1101119 -0.07787818 -0.09257752 -0.1135236 -0.153633 -0.08571739 -0.07029063 -0.01326186 -0.08523021 -0.0913557 -0.0787307 -0.01312058 -0.1058551 -0.0617954 -0.01299042 -0.01273097 -0.07376064 -0.07414775 -0.1103607 -0.05689091 -0.06902803 -0.1462499 -0.08591462 -0.09492841 -0.08755691 -0.08524063 -0.09926353 -0.08161586 -0.09817688 -0.08384725 -0.07869968 -0.1096631 -0.08001963 -0.1274504 -0.09200968 -0.01401642 -0.06130511 -0.1073893 -0.0648111 -0.08050409 -0.01461045 -0.1048054 -0.05367021 -0.08311027 -0.0831014 -0.0904126 -0.1056656 -0.01316694 -0.1090487 -0.08470868 -0.07216679 -0.01357159 -0.01295647 -0.08903135 -0.1174104 -0.08853877 -0.0908037 -0.0883765 -0.08919489 -0.09866135 -0.08433796 -0.1652647 -0.1055684 -0.1415603 -0.07517203 -0.01348907 -0.1215554 -0.1138554 -0.01280701 -0.1079646 -0.1111513 -0.1020565 -0.04760237 -0.07676953 -0.08058508 -0.1627471 -0.1093327 -0.07828217 -0.05062738 -0.1031319 -0.08289962 -0.1606239 -0.01335531 -0.08987766 -0.1165163 -0.08997732 -0.01368921 -0.1543278 -0.07076499 -0.08623621 -0.0804648 -0.05731032 -0.0134052 -0.0984441 -0.0983183 -0.1136003 -0.06048857 -0.08783592 -0.2213672 -0.07578315 -0.0933253 -0.01361924 -0.08373735 -0.100313 -0.04780599 -0.09932439 -0.08793043 -0.1113508 -0.01272698 -0.1193089 -0.01273999 -0.05596897 -0.09802362 -0.0133374 -0.09497436 -0.06803064 -0.06624185 -0.08373346 -0.08467391 -0.1071405 -0.1137982 -0.07458249 -0.1037566 -0.08100133 -0.09002893 -0.08356764 -0.1149927 -0.121625 -0.145863 -0.1382088 -0.0136673 -0.1224274 -0.07068611 -0.01292054 -0.1273557 -0.07364184 -0.08752318 -0.1208976 -0.06102443 -0.08807525 -0.06738022 -0.09244452 -0.1341095 -0.1555165 -0.01513008 -0.1123244 -0.1058174 -0.01383183 -0.08452298 -0.01393539 -0.07461671 -0.08505062 -0.06252402 -0.01303505 -0.09133811 -0.08963443 -0.1230271 -0.107441 -0.07965615 -0.08919394 -0.0979652 -0.01338086 -0.08419592 -0.116289 -0.08436896 -0.08954979 -0.1176462 -0.07090765 -0.09364678 -0.1090073 -0.0696227 -0.07102543 -0.08374164 -0.06569608 -0.05962864 -0.1206609 -0.08350286 -0.01356393 -0.0725116 -0.1127373 -0.0790649 -0.07428158 -0.0685714 -0.01297908 -0.07299234 -0.1133655 -0.06578618 -0.06961429 -0.1055788 -0.07745136 -0.07031136 -0.1076089 -0.1228303 -0.09493931 -0.1085062 -0.1347938 -0.1433555 -0.07635712 -0.07748204 -0.09572192 -0.089764 -0.1073937 -0.08131398 -0.0894632 -0.07383747 -0.09339255 -0.09361036 -0.08543536 -0.01287367 -0.1140034 -0.09098915 -0.01832228 -0.1128134 -0.01408078 -0.09923203 -0.07922721 -0.07718282 -0.08359885 -0.06256208 -0.06665501 -0.148136 -0.08502719 -0.1252809 -0.01370557 -0.01307589 -0.09648575 -0.09355416 -0.01395746 -0.07062779 -0.01456835 -0.08673745 -0.09862483 -0.1315649 -0.09186769 -0.0131701 -0.1611422 -0.123989 -0.08033873 -0.103535 -0.01300597 -0.06569794 -0.1178803 -0.1092381 -0.01296546 -0.1154532 -0.06678649 -0.1325822 -0.1080909 -0.06085318 -0.1053117 -0.06675805 -0.07294334 -0.1027118 -0.1761781 -0.08349348 -0.09850829 -0.06888846 -0.01400037 -0.1163113 -0.08809551 -0.09142958 -0.07175586 -0.1124481 -0.01351933 -0.100923 -0.06891939 -0.06700939 -0.095324 -0.08868773 -0.08796535 -0.09774749 -0.09092229 -0.08304593 -0.1020538 -0.01281614 -0.1268258 -0.01351286 -0.06650182 -0.09578884 -0.07002815 -0.04535761 -0.1027243 -0.0875049 -0.08592504 -0.01289902 -0.1145763 -0.04833894 -0.1016259 -0.0809587 -0.01294747 -0.09238544 -0.08458044 -0.0664828 -0.07974428 -0.01272122 -0.01415739 -0.1123976 -0.09841525 -0.06417765 -0.01276709 -0.01322245 -0.01294655 -0.09597217 -0.07807364 -0.08118224 -0.08818294 -0.01391669 -0.01324886 -0.09996171 -0.07817825 -0.1113657 -0.05445213 -0.01300915 -0.135399 -0.01324518 -0.07486837 -0.2108203 ]
<!EndOfComponent> 
<Rescale> 1024 1024 
<LearnRateCoef> 0  [ 479.7249 6.853582 7.130032 8.292002 607.1702 76.15667 5.742594 724.9462 7.622112 5.449467 8.101968 750.0439 5.996656 5.916929 5.901979 4.339781 6.414779 8.03944 5.28018 5.734295 6.204159 6.619472 4.113802 719.9864 4.662575 5.122776 735.2958 5.751043 5.177783 8.017101 6.096653 7.332113 701.1273 7.39684 711.6788 9.864125 5.511679 6.127616 8.102661 5.747696 3.472499 6.196517 6.022204 7.774264 9.06322 3.233548 4.748643 5.060528 560.6437 672.9661 5.770655 7.964934 5.570913 6.956401 5.510347 6.033142 6.939565 584.9586 6.485316 454.1248 4.870725 692.0832 2.479055 667.0392 6.252659 7.149314 352.3438 8.168349 4.567446 7.718206 7.283638 3.223719 9.484048 686.8607 6.476315 6.699864 676.5359 5.714301 5.083197 5.156239 4.925143 5.850593 5.759459 5.332579 5.541743 53.22139 8.180947 503.7363 6.344306 5.585078 4.583568 6.686438 6.133793 3.079246 3.679489 4.45413 3.158669 6.765972 5.79123 9.986423 8.100813 707.0923 5.340748 6.407639 2.817478 5.999151 4.556025 5.101808 5.692902 6.565829 5.616615 7.837901 5.565343 6.041219 4.500194 3.105308 2.857079 480.609 6.049526 5.798719 5.916493 7.843803 7.194951 10.07661 6.854854 7.240878 6.175824 4.092107 692.8301 4.751683 5.917108 6.161406 749.5597 636.369 660.7133 625.2188 5.90957 8.900113 6.226722 550.5606 5.844181 7.176141 657.8343 8.284006 6.182273 6.523969 4.661165 6.881332 7.461812 6.194943 4.134332 5.886858 4.669224 5.902169 6.842951 7.375445 725.998 5.201894 4.641181 5.786168 6.921377 5.61483 692.6667 5.097396 711.2566 8.729403 6.392635 698.8444 6.812874 6.734572 9.11994 531.144 6.562201 4.564325 7.950756 430.4884 8.174262 5.886816 5.508117 4.744987 3.48488 10.1211 9.747163 10.57151 4.794459 3.041548 5.193526 8.004297 6.92033 6.554594 5.105477 7.132332 6.015414 4.765458 5.596529 4.968046 5.528699 8.016154 5.580989 591.385 7.254789 7.018636 6.327847 7.555142 7.992255 3.536653 6.924893 696.1263 324.9549 2.883099 6.522169 4.45138 648.6414 8.418174 5.621954 7.518399 7.00573 2.232568 7.370341 7.334947 5.677972 3.07437 6.902915 712.6348 8.341815 5.217903 3.627922 2.309177 3.830597 7.802886 4.479958 6.577705 4.214781 760.7719 4.278843 4.67169 7.539682 5.54014 5.696082 6.830497 7.032448 638.016 567.6511 5.08326 628.4713 5.386321 706.1346 6.880486 589.9147 9.445471 7.189964 5.839192 5.715659 4.363883 6.105752 7.18108 421.5197 7.111785 5.321902 9.246001 6.519377 3.738233 9.875331 7.202791 7.086139 631.5353 7.875415 670.7665 5.055214 4.738914 534.2519 6.086412 6.248687 7.325737 7.201156 6.280856 2.728566 5.899195 6.594259 6.753013 6.647468 4.896462 5.597798 576.0767 6.598037 278.0923 607.1979 5.472314 5.310815 7.088692 6.782183 6.316625 7.29964 7.502088 824.2786 6.348736 5.138436 7.318655 3.841886 597.9928 9.716352 6.758494 612.1871 5.052785 5.781145 9.615579 677.86 6.850644 5.637192 819.7237 4.759986 6.986659 5.031416 521.9205 6.819254 8.095133 6.123816 4.011507 4.259291 6.223484 5.699641 688.441 4.761726 714.7843 497.2565 5.310913 5.392956 5.810955 5.534415 792.2715 7.716235 2.383998 6.206078 8.4273 5.228185 4.731998 6.182559 6.440046 7.458268 703.5301 5.809211 5.564365 7.056324 7.78054 6.664263 6.494081 8.110198 4.316043 5.856251 7.329072 7.347306 6.990497 5.998655 6.489055 5.972858 5.307328 8.302293 5.0738 8.603257 5.207124 702.6727 4.688916 504.1178 749.7487 5.674638 5.671929 5.590995 702.4675 6.946552 5.431193 8.446024 7.075078 6.693193 6.71787 7.696682 749.3956 7.90701 4.906439 4.296051 6.385785 456.7971 3.535903 7.455134 6.91536 7.571193 2.700835 4.020453 517.975 5.735362 6.74951 739.6268 4.409408 6.776234 5.420854 4.259809 2.191457 6.398786 528.4093 720.403 3.413411 7.209033 6.698359 6.685592 5.425686 6.116044 7.448331 4.509412 5.734143 524.9279 7.503812 3.527666 7.221759 7.133119 5.278071 738.7769 653.2603 660.631 3.799333 6.17609 3.075903 7.001272 6.08538 8.170976 5.026969 7.567868 6.783438 571.5807 3.500152 3.962502 7.020992 7.675036 8.610189 6.517569 650.0191 645.6158 7.507668 6.15481 4.714385 4.626556 6.659698 635.8568 7.341574 5.456859 7.793873 6.504076 8.294194 4.592069 5.027068 6.463505 5.823954 3.382644 7.145677 5.26277 5.443706 593.8257 611.9038 6.546635 5.577211 6.701054 7.636464 5.858078 5.92036 6.539836 6.941035 6.689882 8.640039 7.801272 7.212328 6.437042 6.080569 6.782736 5.31892 5.340413 423.1761 8.506083 7.716597 2.865869 8.276612 6.711937 7.484173 6.786666 590.3799 5.852907 7.291802 6.7317 6.771473 7.500718 732.0878 3.90421 674.0867 6.648259 4.497806 5.888309 6.035398 5.984741 3.906624 8.56647 7.854255 6.477114 670.5278 7.40715 5.480282 4.932969 7.867153 5.089858 5.038044 7.822197 7.319619 6.208919 7.643234 5.183219 637.8153 5.901424 426.2042 9.355433 8.229493 4.970772 8.241289 6.874864 6.627281 5.314698 6.585009 5.513921 7.181092 5.491042 6.131068 3.9784 603.0483 5.842642 8.018798 3.314675 5.513901 6.987833 5.269362 6.903397 4.54222 4.58539 6.516908 7.250892 7.541794 4.687929 702.157 610.5849 6.003847 7.559877 5.458992 4.281778 4.757356 8.410587 762.4835 8.00789 710.5591 6.041824 646.6367 7.807308 366.9775 7.81542 4.98229 4.912333 6.516793 4.284631 4.496109 4.763803 4.855853 3.124485 5.11238 6.979103 5.065356 6.357909 7.034054 686.4937 6.350699 5.797878 9.321968 7.026824 655.6402 5.816996 6.995608 630.6171 546.7531 7.622707 5.347171 7.042737 6.138 680.1585 2.967422 5.212336 6.705603 8.602731 8.279409 8.212524 6.245334 6.003078 633.8805 726.077 7.080643 5.282508 5.129756 6.119057 559.9428 584.9343 7.485286 666.1044 8.030312 6.033304 504.3129 378.2854 3.132425 7.550252 5.473107 6.406057 7.599306 5.514046 5.456908 8.464243 6.281988 6.451803 6.289399 5.604541 6.245804 6.768182 6.960595 8.693083 8.455556 5.509351 6.543025 6.262034 7.541746 3.480962 4.844384 4.126695 5.503957 7.174194 6.575146 7.38572 5.641562 7.217002 593.2137 5.434364 9.0386 5.905239 4.739304 4.841582 4.80679 6.911911 3.946448 521.9131 4.94904 5.865032 5.823211 3.167967 4.885778 3.584337 3.11204 7.011572 749.2581 6.209947 8.645596 6.653111 4.521961 4.829951 7.837196 721.7784 8.036545 8.730737 4.998971 8.162309 6.49116 5.804451 6.135673 8.215214 4.860058 8.232758 5.081074 6.226819 4.258036 6.778164 5.813471 6.322999 2.73617 3.720758 688.8187 463.0433 529.7595 5.278914 706.8352 2.855711 4.301043 736.8947 6.569466 4.468506 4.675732 4.57995 5.895089 491.2629 6.606898 4.427273 6.05428 5.533894 5.678202 4.858101 4.692068 8.316685 8.06344 6.031298 7.57619 701.3544 3.921531 6.816599 6.753826 4.823617 3.552155 4.707702 6.668153 675.1943 6.509689 6.900753 7.588346 704.222 3.986016 5.31201 742.3172 789.1215 7.146119 7.015601 5.478678 8.125356 4.785306 4.040929 6.829601 6.227394 3.932214 4.433415 5.244898 7.9999 6.35825 6.056024 7.191656 5.224134 5.118903 5.363652 4.684788 505.8226 6.348188 4.414405 8.458535 7.771642 389.7739 5.581185 6.428224 6.437439 5.056476 6.498971 5.181118 681.795 5.066451 6.864953 6.719863 595.8063 734.793 6.77335 6.244472 7.031715 6.313014 6.821069 4.132672 5.811113 8.495668 3.064664 5.917218 3.838589 7.650365 609.0509 5.290544 5.051682 770.9781 5.839552 5.082987 5.654682 7.754803 7.5144 7.262835 3.404743 4.356516 7.346885 5.442977 5.282145 7.140793 3.229305 645.0937 5.0525 4.048682 7.725064 566.9863 3.182359 7.605363 4.892976 4.862577 6.509004 649.9692 7.034683 4.171286 5.92223 6.712637 5.636638 2.766954 6.326417 7.179131 592.3519 6.705728 7.168588 8.297596 4.133048 7.868844 5.624392 792.9169 4.997879 782.7063 6.071939 6.483307 650.0074 5.704072 5.515254 8.078346 4.754174 5.918311 5.66591 5.13856 8.601457 6.222483 5.523647 6.67595 5.762061 5.163943 4.314003 4.347653 3.527553 577.3434 4.24703 8.460149 741.3679 3.526908 6.377347 6.900893 5.42869 5.07346 5.077102 8.097837 6.547802 3.857436 3.428316 314.8033 4.339702 6.031093 539.7042 7.031016 517.8489 5.583226 6.333653 6.899578 743.816 6.561926 5.244996 5.141064 3.813928 7.168821 5.053043 5.397908 640.5414 5.189104 4.958144 6.53605 6.174387 5.309692 8.383088 7.261483 6.094179 6.794766 7.281962 5.874774 8.976672 7.654523 4.970406 7.455403 673.658 6.752136 6.930874 6.565757 6.64577 5.583609 736.7555 6.768353 5.98212 7.51953 7.814065 6.174068 7.424469 6.681985 4.269946 4.360034 5.41194 5.735568 3.836754 3.25327 6.207205 5.949004 6.260863 5.794501 5.8679 7.64675 4.753182 7.100499 4.201905 6.524604 7.11926 767.0793 5.182016 6.267148 125.5625 6.01466 561.3983 5.092594 8.120014 7.386902 6.622279 9.102756 6.60519 3.573942 6.301963 4.114105 566.1068 729.7294 4.355124 5.697238 519.4688 6.185066 403.3356 5.653461 5.646958 4.920343 7.215162 686.5646 4.238908 5.424264 8.202874 4.943023 717.7187 6.192727 4.751957 4.938346 743.1312 4.655707 5.191489 3.742576 4.798611 9.709796 4.138835 6.138943 9.797373 4.628436 3.065041 6.367591 5.200805 8.751558 516.9228 4.890676 6.484864 5.3839 5.759758 4.953202 601.9516 6.14515 8.444636 4.937074 5.279753 5.888241 4.562022 6.498721 6.166075 6.719384 5.894989 772.3481 3.457474 594.5906 7.691669 4.647909 8.102622 8.201487 4.843711 7.540313 7.176455 754.7388 5.550953 7.33037 6.971777 6.766708 752.6095 6.767612 7.014488 8.537887 7.559515 800.7115 473.6141 5.31859 5.094587 5.985567 781.2214 676.3533 744.1266 6.44479 7.782938 5.225392 5.541662 508.8043 690.9496 5.845321 6.562907 4.240267 7.275134 740.6536 4.861717 668.3267 8.332081 3.364555 ]
<!EndOfComponent> 
</Nnet> 
