<Nnet> 
<AddShift> 1024 1024 
<LearnRateCoef> 0  [ -0.01354518 -0.1011533 -0.01302104 -0.01265043 -0.01312128 -0.01274744 -0.08494926 -0.01280222 -0.01277655 -0.01320756 -0.07298131 -0.01243519 -0.0127428 -0.07076573 -0.01271394 -0.0870793 -0.09364649 -0.06529402 -0.09479643 -0.3066836 -0.1058522 -0.01305192 -0.08290824 -0.08269322 -0.08862081 -0.0128285 -0.01241443 -0.0139772 -0.1010636 -0.138964 -0.06078294 -0.07479955 -0.01284664 -0.01273998 -0.01277091 -0.01325101 -0.08033457 -0.01294758 -0.01246916 -0.08419072 -0.09756981 -0.08412928 -0.08470277 -0.1019002 -0.04043691 -0.1125145 -0.07394835 -0.07178079 -0.01319397 -0.01250208 -0.0796735 -0.2096013 -0.08543033 -0.08307458 -0.0131356 -0.06155653 -0.08869239 -0.01279104 -0.1627118 -0.01321034 -0.03594021 -0.01277429 -0.05161756 -0.012705 -0.01272774 -0.06446445 -0.01272953 -0.0130001 -0.01289689 -0.06985778 -0.0130569 -0.1845861 -0.08870007 -0.01265555 -0.01258007 -0.06993646 -0.01255541 -0.09656283 -0.1114208 -0.13779 -0.1685402 -0.06270225 -0.01287799 -0.09747776 -0.1388517 -0.01235408 -0.08931699 -0.01307205 -0.07185025 -0.0972621 -0.1690522 -0.0128541 -0.1637138 -0.08978235 -0.1047952 -0.06810175 -0.2374639 -0.05538256 -0.01294306 -0.09805273 -0.01260166 -0.01261727 -0.09300765 -0.09515843 -0.1195155 -0.1060586 -0.06577247 -0.0644049 -0.1089052 -0.01253043 -0.09864784 -0.01293348 -0.01359119 -0.2635492 -0.01294094 -0.1337506 -0.1425849 -0.01315633 -0.1005585 -0.09557416 -0.10712 -0.01303873 -0.07692735 -0.153281 -0.0991495 -0.01271721 -0.1055297 -0.09388924 -0.1146995 -0.09983436 -0.0733248 -0.01294714 -0.01273428 -0.01287083 -0.1130038 -0.01305195 -0.07870108 -0.08007728 -0.124904 -0.01278588 -0.1438412 -0.07092778 -0.01275057 -0.2699479 -0.1353845 -0.0127358 -0.0730681 -0.1045827 -0.1107844 -0.2958523 -0.1241099 -0.04395266 -0.1482861 -0.01296826 -0.1146787 -0.01361424 -0.01262063 -0.01303602 -0.1327284 -0.09467863 -0.07199176 -0.09377152 -0.01281312 -0.08866615 -0.01275834 -0.01314284 -0.01290604 -0.01265232 -0.04374573 -0.01285495 -0.05781074 -0.0697483 -0.01267094 -0.0889001 -0.07397582 -0.01267189 -0.2584827 -0.06233359 -0.06822607 -0.01286306 -0.1859593 -0.06051903 -0.0123383 -0.1036612 -0.1447551 -0.05610823 -0.08816496 -0.01266285 -0.2555374 -0.01253568 -0.1012101 -0.2776614 -0.06737062 -0.1817207 -0.08928748 -0.08502299 -0.01311272 -0.1291562 -0.07846881 -0.01288321 -0.0127374 -0.01294256 -0.1426862 -0.01284159 -0.04839214 -0.1366731 -0.103852 -0.01293015 -0.1138417 -0.07970086 -0.1499468 -0.3164856 -0.01284017 -0.1624209 -0.08559364 -0.08369074 -0.01283563 -0.09143442 -0.01287881 -0.08156672 -0.01256744 -0.08395316 -0.08862386 -0.01287407 -0.1088428 -0.105527 -0.1780445 -0.06658573 -0.08147405 -0.3405163 -0.2275412 -0.05591291 -0.01300888 -0.01272674 -0.1050011 -0.07682449 -0.01277754 -0.1512342 -0.07450854 -0.100588 -0.01265836 -0.01266037 -0.1263811 -0.0923883 -0.01287705 -0.1175285 -0.01296456 -0.07344194 -0.01285188 -0.01294514 -0.09692204 -0.1047156 -0.01281867 -0.140522 -0.07728434 -0.09903643 -0.01277353 -0.1387612 -0.1376423 -0.1056875 -0.012574 -0.1700049 -0.06689884 -0.09706388 -0.096148 -0.01290497 -0.07319723 -0.01287881 -0.1522224 -0.138645 -0.01271932 -0.01278472 -0.156733 -0.05919112 -0.119432 -0.05420943 -0.2315769 -0.01292924 -0.09514187 -0.01272781 -0.01292116 -0.06171903 -0.05462348 -0.01311777 -0.04878972 -0.01274621 -0.01270522 -0.08508064 -0.1253304 -0.1079757 -0.1126899 -0.01281004 -0.09343894 -0.1088832 -0.01269151 -0.2541169 -0.1921201 -0.01297597 -0.1163316 -0.01265121 -0.06048652 -0.09928919 -0.01392796 -0.112042 -0.1413366 -0.07818751 -0.01284517 -0.09685031 -0.01251604 -0.01239835 -0.0959247 -0.01283619 -0.120684 -0.01274608 -0.01265216 -0.01285739 -0.01271794 -0.08412418 -0.07466173 -0.06900564 -0.09372661 -0.01299719 -0.01319008 -0.01283641 -0.01268133 -0.1185531 -0.2181368 -0.1679572 -0.1390268 -0.0126489 -0.01288091 -0.1052062 -0.1547966 -0.0132142 -0.0955835 -0.01288804 -0.1243191 -0.07669757 -0.09360593 -0.01276392 -0.05380515 -0.08817607 -0.1156925 -0.07946764 -0.0129977 -0.05127183 -0.0552106 -0.01313245 -0.08579924 -0.1100236 -0.01285443 -0.01298548 -0.05275973 -0.1767126 -0.07744829 -0.101781 -0.0123464 -0.03854074 -0.1535407 -0.09840346 -0.01259919 -0.1322072 -0.01336711 -0.01247811 -0.0127346 -0.06566392 -0.1758244 -0.01292919 -0.1037923 -0.08117519 -0.08637332 -0.01262727 -0.01265637 -0.1115456 -0.0127174 -0.01286149 -0.07887352 -0.0829362 -0.09047515 -0.2239427 -0.01262272 -0.09822614 -0.01260979 -0.1018446 -0.01291042 -0.1468007 -0.08035664 -0.01267205 -0.09808137 -0.01345029 -0.08980858 -0.0601612 -0.09167296 -0.07591411 -0.05691607 -0.01283044 -0.06411061 -0.1477806 -0.01268426 -0.05607184 -0.01286003 -0.01267776 -0.1364558 -0.08405969 -0.08747606 -0.09383351 -0.0823352 -0.1717411 -0.01287144 -0.2081584 -0.1642973 -0.1073234 -0.1442002 -0.06750175 -0.0126083 -0.09131436 -0.08464642 -0.06732278 -0.1124422 -0.039785 -0.01287368 -0.09676468 -0.06009985 -0.1280219 -0.07551259 -0.08690295 -0.01291594 -0.1134082 -0.07272011 -0.01290981 -0.1229342 -0.0753009 -0.06864679 -0.01257571 -0.01264489 -0.1265849 -0.09160811 -0.03664816 -0.07215197 -0.1312917 -0.01316774 -0.01307479 -0.09087996 -0.05190424 -0.01279529 -0.01265201 -0.1434271 -0.1193764 -0.01269105 -0.01263481 -0.225401 -0.01291198 -0.09858502 -0.01265814 -0.012993 -0.01289062 -0.09569462 -0.09262627 -0.07628065 -0.1257096 -0.1037818 -0.01293817 -0.01288541 -0.1418051 -0.01332851 -0.3065163 -0.141878 -0.123371 -0.08976579 -0.2035353 -0.09501336 -0.05147807 -0.1370164 -0.01263403 -0.1170194 -0.08689326 -0.05452175 -0.01276443 -0.0586695 -0.01299649 -0.09418399 -0.06451507 -0.04697498 -0.0756885 -0.01272135 -0.1234756 -0.01272962 -0.1145836 -0.08470536 -0.01275097 -0.07688305 -0.1095239 -0.05688236 -0.01300156 -0.01298258 -0.01281475 -0.01298583 -0.09898409 -0.01352679 -0.01302991 -0.01288601 -0.06068562 -0.01298219 -0.09095243 -0.1403259 -0.09475692 -0.0908595 -0.0901752 -0.08249713 -0.1186608 -0.07889254 -0.01273252 -0.01260611 -0.01352794 -0.01282367 -0.01262862 -0.04937379 -0.2256131 -0.07446994 -0.03488453 -0.01309877 -0.1209693 -0.04908685 -0.06101116 -0.01265683 -0.09272526 -0.09452624 -0.01295563 -0.0705768 -0.01269967 -0.05487799 -0.01274352 -0.01265809 -0.125939 -0.05497152 -0.08794092 -0.1346635 -0.08848564 -0.01363554 -0.01261522 -0.09553632 -0.0124394 -0.01268393 -0.1277201 -0.01289502 -0.1015429 -0.07625145 -0.08702525 -0.1130965 -0.2183621 -0.06101336 -0.1363769 -0.06880371 -0.01266413 -0.01286041 -0.01319657 -0.01328937 -0.012851 -0.08573209 -0.01292692 -0.1865814 -0.1084408 -0.01251661 -0.01294394 -0.101179 -0.1042796 -0.1083111 -0.06269059 -0.01259391 -0.08874907 -0.01288361 -0.0127771 -0.1207984 -0.08601292 -0.01273287 -0.07498085 -0.06712584 -0.0445597 -0.01276108 -0.01276704 -0.1382501 -0.08018238 -0.124091 -0.01312687 -0.1171411 -0.132424 -0.09360825 -0.1005819 -0.081566 -0.01321681 -0.01255313 -0.1148263 -0.01280157 -0.01279904 -0.01270276 -0.01295139 -0.1290445 -0.07574732 -0.0630104 -0.04814315 -0.01284049 -0.1237345 -0.06934641 -0.04701097 -0.06708872 -0.01257599 -0.0125997 -0.2492338 -0.09750873 -0.06449106 -0.2694423 -0.090182 -0.06707077 -0.1052908 -0.09034076 -0.0356949 -0.1308339 -0.07144654 -0.01293772 -0.06724213 -0.1032152 -0.1489161 -0.2568551 -0.09610539 -0.01240274 -0.1082433 -0.1297165 -0.06197323 -0.06571317 -0.05339611 -0.05667064 -0.06800945 -0.08256593 -0.1652178 -0.0979565 -0.01269189 -0.1274684 -0.01273011 -0.08172939 -0.1357692 -0.06423154 -0.1063627 -0.1082632 -0.03947801 -0.1252396 -0.08872708 -0.01289017 -0.08168474 -0.1172809 -0.09291127 -0.07979511 -0.1088277 -0.09777316 -0.0674893 -0.1383844 -0.01253308 -0.1297123 -0.01306769 -0.01311346 -0.04336323 -0.1300743 -0.04945358 -0.01279063 -0.01295935 -0.08020096 -0.08352331 -0.06855626 -0.01260385 -0.3160616 -0.01289323 -0.1044004 -0.09242512 -0.05737101 -0.1190715 -0.202529 -0.08426119 -0.1326422 -0.06502502 -0.1238273 -0.06064789 -0.1205586 -0.01273839 -0.01269403 -0.04671393 -0.07045535 -0.01251031 -0.106653 -0.1126764 -0.01280004 -0.01294633 -0.08281749 -0.2495957 -0.06748424 -0.09325054 -0.01300691 -0.1204842 -0.09137584 -0.01259615 -0.01321151 -0.01294149 -0.07990672 -0.01319471 -0.09783846 -0.01295854 -0.1008362 -0.1197821 -0.01279009 -0.1707736 -0.06543108 -0.01295947 -0.1914778 -0.09335658 -0.1036199 -0.01334052 -0.01292648 -0.01324199 -0.0126209 -0.06779479 -0.01295575 -0.1026911 -0.06043757 -0.01276258 -0.01256546 -0.05526147 -0.1244725 -0.2531292 -0.1212848 -0.2835757 -0.0619898 -0.05549812 -0.01296274 -0.0842258 -0.1211234 -0.1047651 -0.06186444 -0.0898103 -0.0703058 -0.08421886 -0.09071533 -0.01319773 -0.01273398 -0.01259459 -0.01289704 -0.1323 -0.2819492 -0.1820046 -0.06037156 -0.01266749 -0.1382239 -0.09343818 -0.01295102 -0.01285165 -0.01280456 -0.0729441 -0.1152555 -0.06206134 -0.1024998 -0.07176924 -0.2588312 -0.01258818 -0.0126621 -0.1155935 -0.08778961 -0.01404667 -0.01357416 -0.09840713 -0.144081 -0.03778198 -0.1342033 -0.06520553 -0.0133336 -0.01256554 -0.01354017 -0.01256314 -0.05761252 -0.0126641 -0.07708982 -0.08054511 -0.01289896 -0.01287579 -0.01302134 -0.06875417 -0.3321107 -0.2610015 -0.01278209 -0.1332449 -0.08780668 -0.06875433 -0.09296089 -0.01294525 -0.06935073 -0.1322886 -0.06725299 -0.01276401 -0.1937586 -0.07187463 -0.1265061 -0.1387464 -0.06728067 -0.01309808 -0.06535155 -0.2898782 -0.09195366 -0.05425877 -0.1586208 -0.05829699 -0.01296627 -0.01296842 -0.1351517 -0.01276217 -0.01352319 -0.01280891 -0.1280712 -0.01276438 -0.09466311 -0.01257164 -0.102781 -0.01241831 -0.06353748 -0.07556712 -0.06877962 -0.1000099 -0.01299552 -0.06495005 -0.1071321 -0.08970831 -0.2145744 -0.0864006 -0.07751737 -0.1174207 -0.07589839 -0.1259725 -0.09254316 -0.07334718 -0.1188312 -0.0744319 -0.067246 -0.01284209 -0.04152615 -0.1031362 -0.01245713 -0.04300021 -0.1043901 -0.0656179 -0.07442012 -0.01297215 -0.07061804 -0.01263842 -0.1130915 -0.09636174 -0.01291766 -0.01266248 -0.06934886 -0.0759102 -0.01315014 -0.01330327 -0.01265461 -0.01263221 -0.07344834 -0.01274699 -0.01308395 -0.05877781 -0.06204086 -0.1853546 -0.07105535 -0.1390452 -0.2349441 -0.08147912 -0.01302815 -0.07260844 -0.1049467 -0.06674751 -0.2790455 -0.01321367 -0.0126988 -0.2026229 -0.05027264 -0.09630787 -0.0797273 -0.01278995 -0.01330216 -0.01230007 -0.08670136 -0.1436384 -0.0911563 -0.1343428 -0.07268815 -0.08718997 -0.01315515 -0.09898222 -0.01264429 -0.01273609 -0.09467717 -0.06210842 -0.08554723 -0.01299473 -0.06885488 -0.06011912 -0.1305074 -0.04559553 -0.06763349 -0.08860405 -0.09207921 -0.2281366 -0.01234722 -0.01268722 -0.01268938 -0.1323526 -0.01284002 -0.07420763 -0.0624267 -0.1081115 -0.07800781 -0.08589827 -0.07385507 -0.01263069 -0.06900266 -0.01289462 -0.01265443 -0.09497273 -0.01293261 -0.0580053 -0.01257859 -0.09847046 -0.09421215 -0.06579131 -0.1502934 -0.09740897 -0.0782413 -0.1128177 -0.07738847 -0.01306534 -0.1089499 -0.1304007 -0.1066161 -0.1818558 -0.01302173 -0.09969306 -0.08303121 -0.08631656 -0.01318257 -0.01289273 -0.05282725 -0.0916614 -0.01291864 -0.09704737 -0.012494 -0.01264682 -0.08490315 -0.01248673 -0.01260858 -0.07147827 -0.1454802 -0.08832271 -0.09108383 -0.09217136 -0.1059385 -0.1107971 -0.01271462 -0.155642 -0.07884175 -0.01284839 -0.1808496 -0.01258647 -0.01320513 -0.1156673 -0.01271698 -0.01296159 -0.01316986 -0.07849066 -0.01293353 -0.1125627 -0.01301599 -0.02506761 -0.01265289 -0.01271913 -0.09334559 -0.09765026 -0.05275103 -0.01288552 -0.06612875 -0.01287812 -0.06335426 -0.01270982 -0.04879065 -0.07777379 -0.01276181 -0.1321215 -0.1210205 -0.1010375 -0.0129199 -0.01352067 -0.01292229 -0.08816893 -0.1363586 -0.2211336 -0.01270394 -0.01287819 -0.06799982 -0.07040524 -0.07490822 -0.1223636 -0.01281029 -0.01255645 -0.1280777 -0.07634088 -0.01243461 -0.01266758 -0.01356794 -0.09860229 -0.08680601 -0.07966289 -0.01276099 -0.01251962 -0.01290009 -0.06935959 -0.2261668 -0.0946753 -0.1082243 -0.01267651 -0.08109944 -0.06061526 -0.08618475 -0.06863266 ]
<!EndOfComponent> 
<Rescale> 1024 1024 
<LearnRateCoef> 0  [ 1017.876 5.230104 1167.185 1282.219 1138.195 1254.975 6.394752 1235.51 1244.558 1114.648 4.609907 1357.277 1257.792 5.418025 1262.787 6.44842 6.896789 5.290798 6.044138 2.672893 5.996119 1157.792 7.383038 5.560989 4.594763 1227.245 1365.223 909.7436 5.422617 4.433772 5.802111 5.193326 1223.442 1256.624 1244.061 1101.668 5.682499 1191.23 1345.052 5.731221 4.521809 5.647392 4.382659 5.699758 6.436839 4.904837 4.517831 5.884655 1116.523 1334.854 4.594442 2.875684 7.275922 5.399612 1137.811 5.303696 5.380826 1242.697 2.986128 1114.442 7.814047 1243.328 6.730876 1265.612 1259.308 5.041889 1258.504 1171.778 1208.179 6.598411 1164.505 2.876145 6.036694 1281.772 1307.001 7.707992 1316.145 6.470142 4.662018 4.328859 3.055157 7.431853 1209.725 6.325491 3.965049 1386.469 4.47547 1150.121 5.23579 6.064191 3.444659 1216.435 3.635261 5.353395 5.232478 7.366926 2.818038 6.293553 1197.126 4.939089 1299.273 1294.969 4.367338 4.919945 5.153733 5.742445 7.785832 7.103587 4.343722 1325.1 6.379056 1194.25 1033.841 2.742273 1196.341 4.799833 3.601137 1126.312 6.131292 5.873519 4.145407 1161.428 5.198148 3.713949 7.382524 1261.297 4.178888 7.157643 4.82061 5.993019 5.260442 1188.866 1255.767 1212.987 6.558058 1156.081 6.150045 5.697724 5.183646 1240.829 5.215698 5.302236 1252.411 2.563903 3.9726 1256.357 5.695524 4.143109 5.53407 2.870795 4.529647 7.4185 4.461692 1185.007 4.662977 998.7569 1292.63 1165.681 5.386857 4.215278 6.791917 4.16358 1232.182 4.150894 1248.553 1130.075 1203.011 1282.165 6.959703 1218.165 6.511244 4.968133 1277.573 7.23991 6.762345 1276.457 2.584603 7.803805 6.061785 1217.024 3.032185 6.597015 1392.024 6.146032 4.16191 5.926404 5.706095 1279.557 2.992275 1322.676 5.159928 2.572592 5.850301 3.630512 4.247215 6.728138 1144.887 4.065109 4.727392 1211.328 1254.778 1190.714 3.610469 1221.042 7.086088 4.295856 5.757422 1193.568 4.510039 4.892724 5.515968 2.275103 1221.307 3.318666 5.412164 6.428463 1225.632 5.484068 1210.457 6.838288 1311.498 7.423725 5.428433 1211.573 4.910246 4.965567 4.021867 4.852282 4.730854 2.202895 2.908815 5.402998 1176.276 1258.779 4.558309 5.833681 1242.277 3.302769 8.083303 6.163431 1281.821 1280.409 4.092677 4.311658 1211.717 3.726016 1185.378 5.012681 1218.621 1190.614 5.259115 5.242576 1230.419 5.719899 6.048151 4.45945 1244.756 4.051518 3.494815 4.720222 1309.423 3.158635 5.645164 5.680216 4.774873 1204.088 6.955438 1211.142 4.235981 3.604844 1261.685 1242.716 4.264868 8.57438 5.673686 6.196712 3.118364 1197.602 5.154752 1262.003 1201.732 8.110667 7.56412 1139.359 6.505149 1251.93 1267.063 6.969892 3.559576 6.190671 4.485949 1233.377 6.305792 5.745381 1270.239 2.715542 3.670817 1180.539 4.590737 1283.349 5.280601 5.233919 923.3694 5.235241 3.710435 6.884106 1221.764 5.354832 1329.338 1369.819 4.92174 1224.128 5.031604 1253.124 1284.616 1218.209 1260.678 7.047766 5.950117 8.002055 7.382534 1176.394 1117.566 1223.829 1274.126 4.560063 3.000409 4.188203 6.250648 1284.609 1209.254 4.844063 3.630862 1110.068 4.273833 1211.358 4.196965 6.02133 6.929742 1247.235 7.118114 6.751825 5.754778 4.800458 1173.535 5.620478 8.32416 1132.875 5.38542 6.170278 1221.342 1184.6 5.9335 3.66338 6.480454 6.718552 1389.145 7.09278 3.27797 4.725703 1301.12 4.716604 1067.196 1342.281 1256.303 8.030058 2.960048 1195.363 5.914682 6.741044 6.732518 1293.25 1283.792 6.227913 1261.423 1215.347 5.255426 5.997201 5.873474 3.173423 1294.117 6.441969 1297.211 6.159449 1200.191 3.49923 6.341521 1276.296 5.901485 1042.418 5.456149 5.66036 6.324698 5.723747 6.105068 1227.662 5.254888 4.34539 1271.794 6.344854 1218.296 1274.515 4.308409 6.32306 6.278638 6.275054 6.139748 2.962962 1214.709 3.198914 3.848722 6.248439 3.351108 5.432915 1297.433 7.034508 6.410039 8.779857 5.340345 6.213862 1211.601 6.134323 5.430885 4.423732 5.060399 4.916151 1199.471 6.283713 6.741427 1203.309 5.226756 6.563854 6.758383 1308.238 1284.525 4.282588 5.606639 7.709448 7.156542 3.557858 1123.356 1152.973 6.054167 7.629072 1236.989 1284.761 3.878027 6.272586 1270.429 1288.474 2.83848 1201.297 5.753698 1280.578 1177.345 1205.63 5.092594 6.334161 6.195022 5.723331 3.973349 1194.281 1207.885 4.706614 1071.26 2.298422 4.566506 5.340393 5.582205 2.95984 6.601058 6.210673 4.220298 1288.358 4.815159 5.303349 6.33399 1246.749 7.674142 1174.625 6.192987 5.832883 6.758915 4.463688 1261.005 5.097739 1258.575 5.908541 5.404044 1250.926 6.683985 6.098431 7.375664 1175.157 1179.118 1231.936 1178.699 5.459586 1025.654 1165.103 1208.751 6.124637 1177.341 4.991026 3.67615 6.463154 5.019061 5.563417 5.877883 4.39368 5.438941 1256.269 1299.024 1041.345 1228.422 1291.437 9.180231 3.21231 5.870906 7.141826 1142.509 3.694607 6.917197 6.049301 1280.942 6.414723 5.367017 1186.785 6.036473 1269.86 7.044425 1255.043 1281.26 4.197335 7.805461 5.776833 4.14559 5.173751 1010.237 1295.226 5.118888 1355.954 1272.717 4.738786 1207.4 6.027138 4.74786 5.50507 5.21733 2.814897 5.517748 4.926329 6.904559 1279.974 1215.081 1113.198 1090.262 1219.564 6.001871 1197.077 3.266706 4.723606 1328.943 1190.805 4.763517 5.503369 4.869562 5.676673 1302.006 6.16081 1209.435 1243.508 5.496014 6.970979 1259.415 6.335043 5.951988 8.943961 1246.744 1245.332 3.524425 7.11213 5.744184 1146.297 4.762601 5.191139 5.079182 5.480193 6.651858 1109.926 1315.48 4.388002 1235.954 1236.76 1265.289 1191.562 4.220572 6.265026 5.295224 6.432065 1223.129 4.422332 7.012221 7.994639 6.041065 1309.457 1300.202 2.677675 6.380785 6.698503 3.041157 4.664219 4.987278 5.492657 5.921658 7.437584 5.681542 5.193841 1191.788 6.714735 4.314681 3.776534 2.674023 6.738575 1369.413 6.181354 4.975935 5.144836 5.858111 6.590297 5.673913 5.262507 6.308256 3.681023 7.156694 1271.048 3.758755 1257.348 6.303558 4.992095 5.318173 5.058475 4.05335 8.002453 5.360482 4.480626 1209.084 6.089066 4.969725 4.106872 7.435641 5.29582 5.860255 6.611007 5.312689 1322.767 4.058407 1152.158 1146.322 6.784563 5.461759 5.913986 1239.87 1185.347 5.533274 6.579353 6.348066 1300.244 2.321637 1206.202 6.44116 5.512798 7.455642 5.031718 3.17671 6.154267 3.67777 7.694825 4.449109 6.17613 5.044639 1255.46 1268.79 7.003275 5.2473 1332.39 5.76028 6.108981 1236.251 1191.928 6.925258 2.768972 5.165168 3.830378 1177.292 3.619455 6.413376 1304.985 1110.393 1193.592 4.974511 1120.301 5.507309 1186.881 3.950714 4.610881 1238.673 2.979503 5.964584 1192.338 3.853933 7.515858 5.977867 1074.341 1195.638 1103.675 1293.379 5.937108 1188.358 6.501226 5.015649 1246.707 1312.166 6.199654 4.203279 2.671395 3.648859 2.675241 6.638326 5.923485 1185.329 5.875722 4.204607 5.304928 6.10891 6.432465 6.000889 5.836875 6.00915 1117.114 1258.218 1304.318 1205.674 4.699316 2.519537 3.555137 6.445187 1278.713 5.539059 5.56062 1189.155 1218.596 1234.776 5.72922 5.259568 7.037868 5.888282 8.164862 2.750223 1304.599 1281.1 5.319126 6.051779 910.2017 1033.004 6.146864 4.197103 6.41016 3.368244 5.459345 1101.764 1312.01 1016.684 1313.92 5.341672 1278.952 5.59923 5.656722 1200.88 1210.503 1168.517 6.480298 2.22876 2.680648 1241.444 4.430195 7.557051 6.493836 4.943061 1189.095 6.040569 4.629317 8.487677 1247.779 3.128072 6.020238 4.978986 4.606261 5.392181 1145.411 6.784052 2.699867 5.019331 6.625522 3.890699 5.694991 1183.112 1183.429 5.390058 1248.031 1020.482 1232.709 3.533273 1248.017 4.768514 1309.352 6.408781 1363.331 5.62248 7.281589 7.36882 6.519438 1172.488 7.401163 5.660479 6.815825 2.852729 5.642985 5.15612 4.367058 6.501132 4.512538 6.982265 4.52328 4.019839 5.945625 5.538394 1223.435 6.957336 5.953135 1349.163 6.056077 4.079669 8.167582 6.841147 1182.01 5.280924 1288.125 5.634937 5.990682 1201.164 1280.217 7.273193 6.709275 1128.638 1083.58 1282.144 1289.269 5.375946 1251.505 1155.968 7.119959 5.908063 3.81142 7.177362 4.856761 3.078217 7.213748 1165.053 7.100392 5.050882 6.35673 2.590168 1109.333 1268.059 2.920153 6.362046 4.807333 4.310632 1239.031 1086.567 1407.746 6.77654 4.323931 5.437082 4.991377 4.934918 6.102739 1129.912 6.234893 1287.897 1258.045 5.160997 6.120708 4.79545 1174.562 5.306565 7.17102 5.192412 6.895067 4.88263 5.024031 7.107229 2.938794 1389.312 1274.459 1270.494 3.494779 1222.074 6.339937 5.071114 5.800526 4.359629 4.727149 5.352375 1290.935 5.87305 1205.204 1284.359 5.551205 1195.649 6.183446 1306.427 5.801405 4.814265 6.684041 3.87836 6.879031 5.635285 5.328176 4.877294 1162.079 4.867482 4.058353 5.604796 3.125694 1165.099 5.655947 4.990169 6.83211 1117.927 1206.064 5.980731 4.415909 1197.291 7.106027 1337.165 1284.545 5.079853 1340.439 1297.902 5.576283 3.831195 4.149984 6.582075 6.81018 5.427113 6.576037 1264.314 4.256864 5.044981 1221.567 3.177141 1305.41 1111.119 4.877978 1262.018 1185.815 1126.032 5.563896 1192.469 4.481322 1173.255 9.211261 1284.776 1262.216 6.403245 6.455832 8.391324 1209.504 6.029613 1208.542 6.398558 1263.92 7.194722 5.89973 1246.438 5.115368 5.170591 6.023801 1195.471 1024.502 1196.049 7.202177 4.224226 2.942688 1266.862 1209.974 5.816501 6.240832 7.903997 5.554798 1232 1317.24 5.831192 6.477602 1358.66 1277.801 1012.985 6.679884 5.890344 4.600547 1248.496 1328.477 1203.812 5.603814 2.730648 5.99919 5.880277 1274.862 5.091186 7.114877 6.542999 7.781891 ]
<!EndOfComponent> 
</Nnet> 
