<Nnet> 
<Splice> 440 40 
[ -5 -4 -3 -2 -1 0 1 2 3 4 5 ]
<!EndOfComponent> 
<AddShift> 440 440 
<LearnRateCoef> 0  [ -0.08070967 -0.004912406 0.02430652 -0.1013187 -0.1521492 0.0004358162 0.00033901 0.000458781 0.008278972 -0.01121989 0.01131162 -0.009824235 0.01347977 0.02161618 -0.01519958 -0.01051339 0.00538751 0.005876848 0.03115898 0.007622118 -0.001251124 -0.01358081 -0.0005767663 0.02576668 -0.007560135 0.006600088 -0.04337995 -0.000326129 -0.004472279 0.0688201 -0.009479026 0.02340144 0.004517939 -0.003072541 -0.0405173 0.005759133 0.007648134 -0.01089771 -0.003998565 0.008061366 -0.07698242 -0.004896764 0.02325402 -0.1012945 -0.1491603 0.0005706048 0.0004904725 0.0006981805 0.008978019 -0.009344986 0.01143038 -0.009382446 0.01321857 0.02208421 -0.01469815 -0.00991032 0.005539624 0.00578949 0.03149687 0.008064962 -0.001036545 -0.01314451 -0.0005604429 0.02580912 -0.007536207 0.006573861 -0.04348369 -0.0002032153 -0.00438037 0.06788981 -0.01028617 0.02293585 0.004908759 -0.00296845 -0.03967781 0.005589762 0.008334467 -0.01093527 -0.003944668 0.007967971 -0.07364927 -0.005047095 0.02228211 -0.1013086 -0.1465764 0.0007717757 0.0005328405 0.0009258684 0.009576553 -0.007573649 0.01155464 -0.009011681 0.01311872 0.02245551 -0.01417306 -0.009269399 0.005667008 0.005694389 0.03184546 0.008453411 -0.000826477 -0.01264107 -0.0005079756 0.02584091 -0.007575342 0.006505856 -0.0437111 -0.0001143873 -0.004312573 0.06715044 -0.01095583 0.02259143 0.005205745 -0.002847865 -0.03891314 0.005430357 0.008938584 -0.01107705 -0.003978296 0.007972726 -0.07068041 -0.00534388 0.02137278 -0.1009727 -0.1443416 0.001025689 0.0005006072 0.001112692 0.01006472 -0.005905698 0.0116781 -0.008623727 0.01314117 0.02275917 -0.01362504 -0.008683924 0.00579001 0.005646932 0.03217762 0.008839123 -0.0006201811 -0.01209922 -0.0005022924 0.02616844 -0.007707232 0.00632483 -0.0440281 -1.473189e-05 -0.004313153 0.06649497 -0.01161949 0.02223302 0.005441784 -0.00265945 -0.03815315 0.005242603 0.009503605 -0.01124912 -0.004111988 0.007824995 -0.06796637 -0.00576152 0.02055079 -0.1004196 -0.1423972 0.001321311 0.0004002654 0.001221069 0.01047785 -0.004292774 0.01173823 -0.008284375 0.01330473 0.02306314 -0.01305685 -0.008255799 0.005954208 0.005639174 0.03257908 0.009213123 -0.0003680539 -0.01164263 -0.0004828707 0.02641354 -0.007807659 0.006127025 -0.04444496 4.164884e-05 -0.004330022 0.06599724 -0.0123462 0.0218562 0.005621992 -0.002431505 -0.03752536 0.005036911 0.0100473 -0.01144998 -0.004176424 0.00756676 -0.0654702 -0.006284254 0.01979651 -0.09967682 -0.1406615 0.001620326 0.0002181819 0.001289017 0.01086547 -0.002761057 0.01175847 -0.007991889 0.01354991 0.02331739 -0.01248194 -0.008064179 0.006174877 0.005739591 0.03299371 0.009587064 -0.0001225723 -0.01127684 -0.0004749997 0.0265068 -0.007952898 0.005981633 -0.04496194 0.0001412508 -0.004344726 0.06583906 -0.0131369 0.02143409 0.0058262 -0.00224214 -0.03690397 0.004822595 0.01053565 -0.01157281 -0.00418398 0.007231359 -0.06297404 -0.006806986 0.01904223 -0.098934 -0.1389258 0.001919341 3.609847e-05 0.001356965 0.0112531 -0.001229341 0.01177871 -0.007699403 0.0137951 0.02357164 -0.01190702 -0.00787256 0.006395545 0.005840008 0.03340834 0.009961004 0.0001229093 -0.01091104 -0.0004671287 0.02660007 -0.008098137 0.005836243 -0.04547893 0.0002408527 -0.00435943 0.06568088 -0.01392761 0.02101197 0.006030407 -0.002052775 -0.03628257 0.004608279 0.011024 -0.01169564 -0.004191536 0.006895958 -0.06045096 -0.00716664 0.01829875 -0.09817961 -0.1372382 0.002164118 -0.0001196971 0.001325587 0.01167582 0.0002283165 0.01176498 -0.00733897 0.01418544 0.02386612 -0.01138685 -0.007778925 0.006677771 0.006011712 0.03354391 0.01040087 0.0003062285 -0.01067178 -0.0005238889 0.02667437 -0.008253148 0.005646587 -0.04575834 0.0005199497 -0.00439349 0.06547891 -0.01494022 0.02053788 0.006266481 -0.001807981 -0.03563223 0.0043841 0.01157728 -0.01176836 -0.004179354 0.006631071 -0.0579129 -0.007329937 0.01755498 -0.09746669 -0.1355358 0.002349454 -0.0002445961 0.001244273 0.01199077 0.001594082 0.01170195 -0.006951042 0.01467407 0.02422855 -0.01093862 -0.007740255 0.007005705 0.006212121 0.03364559 0.01088124 0.0004422172 -0.01062934 -0.0006313747 0.02657778 -0.008356748 0.005375938 -0.04580748 0.0008112407 -0.004392103 0.06514681 -0.01600505 0.01995202 0.006514025 -0.001536119 -0.03520311 0.004199869 0.01215109 -0.01164138 -0.004216666 0.006423885 -0.05538792 -0.007307002 0.0168125 -0.09693024 -0.133837 0.002480895 -0.0003262267 0.001183571 0.01204063 0.002853612 0.01161995 -0.006555899 0.01514008 0.02459875 -0.01058467 -0.00774457 0.00735677 0.006409591 0.03362752 0.01138824 0.0004734606 -0.01069037 -0.0006766008 0.02636748 -0.008419064 0.005079232 -0.04563514 0.001027261 -0.004293828 0.06486651 -0.01690586 0.01945368 0.006744169 -0.00126484 -0.03458729 0.004049996 0.01273881 -0.01138199 -0.004265139 0.006397559 -0.052869 -0.007060001 0.0160239 -0.09672536 -0.1320921 0.002504451 -0.0003463108 0.001100306 0.01208559 0.004036969 0.01156234 -0.00623402 0.01551994 0.02496188 -0.01031551 -0.007687708 0.007692012 0.006463391 0.03351958 0.01192336 0.0004631258 -0.01084665 -0.0005993309 0.02618672 -0.00849779 0.00484738 -0.04523768 0.001135492 -0.004121927 0.06454268 -0.01754721 0.01908668 0.0069713 -0.001022143 -0.03393548 0.00395573 0.01337452 -0.01127121 -0.004389523 0.006325607 ]
<!EndOfComponent> 
<Rescale> 440 440 
<LearnRateCoef> 0  [ 0.3213916 0.5131596 0.5357924 0.5015646 0.5293114 0.6700096 0.7562542 0.7879593 0.6659746 0.5421163 0.7869446 0.6473593 0.6566557 0.8064916 0.7911459 0.8579184 0.8717855 0.9346656 0.6292732 0.770532 0.8969171 0.7596768 0.9249477 0.6964249 0.9579421 0.8627583 0.8518644 0.9395973 0.7759688 0.5289773 0.7618873 0.8694783 0.9762127 0.9290881 0.6871824 0.9209386 0.9487045 0.9020942 0.9561633 0.8997279 0.3218641 0.5131869 0.5354694 0.5015745 0.529659 0.669939 0.7561562 0.7877825 0.6658433 0.5426412 0.7868573 0.6473964 0.6567441 0.8063967 0.7912351 0.8577647 0.8717306 0.9342245 0.6291695 0.7702996 0.8967776 0.7592192 0.9245112 0.6964238 0.9578403 0.8628308 0.8518977 0.9393399 0.7759607 0.5289451 0.7619621 0.8688906 0.9761918 0.9288042 0.6869712 0.9208173 0.9483395 0.9019107 0.956031 0.8989179 0.3222978 0.5131908 0.5351781 0.5015928 0.5299756 0.6699119 0.7560786 0.7876468 0.6657212 0.5431517 0.7868336 0.6474329 0.6568514 0.8062974 0.791364 0.857663 0.8717129 0.9338235 0.6290709 0.7700974 0.8967052 0.7588627 0.9241585 0.6964474 0.9577736 0.8629016 0.8519969 0.9391392 0.7759354 0.5289518 0.762112 0.8683422 0.9761948 0.928576 0.6867474 0.9207262 0.9480459 0.9017253 0.9559332 0.8983166 0.322693 0.513163 0.5349067 0.5017077 0.5302587 0.6699122 0.7560138 0.7875571 0.6655903 0.5436409 0.7868086 0.6474719 0.6569271 0.8061787 0.7914943 0.8574955 0.8716766 0.9334063 0.6289883 0.7698833 0.8966488 0.7585223 0.9239675 0.6965231 0.9577023 0.8629304 0.8520479 0.9389994 0.7759761 0.5289997 0.7621308 0.8678058 0.976202 0.928333 0.6865436 0.9206237 0.9477888 0.9019173 0.9558662 0.8976848 0.3230604 0.5130994 0.5346533 0.5018838 0.530521 0.6699247 0.7559415 0.7874974 0.6654773 0.5441195 0.786764 0.6475198 0.6570129 0.8060795 0.791577 0.8573217 0.8716118 0.9331228 0.6289147 0.7696314 0.8966108 0.7583019 0.9240061 0.6966239 0.9576019 0.8629558 0.8518377 0.9390547 0.7760741 0.5290555 0.7622321 0.8675485 0.9761838 0.9281789 0.6863691 0.9204699 0.9475201 0.902131 0.9557801 0.8972211 0.3233995 0.5129928 0.5344036 0.5021011 0.5307729 0.6699324 0.755842 0.787462 0.665396 0.5445716 0.7867438 0.647574 0.6571745 0.8059981 0.7915609 0.8572996 0.8715824 0.9330302 0.6288548 0.7693173 0.8965364 0.7581079 0.9242318 0.6967468 0.9575285 0.8631448 0.8512423 0.939327 0.77619 0.5292049 0.7628968 0.8673934 0.9761181 0.9281471 0.6862208 0.9202626 0.947227 0.9024408 0.955786 0.8971289 0.3237399 0.5128863 0.5341542 0.5023187 0.5310256 0.66994 0.7557426 0.7874266 0.6653149 0.5450252 0.7867236 0.6476282 0.6573363 0.805917 0.7915451 0.8572775 0.8715532 0.9329376 0.6287949 0.7690036 0.896462 0.7579142 0.9244576 0.6968697 0.9574552 0.8633338 0.8506482 0.9395997 0.776306 0.5293543 0.7635636 0.8672386 0.9760526 0.9281153 0.6860727 0.9200553 0.9469342 0.9027511 0.9557919 0.8970367 0.3240858 0.5127938 0.5338829 0.5025442 0.5312957 0.6698981 0.7555913 0.7874633 0.6652585 0.545445 0.7867947 0.6476923 0.6575069 0.805867 0.7914024 0.8573819 0.8716384 0.9329615 0.6288201 0.7686202 0.8962868 0.7578729 0.9248537 0.6970225 0.9574787 0.8636324 0.8497697 0.9400062 0.7764644 0.5295268 0.7642114 0.8674175 0.9759374 0.9281886 0.6861396 0.91978 0.9465613 0.9032056 0.955886 0.8971736 0.324435 0.5127311 0.53359 0.5028168 0.5316125 0.6698124 0.7554101 0.7875308 0.6652296 0.5458264 0.7868406 0.6477585 0.6576377 0.8059084 0.7911589 0.8573737 0.8717185 0.933192 0.6288847 0.7681857 0.8960384 0.7580064 0.9254945 0.6971793 0.9574742 0.8638939 0.8487469 0.9404724 0.7766411 0.5297308 0.7646484 0.8678423 0.9757887 0.9283884 0.6862177 0.9194938 0.9461464 0.9037143 0.9559709 0.8976977 0.3247837 0.5127059 0.5332887 0.5030903 0.5319582 0.6696992 0.7552049 0.787587 0.665313 0.5461685 0.7868417 0.6478263 0.657756 0.8060449 0.7908456 0.8573327 0.8717524 0.9335385 0.6289696 0.7677249 0.8957697 0.7582005 0.9262203 0.6973627 0.9574496 0.8640504 0.8476226 0.9409789 0.7768638 0.5299321 0.765054 0.8683733 0.9756198 0.928704 0.6864388 0.9192083 0.9457186 0.9044163 0.9560425 0.8983111 0.3251349 0.5127433 0.532972 0.5033526 0.5323377 0.6695575 0.754989 0.7876408 0.6654197 0.5464838 0.7868491 0.6478912 0.6578889 0.8061964 0.7905137 0.8573781 0.8717934 0.9339271 0.6290649 0.7672492 0.8954893 0.7583693 0.9268673 0.6975598 0.9574587 0.864229 0.846462 0.9414455 0.7770965 0.5302098 0.7655739 0.8688312 0.9754673 0.9290489 0.6866406 0.9189374 0.9452838 0.9051451 0.9560992 0.8990344 ]
<!EndOfComponent> 
</Nnet> 
