<Nnet> 
<AddShift> 1024 1024 
<LearnRateCoef> 0  [ -0.1900534 -0.1178458 -0.3789456 -0.04349967 -0.1801376 -0.13329 -0.3250408 -0.06037902 -0.05811458 -0.05975793 -0.1768217 -0.08786435 -0.0560193 -0.1803551 -0.1320686 -0.08626664 -0.08031254 -0.2998823 -0.08757554 -0.1805261 -0.04721605 -0.0960313 -0.09811454 -0.1830594 -0.07891981 -0.05969943 -0.1241489 -0.09244699 -0.08913779 -0.071343 -0.04634067 -0.07535075 -0.08548695 -0.1744156 -0.05232749 -0.1634038 -0.109716 -0.1801594 -0.177946 -0.1045505 -0.06639872 -0.1192481 -0.1816099 -0.1009043 -0.1629168 -0.1255635 -0.1964607 -0.3109852 -0.1537645 -0.09685218 -0.07262786 -0.08645238 -0.101173 -0.1023929 -0.1701929 -0.07846703 -0.1848792 -0.09515233 -0.1280029 -0.1070173 -0.2067814 -0.1852626 -0.1310953 -0.2887171 -0.1780338 -0.05887357 -0.3106462 -0.187055 -0.031505 -0.1002572 -0.1907011 -0.1021479 -0.09189618 -0.07725568 -0.1569242 -0.06346981 -0.1887167 -0.1784562 -0.1831056 -0.2329353 -0.1158524 -0.1592633 -0.0601809 -0.3378819 -0.1142779 -0.06173551 -0.1062914 -0.1322218 -0.1189936 -0.1660715 -0.1032147 -0.1392628 -0.02979736 -0.1932014 -0.325087 -0.3705014 -0.1733085 -0.1913398 -0.1012213 -0.1544066 -0.2766552 -0.04398331 -0.11398 -0.1496177 -0.1034036 -0.07239777 -0.1943805 -0.1851761 -0.106151 -0.1640049 -0.07641691 -0.1933261 -0.07110026 -0.1814577 -0.174197 -0.1045335 -0.1604873 -0.1149282 -0.1168946 -0.1085848 -0.1775136 -0.09560888 -0.1025541 -0.1326222 -0.03985619 -0.1723713 -0.1773197 -0.07018554 -0.05194939 -0.05378412 -0.189147 -0.09102517 -0.05169816 -0.1024328 -0.1579567 -0.2107266 -0.1212736 -0.1732484 -0.2777502 -0.2312392 -0.1432321 -0.1293403 -0.1320148 -0.1930397 -0.2313481 -0.1794315 -0.1193268 -0.06924428 -0.07308879 -0.04673353 -0.06673595 -0.1885471 -0.05297849 -0.06594294 -0.05353712 -0.1463221 -0.08712803 -0.1435136 -0.05373321 -0.04334779 -0.183125 -0.3428544 -0.07996021 -0.06998482 -0.1825824 -0.1347715 -0.1381104 -0.1857102 -0.16984 -0.1301295 -0.09820793 -0.1815961 -0.1811656 -0.1674461 -0.107406 -0.1107981 -0.1630496 -0.13029 -0.1860393 -0.06810822 -0.0366054 -0.09076424 -0.04030942 -0.09622147 -0.1107506 -0.06748697 -0.04945552 -0.1472822 -0.1346917 -0.02870811 -0.07388713 -0.1274238 -0.125191 -0.271366 -0.07101075 -0.1830185 -0.0961858 -0.2368746 -0.191003 -0.07202443 -0.05978155 -0.07144535 -0.07111366 -0.2818637 -0.07193204 -0.05697929 -0.1352258 -0.1188473 -0.1162707 -0.1745975 -0.1838324 -0.1028015 -0.2819822 -0.08322434 -0.06579433 -0.1067081 -0.1240533 -0.1625885 -0.1046267 -0.07863377 -0.0619393 -0.03865581 -0.06729721 -0.09579331 -0.09915578 -0.1247032 -0.09472369 -0.1393507 -0.1831582 -0.2901373 -0.05652713 -0.09007981 -0.1283823 -0.1169082 -0.08320259 -0.1885234 -0.09748542 -0.06884717 -0.195506 -0.07444873 -0.1007681 -0.190934 -0.08686072 -0.216572 -0.1232606 -0.2157324 -0.08710259 -0.06730372 -0.1681513 -0.04117357 -0.1770801 -0.174739 -0.1892612 -0.1824745 -0.1792345 -0.05156275 -0.1974272 -0.07497868 -0.1061955 -0.1751836 -0.085471 -0.1619557 -0.2991952 -0.1277976 -0.1754207 -0.03200189 -0.09589385 -0.07570837 -0.1339844 -0.1514664 -0.07919626 -0.3055478 -0.03013411 -0.06239748 -0.1042566 -0.0821775 -0.1621075 -0.1404031 -0.08889497 -0.05108325 -0.220428 -0.1505864 -0.1853993 -0.09469192 -0.1817239 -0.06105181 -0.1216842 -0.175549 -0.1240156 -0.1307701 -0.1064714 -0.1752964 -0.04584797 -0.09565419 -0.05589817 -0.1735745 -0.05479493 -0.1556511 -0.0400759 -0.07156561 -0.1697121 -0.176572 -0.126105 -0.03908782 -0.1284854 -0.175696 -0.3196404 -0.1418305 -0.1238323 -0.1882449 -0.1711508 -0.1849523 -0.1649621 -0.03767946 -0.1021642 -0.0804802 -0.1144182 -0.1773742 -0.09046392 -0.1108329 -0.1818397 -0.1343753 -0.1923502 -0.1482765 -0.0700087 -0.1005224 -0.1398743 -0.08554734 -0.1598357 -0.07380971 -0.16963 -0.1192794 -0.148209 -0.3052923 -0.07354526 -0.05176592 -0.1224536 -0.1035306 -0.16992 -0.124585 -0.0689095 -0.06976131 -0.1246357 -0.1326632 -0.1389693 -0.06685261 -0.1731607 -0.1596222 -0.1885926 -0.1073527 -0.1065356 -0.03116831 -0.1660281 -0.1062804 -0.1399047 -0.2928377 -0.138696 -0.1838036 -0.0193643 -0.07832513 -0.3132306 -0.1206146 -0.2070557 -0.07242694 -0.1188083 -0.1646309 -0.1232469 -0.0367573 -0.1181915 -0.06498672 -0.04903249 -0.1773641 -0.06299761 -0.1091993 -0.08665068 -0.1161179 -0.1776339 -0.1738502 -0.06464282 -0.1770757 -0.1846607 -0.09605404 -0.1718431 -0.08597899 -0.2858886 -0.1157311 -0.1082958 -0.1612615 -0.05675928 -0.1046446 -0.1756771 -0.1609611 -0.1947949 -0.05123697 -0.0900411 -0.09479496 -0.1125279 -0.1735493 -0.09439 -0.07984475 -0.1563521 -0.08587401 -0.1019487 -0.2250823 -0.1658583 -0.1009984 -0.06273206 -0.1831266 -0.1741321 -0.1279494 -0.1013676 -0.02840979 -0.1740705 -0.1656444 -0.1089375 -0.1707064 -0.1991286 -0.1657036 -0.1454556 -0.08756448 -0.07424643 -0.06857669 -0.08942084 -0.07241251 -0.3166421 -0.1395173 -0.06691018 -0.06745428 -0.2327053 -0.09590194 -0.1080275 -0.1804619 -0.1688906 -0.3568567 -0.1654445 -0.06141777 -0.04404403 -0.1243509 -0.08539654 -0.1456152 -0.09834774 -0.06684023 -0.1682783 -0.1799223 -0.07891373 -0.09485827 -0.1929738 -0.04367946 -0.06101574 -0.03981204 -0.1820249 -0.0675659 -0.1046653 -0.1620465 -0.189341 -0.1312776 -0.1502372 -0.09465645 -0.08446727 -0.07927181 -0.1084766 -0.1034777 -0.2956348 -0.1075393 -0.06291205 -0.05638236 -0.03085121 -0.1799986 -0.1902424 -0.166942 -0.07088082 -0.1454139 -0.07682257 -0.1600531 -0.1652037 -0.1254906 -0.07052815 -0.1276923 -0.03330167 -0.07236954 -0.152155 -0.1707779 -0.1945923 -0.1335267 -0.1911014 -0.03530852 -0.1040277 -0.1902324 -0.08229252 -0.3159409 -0.08894762 -0.1896001 -0.1073391 -0.1223763 -0.0950595 -0.04518097 -0.083345 -0.1557091 -0.1073811 -0.07643702 -0.1581627 -0.1726349 -0.1595043 -0.1991984 -0.06287618 -0.2552408 -0.08273178 -0.09396721 -0.1625976 -0.2096361 -0.1766361 -0.1429323 -0.07504763 -0.08726305 -0.1577493 -0.1837519 -0.1354537 -0.1596959 -0.08077414 -0.2911017 -0.0704521 -0.0730275 -0.09473838 -0.08300529 -0.1693819 -0.1271969 -0.1416037 -0.06693223 -0.07834771 -0.03793991 -0.1775906 -0.3312005 -0.36994 -0.2861211 -0.08103573 -0.1050869 -0.1244573 -0.06986967 -0.1136784 -0.09335587 -0.1338491 -0.1205747 -0.08396694 -0.06117244 -0.04410444 -0.0458424 -0.08048119 -0.1340388 -0.07782877 -0.3340895 -0.08427346 -0.1777097 -0.2017764 -0.2764033 -0.02069044 -0.05761631 -0.2335875 -0.189804 -0.1850116 -0.1626329 -0.0444468 -0.1831829 -0.09270023 -0.1468184 -0.2191669 -0.1537136 -0.1005208 -0.1279278 -0.1716515 -0.06423808 -0.07989439 -0.1507527 -0.09459917 -0.1744377 -0.1255376 -0.08171103 -0.06771433 -0.09181836 -0.04713002 -0.1522566 -0.1179688 -0.04669325 -0.186454 -0.09747228 -0.1064811 -0.1657833 -0.1548132 -0.1139636 -0.1038439 -0.2002816 -0.094751 -0.0914613 -0.17835 -0.1883563 -0.09212529 -0.1717423 -0.08267529 -0.08161321 -0.06727428 -0.07742343 -0.1250732 -0.1569345 -0.0998406 -0.03001848 -0.1314334 -0.147975 -0.08482738 -0.1739199 -0.2649091 -0.09147182 -0.1397547 -0.07748776 -0.2284168 -0.09585299 -0.1245703 -0.1057466 -0.1323983 -0.06068571 -0.06345691 -0.09490929 -0.04462196 -0.2542452 -0.1081534 -0.1932783 -0.09428039 -0.164139 -0.1734766 -0.09391653 -0.1104702 -0.04650166 -0.1955706 -0.2456114 -0.1148949 -0.102002 -0.1657716 -0.1763663 -0.09621259 -0.1770621 -0.08576617 -0.1115412 -0.2226284 -0.1891383 -0.1502433 -0.05522419 -0.1753093 -0.07847484 -0.1253009 -0.05939552 -0.1506251 -0.1862753 -0.1049336 -0.08692283 -0.1698903 -0.1818289 -0.05658298 -0.1703195 -0.06086479 -0.04508734 -0.1806226 -0.07738344 -0.1578151 -0.1904895 -0.3070151 -0.1034301 -0.06533726 -0.0994151 -0.1442804 -0.06064409 -0.1498022 -0.2722226 -0.09807571 -0.06353413 -0.05808758 -0.2209222 -0.06156582 -0.1616174 -0.1467951 -0.1949849 -0.2035233 -0.1879127 -0.03379336 -0.2365845 -0.1958654 -0.1310051 -0.06891546 -0.07944168 -0.07100998 -0.18195 -0.09641818 -0.136266 -0.1448141 -0.1526647 -0.06024082 -0.0601567 -0.08943896 -0.1316371 -0.1998563 -0.1271954 -0.07712872 -0.07660486 -0.03099924 -0.09717285 -0.1393718 -0.03588477 -0.1803043 -0.1258273 -0.1254363 -0.14845 -0.02184092 -0.04118967 -0.05452237 -0.03760225 -0.04860657 -0.08484867 -0.152772 -0.164805 -0.04591499 -0.1881256 -0.06375789 -0.1831664 -0.2049106 -0.07396401 -0.110314 -0.1904889 -0.05743757 -0.08500922 -0.0851273 -0.3005086 -0.1541316 -0.1270469 -0.1872712 -0.1940166 -0.1483408 -0.1161587 -0.06078112 -0.1563489 -0.1652215 -0.1873009 -0.1459597 -0.1049928 -0.106098 -0.1429445 -0.06124799 -0.118003 -0.1083303 -0.1658612 -0.0879878 -0.1127688 -0.1612983 -0.2736866 -0.05124614 -0.2489943 -0.1761356 -0.1757288 -0.1547189 -0.1733461 -0.1305648 -0.1445083 -0.1822067 -0.1313442 -0.166201 -0.1054661 -0.1280381 -0.08857241 -0.3247178 -0.192435 -0.178708 -0.1811204 -0.3313826 -0.2343975 -0.2719881 -0.08228776 -0.1748218 -0.1742934 -0.2998948 -0.1121276 -0.1298278 -0.1243378 -0.1580738 -0.170731 -0.04050287 -0.05312433 -0.06316809 -0.1732323 -0.08390926 -0.1865047 -0.1343777 -0.08836571 -0.0714736 -0.1668493 -0.1274557 -0.06084742 -0.1120548 -0.3323477 -0.1166807 -0.1216362 -0.3268564 -0.08267152 -0.1740686 -0.08425294 -0.1218609 -0.1282776 -0.06942045 -0.1999868 -0.09870422 -0.06018782 -0.227748 -0.1756323 -0.3051056 -0.0744756 -0.1588057 -0.1019996 -0.09011401 -0.1161374 -0.1563223 -0.2491516 -0.08137919 -0.3013754 -0.1845924 -0.2355394 -0.08103074 -0.1387873 -0.1230988 -0.1755542 -0.1710873 -0.06980132 -0.1211615 -0.07604157 -0.08028036 -0.1295335 -0.1647877 -0.08037192 -0.09853228 -0.1515944 -0.05036183 -0.2605262 -0.1006155 -0.1061478 -0.1670685 -0.1240805 -0.1366092 -0.09583756 -0.07529816 -0.178865 -0.1867103 -0.130692 -0.04571725 -0.08032032 -0.09717617 -0.2018569 -0.04790603 -0.2161393 -0.1946563 -0.07878755 -0.1341268 -0.1703514 -0.05298058 -0.04140047 -0.2901432 -0.1782671 -0.08263934 -0.1656884 -0.06177552 -0.03497205 -0.1692317 -0.05573482 -0.1931401 -0.140187 -0.1275219 -0.1335291 -0.165291 -0.1725866 -0.07908572 -0.0640375 -0.169735 -0.08166212 -0.1122084 -0.07531526 -0.07073674 -0.1962383 -0.179368 -0.2007828 -0.1165888 -0.1800406 -0.1418048 -0.03677494 -0.04055003 -0.1006061 -0.1155659 -0.1088731 -0.07647056 -0.06967784 -0.1431987 -0.1134652 -0.08433673 -0.1640773 -0.08154819 -0.184154 -0.06766789 -0.109389 -0.06672182 -0.08191686 -0.1685874 -0.1026425 -0.1802721 -0.1517082 -0.08310661 -0.07540669 -0.1804916 -0.2925771 -0.1482858 -0.178869 -0.09792364 -0.08225369 -0.05850608 -0.2205283 -0.1096443 -0.2024349 -0.1416072 -0.1622992 -0.06832843 -0.09165955 -0.02759557 -0.100664 -0.1399029 -0.239305 -0.1083099 -0.100868 -0.08671187 -0.08961569 -0.06085735 -0.05801821 -0.07509717 -0.0591718 -0.09253765 -0.2891314 -0.1372163 -0.331002 -0.1369655 -0.02277227 -0.07341538 -0.1593529 -0.1920774 -0.2705635 -0.1840245 -0.1913414 -0.05430799 -0.05117203 -0.09761102 -0.1832975 -0.0355667 -0.08032518 -0.1562303 -0.09654471 -0.07298628 -0.03975061 -0.1351312 -0.1050885 -0.1650826 -0.1739471 -0.09872836 -0.1068799 -0.1744209 -0.1020039 -0.09141888 -0.2775193 -0.09173746 -0.07929637 -0.2775741 -0.1096379 -0.1019545 -0.1640928 -0.1338265 -0.05283217 -0.2122974 -0.0969981 -0.1647499 -0.1909982 -0.180078 -0.06496305 -0.1772634 -0.1788112 -0.1726057 -0.1543001 -0.1607967 -0.07496841 -0.1715612 -0.1448872 -0.08040269 -0.1593832 -0.1596701 -0.1840204 -0.09538703 -0.1253152 -0.05889495 -0.1325054 -0.1711875 -0.06773904 -0.09029786 -0.1631014 -0.1711092 -0.1514727 -0.1736684 -0.1672754 -0.07887184 -0.07687051 -0.0679256 -0.04295659 -0.07448712 -0.03124505 -0.1888614 -0.06581661 -0.07541081 -0.2920284 -0.3408214 -0.2551159 -0.1307179 -0.09051401 -0.06615145 -0.1578131 -0.07679494 -0.1221323 -0.03938147 -0.07666693 ]
<!EndOfComponent> 
<Rescale> 1024 1024 
<LearnRateCoef> 0  [ 4.266427 5.708485 2.587409 7.595043 4.216321 4.462199 2.840397 6.542587 5.535016 6.586843 4.54133 6.269011 7.042989 4.438745 5.339484 4.719436 4.742466 2.477402 4.9111 4.6455 8.547424 5.658256 5.895839 5.230309 6.141337 5.540584 5.953297 5.248172 5.55232 6.807979 6.8269 5.009737 6.211761 4.537329 6.662124 4.9171 6.471158 4.61591 4.075943 5.317689 6.768569 5.253866 3.828122 6.555824 4.731013 5.449733 4.300842 2.926394 5.149916 5.805592 6.730386 6.977875 5.049049 6.158231 4.581814 6.50028 4.388019 4.207108 5.282179 5.606303 3.860805 4.436016 5.093461 2.939784 4.579043 5.570554 2.669624 4.324373 9.16713 6.18253 4.633008 5.427699 4.602285 6.124214 4.91969 5.915101 4.321302 4.484774 4.177506 3.730427 6.619836 4.391907 6.369904 2.948649 3.895337 6.387906 5.434131 5.335049 4.630286 4.793404 5.790955 3.684498 8.256034 4.591118 2.500852 2.778821 4.774555 4.254504 5.386525 4.724477 2.899143 7.022723 3.856323 5.541426 5.696497 7.033046 4.204268 4.39183 4.092062 4.357885 5.800736 3.58367 5.781536 4.529541 4.431568 3.995719 4.111944 6.174973 5.69565 5.004293 4.278034 6.494141 5.594292 5.084637 6.184043 4.52718 4.594184 4.647242 7.405328 6.588222 4.309456 7.105327 6.700251 7.329364 4.737442 3.144974 5.291325 4.647729 3.178071 3.209294 5.004866 5.906533 5.794244 4.405807 3.031089 4.342174 4.550286 4.822518 4.859052 6.350407 4.784555 4.330292 8.19003 5.721927 5.652184 4.687333 4.674135 3.780727 5.593242 7.672297 4.455506 3.041074 5.402556 5.372494 3.293262 5.037435 5.137745 4.470676 4.681931 4.249362 6.439024 4.655993 4.625607 4.75696 6.107918 6.121889 3.865708 5.088228 4.56454 5.053876 6.492339 6.449743 6.981273 5.915524 6.212708 8.779099 8.293146 5.135973 5.625236 8.814789 7.20288 5.178885 5.907295 3.022951 5.98319 4.374473 5.621984 3.047004 4.387565 5.383496 6.269037 5.41388 5.940533 3.060539 6.872062 7.219343 4.977946 5.165021 5.147552 4.667183 4.388227 5.734504 3.183952 7.996085 6.466966 6.115887 5.154837 4.435897 5.983363 5.289623 7.187329 7.224599 5.953304 6.681352 5.966107 4.879717 6.491226 5.633437 4.490661 2.958289 5.701706 5.645306 5.590202 5.387069 5.805647 3.294369 5.642451 4.927981 4.227737 4.616007 6.45475 4.282356 7.305556 3.525256 4.898259 3.731668 6.032612 7.161027 3.979105 6.84708 4.417362 4.671053 4.275107 3.41048 4.523839 5.79621 3.504252 7.032612 6.214355 4.763497 5.18495 4.992436 3.035437 6.027414 4.402305 8.960829 5.70937 5.127206 5.046224 3.651954 5.663005 2.459694 8.72122 6.083457 5.963066 5.603837 4.251882 4.510603 5.565938 6.174023 3.347619 5.036819 4.550405 6.723105 4.559226 7.090575 5.785095 4.381153 4.110863 4.965874 4.079254 4.374765 6.680082 6.419149 8.381145 4.062403 6.351943 4.261929 6.925787 5.950556 4.579113 4.436417 5.319397 7.384598 4.742832 3.897811 2.436799 4.888891 5.576351 3.257161 4.708811 4.451869 4.350856 7.084108 6.319651 6.257136 6.300636 4.383219 5.760218 5.430908 4.448912 4.958419 3.729601 3.817598 4.832602 5.91258 5.005712 5.649943 4.653172 5.411989 4.784176 5.476471 3.728726 2.701657 7.723889 6.105568 5.90351 5.707626 4.773306 5.409945 4.95963 6.747249 5.335139 4.734056 4.399164 6.486351 4.404894 3.904468 4.266038 5.644732 5.758228 8.275291 4.595424 6.026096 5.105962 3.154875 5.699381 4.392734 9.316315 5.895288 2.446371 5.036139 4.000435 6.72593 5.603947 4.692031 4.230335 7.801908 4.982054 5.69376 6.225018 4.535122 6.759493 5.764102 5.376837 6.947909 4.55565 4.439548 6.099437 4.605148 4.227792 4.510599 5.965305 6.715685 2.967236 3.934255 5.319071 4.841809 6.446462 5.5585 4.67 4.759749 3.683923 6.507943 6.82491 6.00279 5.74312 4.678597 7.409977 5.899782 5.120321 5.465874 6.698676 3.19078 4.682302 5.658277 6.008506 4.567569 4.116015 4.962039 6.391761 8.838245 4.923762 4.708581 4.172076 4.652776 3.639088 3.640622 5.142303 6.568392 6.937459 5.725945 6.04295 6.265425 2.389366 4.836114 6.289696 6.231624 3.153027 5.465623 4.114825 4.564461 4.445103 2.969871 4.661749 5.152817 7.52084 4.994384 6.869059 4.718199 5.007757 6.167946 4.912138 4.574847 5.902243 6.554482 3.988705 6.957928 6.180025 6.945863 4.683969 6.829764 6.051326 4.844604 4.344069 5.322059 4.696743 6.025366 5.366894 6.118453 6.421721 5.671696 2.979776 6.102552 7.381772 6.09948 8.515711 4.600673 4.423791 4.056088 7.063768 4.913661 6.173627 4.576164 4.881755 5.358851 8.749385 5.619075 8.319169 7.066913 5.025968 4.659757 4.013914 5.28496 4.569791 7.744842 5.835396 4.396957 6.028137 2.442294 5.508361 4.505499 5.685589 4.595608 5.343893 6.312954 5.216851 4.502354 5.457187 7.675263 5.793445 4.415139 3.755509 4.229026 5.641541 3.585408 7.158875 5.685774 4.471416 3.743488 4.640565 4.590349 5.52917 5.613023 5.036194 4.395915 5.219721 4.451569 7.14032 2.87823 5.303618 7.792115 6.155854 5.637916 4.509787 5.192141 5.077562 5.716011 4.999652 6.924931 4.534827 2.780235 2.665058 2.996947 5.892713 6.112529 4.80131 5.628023 6.014925 6.072869 5.758155 5.210906 5.624568 5.804224 6.374352 6.907866 4.566322 3.853438 4.712694 2.982553 5.691671 4.725633 4.248315 3.067795 9.013621 5.798721 3.107467 3.67525 4.348988 4.696012 7.412354 4.418281 4.416163 4.836278 3.530644 4.498494 5.601756 5.456428 4.002364 6.016359 7.405068 4.145805 4.255905 4.604459 5.08824 5.290502 7.562241 6.045226 6.162323 4.920591 5.444688 6.166708 4.390536 5.711713 6.053388 4.639962 3.921554 5.486787 5.782732 3.311707 5.531546 6.56509 4.278448 3.402134 6.400909 4.17947 5.239526 5.659167 6.982339 6.153771 5.982322 5.150428 5.812877 8.448213 5.244864 4.47675 6.275364 4.542258 3.138293 6.538511 4.900294 6.423544 3.00251 6.968727 5.587698 4.640915 4.644013 8.143427 5.869801 5.90783 10.16193 3.154876 5.909503 3.94125 6.270881 4.990128 4.745853 6.410745 5.347586 6.257181 4.322008 2.996102 5.956724 6.258012 3.903474 6.441592 5.578648 4.535382 4.786412 6.528314 3.507575 4.265236 4.45077 6.355832 4.898991 6.703914 5.875858 5.654194 3.508748 4.342463 5.60775 5.27478 4.640519 4.447189 5.418921 3.626911 5.910027 8.793224 4.440103 5.777429 3.896297 4.47788 2.831829 5.751282 6.002234 6.306371 4.827216 6.619526 4.786123 3.005175 5.353146 7.931607 6.089918 3.861085 6.094436 3.675196 4.744706 4.29396 4.32202 4.341471 7.192369 3.019287 4.35585 5.389863 6.044615 7.114347 6.279223 4.367994 6.433657 5.506384 4.673993 4.589713 6.329656 6.398537 6.911939 5.173483 3.208397 3.787016 6.421694 4.737387 8.292171 8.365673 3.703919 6.799331 4.541512 5.45416 5.126088 4.676302 9.176958 7.279448 6.297374 7.324845 6.555397 7.040555 3.840948 4.786389 8.342656 4.428821 6.960414 4.519043 3.23309 6.45634 5.371191 4.258734 5.653818 6.372778 5.289818 2.743875 4.956947 5.310766 3.281319 4.243042 4.778785 5.145395 5.560325 4.625359 4.908067 4.404355 4.943305 5.03373 5.47164 5.289291 7.158645 4.693191 6.251288 4.985968 5.704591 6.378117 4.459056 2.995835 7.057096 3.123931 4.553746 4.072182 4.517991 4.632392 5.993565 4.506148 4.352185 4.635236 4.687582 5.948138 6.108913 5.719956 2.882869 4.404175 4.579456 4.575484 2.947717 2.934216 3.118374 6.585094 4.307762 3.976944 3.137848 5.346068 3.854831 5.621875 4.256027 4.6322 8.383625 6.420559 8.15277 4.321311 6.444489 4.535813 5.54638 5.88244 5.27469 4.673078 5.69657 6.533907 6.038117 3.050111 5.3613 5.509858 2.797637 6.898429 3.242175 6.475002 5.558154 3.865319 5.256974 3.791895 6.163674 5.964047 3.256926 4.298295 2.461194 6.71788 4.501395 5.640796 6.298358 4.147259 4.834021 3.28393 6.998549 2.740956 5.458384 3.190386 5.923009 4.739141 6.044796 3.346909 4.614366 7.530489 5.239448 5.561012 5.354133 5.424158 4.510026 6.559155 4.570565 4.416817 7.250511 3.005131 6.057344 4.632728 4.744955 5.287275 5.13571 5.947244 6.218923 4.52406 4.359912 4.842469 6.052591 5.617749 5.58675 4.030119 6.7143 3.384116 4.491477 6.342489 5.851713 4.476506 5.509576 8.011392 3.042883 4.719221 7.276862 4.848002 5.538878 8.849513 4.727746 6.52049 4.323461 5.41229 5.663035 5.039686 4.028548 4.627432 6.916991 7.516636 4.676523 6.323277 5.353696 5.741229 6.259051 4.297628 4.430168 3.608083 5.742332 4.472217 4.658622 8.169245 8.268408 5.885301 5.54794 6.242948 6.309738 6.635752 5.851025 5.888907 6.157213 4.84533 5.330762 4.245057 6.502095 5.273993 5.883296 6.594312 4.6002 4.961156 4.348203 5.602819 5.909501 7.035475 4.513379 2.582608 4.387345 4.463979 7.244078 6.193765 6.869266 3.009032 5.997681 3.772132 5.261412 4.769139 6.241503 6.200085 8.017444 5.501668 5.259417 3.038311 6.139953 5.093281 7.067942 5.659216 6.220943 6.347355 5.328034 5.580117 6.253266 2.943465 4.678658 2.885838 4.039278 8.944959 5.873406 4.611064 4.47848 3.114134 4.372122 4.360439 7.156219 6.351856 5.666759 4.299486 7.57174 5.877899 5.031126 5.606205 5.233187 7.984095 4.871871 6.053451 4.320444 4.165908 6.105492 5.358145 4.525485 5.903035 5.302222 2.934589 6.429237 6.526072 2.895872 6.484663 6.120006 4.642741 5.52008 5.752193 3.244368 5.687557 5.332636 4.484158 4.43081 5.759397 4.242205 3.34648 4.281103 4.186805 4.534073 4.831707 4.608839 4.879003 6.400126 3.900908 4.488834 3.419152 6.424476 4.679326 6.281047 4.509403 4.011604 5.827681 6.338249 4.006081 4.082164 4.967824 4.357681 4.689054 4.544855 4.732411 6.961431 6.768101 6.282742 8.123648 4.224088 6.780115 5.224945 2.770788 3.048671 3.22961 4.023666 4.320013 5.666369 4.757327 5.510271 3.98338 6.812996 7.124283 ]
<!EndOfComponent> 
</Nnet> 
