<Nnet> 
<AddShift> 1024 1024 
<LearnRateCoef> 0  [ -0.06704762 -0.09857929 -0.1205947 -0.06912188 -0.1258323 -0.1301464 -0.1056979 -0.08496109 -0.1313751 -0.184582 -0.07164684 -0.1218659 -0.07674877 -0.05645337 -0.08456412 -0.09698223 -0.05761727 -0.11525 -0.06244547 -0.2010046 -0.09549084 -0.09274567 -0.1442235 -0.08063199 -0.1280532 -0.06547435 -0.06113571 -0.08596952 -0.1023655 -0.1028558 -0.1286619 -0.06810898 -0.1161217 -0.09547751 -0.07621465 -0.06858627 -0.1358174 -0.1260825 -0.0572071 -0.1214112 -0.08308527 -0.07006066 -0.3428701 -0.1025577 -0.1236977 -0.0489205 -0.08281199 -0.07702203 -0.07750418 -0.09458432 -0.1166922 -0.06748247 -0.1307444 -0.083676 -0.1243739 -0.117701 -0.0716018 -0.09753857 -0.1338089 -0.08853145 -0.08521845 -0.07994241 -0.07863772 -0.1283268 -0.1213433 -0.1249207 -0.103668 -0.1219446 -0.05172392 -0.07399367 -0.1216261 -0.09402224 -0.1184095 -0.07561979 -0.1381293 -0.06077988 -0.1126012 -0.1519382 -0.09627462 -0.1308766 -0.2017866 -0.05695186 -0.1450932 -0.04713014 -0.07938737 -0.06604384 -0.06410613 -0.04779336 -0.1181188 -0.05856273 -0.1386496 -0.1269372 -0.1161131 -0.1188887 -0.1149397 -0.08687346 -0.1183607 -0.07749076 -0.1019157 -0.07582434 -0.06704196 -0.07490548 -0.1167221 -0.09487515 -0.1027245 -0.120218 -0.1222989 -0.08268504 -0.1028893 -0.07151084 -0.08301254 -0.07400594 -0.05132179 -0.1681993 -0.1735067 -0.1572333 -0.06457306 -0.09460554 -0.06054892 -0.05729473 -0.06788256 -0.138844 -0.08962579 -0.08982935 -0.1603714 -0.06851149 -0.09962267 -0.09671557 -0.1298495 -0.09654029 -0.1501424 -0.1361758 -0.06436501 -0.08081473 -0.195596 -0.06019361 -0.1030369 -0.1327037 -0.09133966 -0.07740372 -0.1508722 -0.08500236 -0.1079791 -0.07761727 -0.05605305 -0.1075498 -0.108199 -0.1677192 -0.07364941 -0.06202408 -0.05212701 -0.1721608 -0.1198957 -0.07081638 -0.05328523 -0.06309497 -0.1499515 -0.0590603 -0.08611178 -0.08668787 -0.1081367 -0.1146234 -0.1010598 -0.08286116 -0.06966435 -0.09816349 -0.1009977 -0.08357109 -0.1676784 -0.05098726 -0.06347071 -0.1311526 -0.1073402 -0.08430733 -0.07095942 -0.05203242 -0.1914176 -0.105262 -0.1053313 -0.07707079 -0.0860002 -0.08449898 -0.09128353 -0.1355041 -0.141862 -0.1094035 -0.07901123 -0.09926005 -0.1021888 -0.06824628 -0.1099824 -0.08753024 -0.08826388 -0.07231386 -0.08331349 -0.1134375 -0.0922804 -0.1632915 -0.09309367 -0.08577147 -0.09538763 -0.1138937 -0.0677068 -0.07098357 -0.104136 -0.09207893 -0.0652943 -0.07948849 -0.1170311 -0.1369717 -0.08594881 -0.1411552 -0.08307715 -0.353985 -0.09440003 -0.07882429 -0.06466282 -0.08446295 -0.104813 -0.08023726 -0.09132443 -0.09826387 -0.09422455 -0.08064175 -0.1081666 -0.1247126 -0.07180063 -0.06060992 -0.09600236 -0.1034336 -0.1068483 -0.1004569 -0.09337523 -0.06976663 -0.05676803 -0.1363187 -0.06253809 -0.0792388 -0.0936433 -0.08828022 -0.05073634 -0.08547036 -0.1061122 -0.09564597 -0.09206892 -0.1091512 -0.09515315 -0.1665229 -0.1207649 -0.09794798 -0.0529115 -0.1002928 -0.0763979 -0.1116309 -0.05810319 -0.1026738 -0.1034693 -0.06995665 -0.05600454 -0.08201966 -0.0755016 -0.08227476 -0.1199449 -0.09491965 -0.09106072 -0.0741532 -0.1059296 -0.07188042 -0.09277918 -0.113924 -0.06679488 -0.07119044 -0.08831818 -0.09180393 -0.1048793 -0.107571 -0.07937738 -0.05589427 -0.07276183 -0.07447193 -0.05765514 -0.08932582 -0.1110282 -0.08229151 -0.0994933 -0.1304587 -0.1446935 -0.08843973 -0.05117208 -0.080373 -0.07049821 -0.1025535 -0.1469141 -0.06843463 -0.05443493 -0.1068267 -0.07929876 -0.1070878 -0.07290038 -0.07084814 -0.06411956 -0.05546952 -0.07508001 -0.09061754 -0.09899006 -0.06356132 -0.06524246 -0.1056347 -0.03587476 -0.06946826 -0.09828193 -0.0834426 -0.07048289 -0.0776098 -0.08460075 -0.06468921 -0.1058714 -0.1197007 -0.1693597 -0.1103061 -0.1094336 -0.05366235 -0.0692282 -0.06983373 -0.1173996 -0.06793336 -0.1057438 -0.05814159 -0.1005311 -0.1206739 -0.07859121 -0.1637949 -0.07710101 -0.09153429 -0.176801 -0.09494192 -0.05274236 -0.09190407 -0.04162502 -0.0426992 -0.1069625 -0.1466401 -0.08839153 -0.1146447 -0.07545207 -0.1267249 -0.0581146 -0.08686087 -0.09095185 -0.08671463 -0.08399162 -0.1319079 -0.09815231 -0.07440189 -0.0686585 -0.111895 -0.08314132 -0.1523392 -0.102521 -0.1127427 -0.08383365 -0.09795945 -0.1065602 -0.1618535 -0.07941319 -0.09615818 -0.1298954 -0.08778345 -0.06267545 -0.09997375 -0.0980581 -0.1220875 -0.1139479 -0.1120421 -0.09054141 -0.1207735 -0.04375636 -0.08844668 -0.1362145 -0.07760353 -0.09028228 -0.08587987 -0.07895923 -0.09757291 -0.1058645 -0.07396521 -0.09180391 -0.06127769 -0.1216355 -0.0708385 -0.07626896 -0.06398743 -0.06847268 -0.1434736 -0.1188048 -0.07938277 -0.1036436 -0.1420238 -0.03630744 -0.1080018 -0.07133602 -0.1139978 -0.1294982 -0.06723885 -0.0695067 -0.06779099 -0.1307684 -0.08366956 -0.09597664 -0.1500035 -0.06465446 -0.115353 -0.1566593 -0.08916236 -0.1115339 -0.1113224 -0.1105686 -0.09293618 -0.1131157 -0.09657347 -0.09552009 -0.05387175 -0.1020353 -0.09618056 -0.08989267 -0.06256919 -0.04164215 -0.1072618 -0.0764626 -0.09782697 -0.09583832 -0.05587128 -0.05748529 -0.09550671 -0.03764663 -0.05937159 -0.1548308 -0.1438324 -0.06631469 -0.1343209 -0.08282589 -0.08038994 -0.1040622 -0.1083657 -0.07282232 -0.09090195 -0.1484468 -0.06495249 -0.04253554 -0.1131645 -0.1588424 -0.05774923 -0.1520792 -0.05265429 -0.1291136 -0.08300526 -0.05441685 -0.07273026 -0.1298546 -0.08573306 -0.06212691 -0.1708955 -0.104178 -0.08668609 -0.2504545 -0.06942188 -0.07804225 -0.1541265 -0.1052366 -0.1114865 -0.1543713 -0.08095592 -0.09875949 -0.06443078 -0.104279 -0.09168285 -0.08186992 -0.08924675 -0.07765125 -0.08651178 -0.1573271 -0.1048115 -0.09557249 -0.1197846 -0.1038115 -0.09021907 -0.1064476 -0.1144004 -0.08643305 -0.07018516 -0.05645581 -0.1503886 -0.1273573 -0.08690567 -0.0990046 -0.1591077 -0.1011694 -0.03777633 -0.07722645 -0.1585443 -0.1149565 -0.06966123 -0.06822911 -0.07207001 -0.09494874 -0.0568097 -0.07489593 -0.09659235 -0.05375455 -0.09381288 -0.1533231 -0.1167793 -0.09061882 -0.07023453 -0.0679972 -0.09818821 -0.07201067 -0.0945896 -0.05814159 -0.06259859 -0.07748026 -0.1517148 -0.1160344 -0.1855734 -0.1019078 -0.07149225 -0.07553124 -0.09419784 -0.1242248 -0.2007511 -0.07143061 -0.1108594 -0.1181028 -0.1367043 -0.06222911 -0.1462962 -0.3261582 -0.09388831 -0.1079507 -0.09113728 -0.09800107 -0.06992606 -0.06203294 -0.1141111 -0.123039 -0.0843137 -0.3416809 -0.09159119 -0.06932143 -0.08454643 -0.09097309 -0.08435438 -0.05513233 -0.07352705 -0.09620373 -0.09152173 -0.07889763 -0.1037177 -0.198601 -0.185356 -0.05840513 -0.1108909 -0.108539 -0.09175146 -0.1886973 -0.08570091 -0.06930874 -0.09712826 -0.06297119 -0.1152148 -0.07506771 -0.1452193 -0.09708999 -0.1426487 -0.05434434 -0.05668258 -0.1317107 -0.08892903 -0.08295502 -0.06013571 -0.1176465 -0.09262741 -0.09436119 -0.1173268 -0.1418128 -0.1468326 -0.1146842 -0.05470303 -0.08123234 -0.07522611 -0.1484068 -0.1297835 -0.1421984 -0.06991829 -0.1146402 -0.06321416 -0.09831791 -0.07742194 -0.103568 -0.1013486 -0.07501056 -0.108363 -0.1257354 -0.01905871 -0.07808439 -0.0907071 -0.0729503 -0.101582 -0.1167635 -0.08845333 -0.1004698 -0.06236136 -0.1310233 -0.0858016 -0.06224736 -0.09064884 -0.1121368 -0.09224021 -0.05462741 -0.07813898 -0.08195042 -0.07542349 -0.06487004 -0.09245028 -0.05647344 -0.1357128 -0.1081098 -0.06136465 -0.06997913 -0.136614 -0.113714 -0.0975409 -0.09459528 -0.1130141 -0.06317405 -0.07423145 -0.07510255 -0.1021478 -0.07004942 -0.07467838 -0.08437461 -0.06331161 -0.0849406 -0.1428085 -0.1096145 -0.06978668 -0.07436346 -0.08794577 -0.09618842 -0.1293518 -0.1243251 -0.1067664 -0.1356387 -0.07905613 -0.1098104 -0.09746161 -0.08506261 -0.08660995 -0.06351872 -0.08338214 -0.09875801 -0.07342299 -0.08813347 -0.09812974 -0.09547304 -0.0687513 -0.1048043 -0.08484709 -0.1051097 -0.05367328 -0.05014247 -0.1045833 -0.08660299 -0.08488635 -0.09454945 -0.09129746 -0.1093898 -0.107076 -0.1657935 -0.1406624 -0.1388042 -0.09151698 -0.07437141 -0.1123024 -0.06904089 -0.1158411 -0.10069 -0.08069807 -0.07832479 -0.0809911 -0.08528698 -0.09379737 -0.143419 -0.1377665 -0.0748477 -0.1793381 -0.1189825 -0.08624402 -0.07711687 -0.088801 -0.1196054 -0.1025436 -0.1006525 -0.1003261 -0.06702356 -0.1041459 -0.06687443 -0.1024583 -0.0609386 -0.08861647 -0.07067586 -0.07627364 -0.09384315 -0.1576992 -0.1232849 -0.1148141 -0.1203958 -0.1260161 -0.09717517 -0.1009482 -0.1218067 -0.04937061 -0.1185161 -0.1031804 -0.1332646 -0.1125761 -0.2818148 -0.1053513 -0.04353256 -0.0909407 -0.06146628 -0.09803312 -0.06307482 -0.09396319 -0.1206653 -0.09619351 -0.08916974 -0.1385837 -0.08923438 -0.08444791 -0.05174198 -0.04629956 -0.1158272 -0.08790534 -0.1564078 -0.05726154 -0.06001576 -0.07480957 -0.09941651 -0.06401923 -0.0889708 -0.08788947 -0.08203188 -0.08840088 -0.1370736 -0.04404354 -0.08492386 -0.06081878 -0.1229395 -0.1194619 -0.09393204 -0.06662138 -0.105845 -0.09321453 -0.1031165 -0.1095321 -0.06602439 -0.09867179 -0.07155705 -0.08299027 -0.1093164 -0.1151304 -0.1362479 -0.07605996 -0.09843699 -0.09044415 -0.06782009 -0.07655635 -0.08022278 -0.1209339 -0.1069156 -0.1700325 -0.06450281 -0.08317699 -0.1549119 -0.0676622 -0.07168908 -0.04085003 -0.08113153 -0.06089603 -0.0517665 -0.09260991 -0.08620501 -0.1136665 -0.05915195 -0.06369787 -0.07970008 -0.06266246 -0.1422546 -0.05981609 -0.08788049 -0.1589542 -0.08436022 -0.09510018 -0.1014074 -0.229418 -0.1040001 -0.08327827 -0.07462729 -0.05880135 -0.07972842 -0.09215985 -0.0832115 -0.1025709 -0.07934561 -0.05424477 -0.1321932 -0.07668319 -0.07647331 -0.03976361 -0.07924844 -0.1039804 -0.1631281 -0.1585685 -0.07443539 -0.09794183 -0.09457704 -0.09797147 -0.06007175 -0.1369095 -0.1261481 -0.1313174 -0.1251375 -0.08816998 -0.1041035 -0.04932775 -0.1100918 -0.07275139 -0.08790933 -0.09698197 -0.07512362 -0.09624708 -0.06387288 -0.1049638 -0.0674961 -0.09678317 -0.09571737 -0.07575531 -0.1662838 -0.2396326 -0.08402655 -0.1248863 -0.07558914 -0.08988851 -0.08340438 -0.1021668 -0.08862656 -0.07633455 -0.165477 -0.06535151 -0.08513124 -0.08351361 -0.1718752 -0.1530887 -0.05880673 -0.09609944 -0.0682985 -0.06869508 -0.06280959 -0.2253642 -0.08629016 -0.05278446 -0.09974114 -0.07598614 -0.08858432 -0.08657704 -0.07503385 -0.05536403 -0.1325916 -0.1011595 -0.07688507 -0.02570419 -0.04848903 -0.08975597 -0.126102 -0.1508668 -0.0654483 -0.05394281 -0.1357755 -0.1104415 -0.09485406 -0.09226722 -0.1409785 -0.06907029 -0.06837371 -0.09271955 -0.09776171 -0.0657815 -0.05639007 -0.1175542 -0.07831325 -0.1473652 -0.09028859 -0.09028581 -0.1003617 -0.09017704 -0.06477171 -0.1625556 -0.09942289 -0.05037992 -0.1717605 -0.08878013 -0.1259803 -0.1083353 -0.1484718 -0.09220884 -0.1199194 -0.1320984 -0.0857076 -0.07382309 -0.07737913 -0.1396956 -0.1065024 -0.08236776 -0.1062318 -0.1554282 -0.1040573 -0.05708241 -0.06861584 -0.1860027 -0.1096195 -0.09621977 -0.04732029 -0.129609 -0.08439682 -0.1205375 -0.0957229 -0.1420628 -0.1389524 -0.08592489 -0.09354077 -0.07009072 -0.08666433 -0.1354159 -0.05174154 -0.1467452 -0.0915576 -0.08188413 -0.1052011 -0.1196829 -0.101288 -0.1300504 -0.2634056 -0.09705523 -0.1185049 -0.06826857 -0.05691854 -0.07253295 -0.08000106 -0.05380928 -0.1000509 -0.099543 -0.06670783 -0.0938454 -0.088733 -0.108914 -0.1044706 -0.0767753 -0.0852489 -0.02978717 -0.1441221 -0.08041858 -0.1037791 -0.07098381 -0.1131988 -0.06505275 -0.09885 -0.07814777 -0.1014251 -0.1090073 -0.07610583 -0.0623435 -0.06273347 -0.06321066 -0.1054591 -0.09188168 -0.05054087 -0.089011 -0.1371491 -0.06331041 -0.08744213 -0.0781676 -0.1383341 -0.09220011 -0.1299027 -0.05897409 -0.1395291 -0.05299016 -0.07113221 -0.07094305 -0.05969105 -0.0854949 -0.09655768 -0.1248557 -0.04438461 -0.1286535 -0.05538778 -0.1115634 -0.06530602 -0.06507454 -0.06401782 -0.1142251 -0.08150514 -0.146539 -0.1071431 -0.07406928 -0.08613579 -0.138577 -0.09824692 -0.06802056 -0.1411898 -0.1269768 -0.1082726 -0.1210345 ]
<!EndOfComponent> 
<Rescale> 1024 1024 
<LearnRateCoef> 0  [ 7.35167 5.717241 5.601419 7.309985 5.134211 5.461721 6.256 6.278627 5.092519 3.694793 7.510352 5.335149 6.212942 8.278478 6.577358 5.6783 8.306729 5.781161 6.795481 3.062301 4.428253 7.087603 4.880012 6.944192 5.489125 8.205855 8.792564 5.334445 4.695267 6.429564 5.421759 8.025844 4.831367 6.415728 7.232527 7.347683 5.173239 5.185661 6.298164 4.340779 6.940966 5.354446 2.356997 5.068904 5.540999 8.067245 7.122043 7.023566 6.451265 6.205729 4.67487 7.180033 4.688285 6.420356 4.560758 4.614121 7.259447 4.825486 5.398204 6.110171 5.464579 7.084972 6.866338 5.085224 5.661381 5.150125 6.150151 5.397584 10.49792 7.62742 4.798795 6.474488 4.590486 7.295266 4.374803 8.740804 5.186632 4.098081 6.690644 5.24269 2.863049 6.695166 4.442313 5.613584 8.261214 8.139982 7.775508 7.873158 6.18813 8.799417 5.397612 5.538967 4.57457 5.653668 5.896421 5.716129 4.783518 6.655105 5.542228 6.590113 8.72692 6.772252 4.477553 6.7263 5.744667 4.485385 5.08347 6.073418 5.67882 7.376457 6.999752 7.809092 5.442722 3.232839 4.830036 5.012124 6.795578 5.378922 7.625974 8.170112 7.500388 4.993239 5.690937 6.629487 3.335286 7.392011 6.124809 5.350948 5.302759 4.278826 4.366425 4.753334 6.624335 7.243898 3.35645 8.849454 5.728449 4.426747 5.957107 7.065596 4.918787 6.339786 4.944059 6.253999 8.584536 5.498435 4.864097 3.564756 6.021719 8.583259 7.592847 4.504461 6.560121 6.319279 6.593145 9.274778 4.618939 7.47354 6.522603 6.308368 6.422819 5.831135 6.279083 6.307932 7.204773 6.085954 5.502584 6.067366 3.33992 9.849864 8.38612 3.957203 6.36041 6.76513 6.997365 9.197092 3.037989 6.785146 4.327393 7.244713 5.403479 6.981964 6.208405 4.530124 3.973158 4.845789 6.544045 6.16609 3.537831 7.786095 4.869421 4.202882 7.127427 5.686222 5.354784 4.338305 5.884856 3.924004 5.041355 6.828079 6.672057 4.998425 7.45153 6.903059 4.716769 6.146453 8.081314 7.118684 5.271795 3.91794 4.575073 5.464048 5.153766 2.237017 5.755186 6.795465 7.379005 4.631676 5.406488 7.34851 5.166712 4.116189 6.947484 7.679082 4.904505 5.920567 8.74009 6.479294 7.159732 5.792359 6.087157 5.922062 6.261308 6.64553 6.393086 4.516777 6.774886 7.012713 5.804899 6.638742 8.192954 7.515804 5.320009 4.428153 6.027908 5.066397 4.710156 3.461171 5.329277 5.705939 5.604105 6.369563 4.925455 6.832437 7.798781 5.661104 5.47921 6.385076 5.578516 5.762689 6.948476 7.062321 6.093683 5.472512 5.563456 7.703253 6.394462 8.174538 4.840941 5.689831 8.435824 8.202003 4.979283 4.582009 5.743355 5.867334 6.335332 10.35771 5.820309 7.005145 7.200476 6.894059 6.072526 7.035519 4.005696 4.431372 3.999004 5.945018 8.249133 6.274631 7.387408 5.473006 5.266075 6.534555 5.969829 5.847014 7.361365 5.833479 7.983439 7.740335 7.962316 9.2862 7.17327 5.085388 5.274714 8.664035 8.221564 5.895159 8.983059 8.349154 4.65909 6.082432 7.220453 6.364123 6.066795 7.461198 5.819827 4.46233 3.611463 4.70713 4.512413 9.323495 7.438232 7.489235 5.753435 8.363484 6.123502 6.990499 4.400134 5.160464 7.207641 4.036668 6.094206 7.225009 3.198367 6.512607 7.05586 5.909232 8.807204 10.93592 6.35831 5.075421 5.492281 5.763566 6.314886 4.14854 6.235978 7.358342 6.700717 6.760633 6.725058 5.718591 4.180166 6.693274 4.76639 5.602811 6.485717 4.422215 6.500523 6.086199 7.24058 6.149222 5.971352 3.974445 6.715476 6.252351 4.164995 6.400795 7.464779 4.123001 5.45656 5.935671 5.819781 4.395321 5.307988 5.225005 8.191667 6.294907 5.219208 7.230067 6.108611 5.877534 7.478336 4.496249 6.123782 5.67228 7.097321 8.136153 5.023457 6.419524 7.149816 7.797592 6.469568 4.638948 5.798883 5.9641 4.959388 4.892189 11.97628 5.326322 8.024722 5.651286 5.493827 5.549654 8.224968 5.509045 4.75946 6.707095 5.773484 5.350454 6.898785 5.297137 3.532235 6.199792 5.147424 5.41102 5.650908 6.536227 4.98638 6.52775 6.649417 9.188117 5.065671 4.727476 5.125973 8.699544 11.55047 5.511175 6.234462 4.690936 6.140377 9.576991 6.171642 6.58156 12.09386 6.64495 4.213858 3.942688 5.713724 5.648247 5.832799 5.855616 5.518789 4.873833 6.578523 6.245855 5.059608 7.126401 7.340914 5.271848 3.596889 7.504126 5.480413 7.819451 4.309698 7.59691 9.928685 5.594489 5.663338 6.647243 6.129612 4.467553 6.39902 6.9146 2.768544 5.512056 7.184405 3.33954 6.042303 5.688612 4.716129 6.559717 5.9027 5.91958 6.380942 7.260322 5.57063 6.252088 7.685434 6.307345 4.019748 5.665497 5.761699 5.568748 6.040377 6.608186 5.325663 5.555711 6.579842 6.059432 8.801637 3.517981 4.344688 4.99735 5.031447 3.590509 6.457861 6.614961 6.257412 4.30545 5.571376 7.307792 8.008807 5.601986 5.353096 8.299739 5.73343 5.974789 10.29268 4.594608 4.73184 5.917938 6.665396 7.821002 7.898575 5.527853 6.612105 5.799943 8.028797 7.12127 7.285209 4.590047 5.121905 3.053586 5.86193 7.089449 6.546211 5.813821 4.26416 3.301873 7.795282 5.55264 5.252349 4.066822 6.050611 3.895968 2.307233 4.489239 6.269335 6.157073 4.428281 7.202609 8.352547 6.186543 5.091798 5.308793 2.268563 6.176261 8.101222 7.319057 5.458763 6.096535 8.342032 6.813833 6.874049 5.998837 6.178708 5.670296 2.991386 4.299381 5.904995 5.284903 5.578465 5.735449 2.959319 6.162547 6.533486 4.273469 8.324592 5.551568 7.141916 4.712421 4.625443 5.021336 8.078681 7.78509 3.742658 5.966213 7.562399 8.769263 5.802741 4.628315 5.699397 4.663506 5.505136 4.904583 5.123372 7.924705 6.936294 7.103088 4.94483 5.189173 4.854093 7.049323 5.740105 9.139631 5.19649 5.90163 4.934618 5.279495 6.774664 5.942333 5.484848 14.6781 6.65217 5.480716 7.973447 5.748043 5.746624 4.442478 4.817839 8.216652 3.90427 6.716467 7.892866 6.648608 6.224324 6.114812 7.485903 6.071884 4.522444 5.993515 7.508746 4.957447 7.750008 4.851364 4.931348 7.186714 5.826875 4.430851 5.470757 5.767372 5.937429 3.890241 6.330684 7.401709 6.787484 5.588173 7.608449 4.837253 6.480028 7.448428 5.704648 4.666206 5.958781 6.54953 7.454764 6.652411 4.439433 5.873963 3.981337 5.039939 3.802904 8.221597 5.429087 6.039762 6.124605 6.122785 7.061736 7.526868 4.758988 7.362532 6.369865 6.403071 6.255014 7.671385 4.055258 6.497045 5.638656 8.182995 7.695207 5.89385 6.994069 4.852373 5.486571 7.461457 4.627384 6.312919 3.275488 3.510691 5.051365 5.973579 6.965034 3.828624 8.190409 5.415475 5.17938 7.788534 5.499628 5.348526 5.982124 5.291391 4.450894 3.603794 6.824957 3.206108 3.95243 5.487978 7.858868 5.666259 4.538893 6.44293 5.788476 5.894824 6.755147 4.067258 8.829812 6.819306 7.977135 5.497102 6.725506 7.112784 4.707792 4.222418 5.542658 5.136949 5.111108 5.000269 6.104228 5.651178 3.840463 8.261095 5.556735 4.688159 3.607798 6.010109 2.567857 6.598218 10.02076 6.432451 7.977613 5.018569 6.290888 6.180524 6.535375 6.948274 5.727889 4.76312 7.026243 5.208363 9.225695 11.646 4.979796 5.226552 3.288555 7.690758 7.525619 7.153144 4.287207 7.037773 6.621305 6.545594 7.284581 5.544928 5.495192 8.3628 5.863251 7.590294 5.209019 3.994523 5.908105 9.214358 5.584627 4.248038 5.766103 5.492464 8.908324 5.536962 7.556334 7.464674 5.543516 4.573693 5.133732 7.242715 6.79003 6.047598 5.81421 7.089195 6.841054 4.677358 4.089425 4.705984 6.742665 5.709596 4.646419 7.949085 5.758574 6.605714 5.450087 8.433885 5.403039 5.9633 4.664624 5.662251 6.764429 8.535936 7.826789 8.282484 3.305521 7.68375 6.974146 4.694275 7.175981 5.022595 5.7859 2.888992 6.10761 8.223328 7.264838 9.687331 7.091032 4.491575 7.554058 4.834862 6.823293 9.679953 4.593269 6.8125 6.751755 9.728011 6.07273 5.640979 3.806172 4.804008 5.941553 5.274406 6.011684 6.111029 9.105661 5.782212 5.263062 5.963367 4.806266 6.09452 5.562499 8.288303 5.902397 7.056808 4.996591 6.096617 8.271354 6.978049 7.537186 4.899095 8.197774 5.561576 6.531813 6.914783 3.919814 2.632882 6.929103 4.702116 8.037777 6.021261 6.146344 5.958498 6.600379 7.037138 3.357284 8.412941 6.773729 5.561154 3.264798 5.155336 9.142799 6.558919 6.661978 7.221362 8.038024 2.999288 6.29594 8.505976 4.850088 7.12702 5.832299 5.738896 5.899182 7.753644 4.598605 6.353603 7.288228 7.781888 7.649318 7.107441 5.342525 3.886614 7.27556 8.621456 5.274458 6.013835 5.506691 5.760045 5.371799 8.674116 6.574394 6.250443 5.913499 7.983319 7.730579 4.053854 6.526511 5.133785 6.953084 5.057466 5.180942 6.160557 7.493758 3.921828 6.593842 10.20451 2.935618 7.354942 4.576743 5.837646 3.405219 6.729711 4.970742 5.066045 5.216754 5.613628 6.67373 5.147569 6.315561 6.905332 6.583601 4.511715 6.524133 7.8243 8.376156 2.889551 5.378717 6.025415 9.41709 4.576346 3.891883 5.79041 5.934894 4.845136 3.655214 6.284674 6.787666 6.782552 5.792662 4.759261 9.268012 3.306081 5.442413 6.207419 5.356049 4.783057 5.451511 5.287465 2.776316 4.849202 4.67001 6.52035 9.698001 7.508182 6.492949 9.53323 4.067525 6.197391 7.229304 6.710769 7.180569 3.522013 5.557855 6.064967 7.305889 8.50134 4.772086 5.731256 6.028273 6.429767 5.626413 7.948675 6.116107 5.965019 5.378196 5.363825 6.258841 7.208952 6.859183 8.134719 5.101921 4.346574 6.17905 6.404805 5.103411 6.974762 6.342081 7.05618 4.564656 6.750844 5.640355 7.146402 4.492276 8.148141 7.656935 5.468975 8.185928 6.260303 5.746306 5.384909 8.102674 5.428967 8.942002 4.983839 7.103415 6.732075 7.163252 4.32223 5.504101 5.304267 5.613743 5.535361 6.002784 4.794209 6.110622 6.366421 3.371093 5.367687 4.021635 5.567709 ]
<!EndOfComponent> 
</Nnet> 
