<Nnet> 
<AddShift> 1024 1024 
<LearnRateCoef> 0  [ -0.05976906 -0.1071606 -0.0948474 -0.0602519 -0.07106148 -0.05914907 -0.1132402 -0.1095741 -0.06999014 -0.06037277 -0.06326281 -0.01349978 -0.1150957 -0.1177295 -0.06611985 -0.0891264 -0.1193346 -0.08640072 -0.1700301 -0.07721831 -0.1406695 -0.08820378 -0.05872967 -0.08149231 -0.07191219 -0.0766385 -0.01359478 -0.09436449 -0.06917599 -0.05722656 -0.08547807 -0.1270267 -0.114297 -0.05671912 -0.0956175 -0.1301526 -0.1809415 -0.1031873 -0.09061442 -0.04754538 -0.1123858 -0.1270075 -0.09641318 -0.1186514 -0.08553548 -0.07924705 -0.112215 -0.2959729 -0.1063371 -0.06395414 -0.1070506 -0.06628193 -0.1197791 -0.0820381 -0.09446534 -0.06312962 -0.08595297 -0.08371633 -0.163099 -0.09440009 -0.1630967 -0.06286032 -0.03688567 -0.01408659 -0.1050453 -0.1145009 -0.1120773 -0.01579183 -0.109802 -0.08459325 -0.1051738 -0.04217838 -0.1395675 -0.08807798 -0.08524867 -0.1053188 -0.01379329 -0.0679541 -0.1036737 -0.05969745 -0.1016116 -0.1842369 -0.07783777 -0.03997355 -0.09388532 -0.07916385 -0.1198169 -0.07296451 -0.1026886 -0.08243282 -0.06780747 -0.1079994 -0.3186485 -0.1186666 -0.225724 -0.1330037 -0.1502277 -0.08455205 -0.0661675 -0.07974651 -0.06629874 -0.1097111 -0.08839934 -0.1476162 -0.06625602 -0.1344076 -0.1059275 -0.05967348 -0.1216067 -0.1102273 -0.08821545 -0.1260452 -0.1077644 -0.05733061 -0.1337018 -0.08832424 -0.1186374 -0.0768539 -0.04059061 -0.08073568 -0.1339574 -0.07202291 -0.0826973 -0.2956848 -0.1055491 -0.0814788 -0.2262942 -0.146533 -0.1073843 -0.07466172 -0.07940686 -0.08762335 -0.1092972 -0.07436699 -0.07628061 -0.01413571 -0.06316746 -0.1398263 -0.08016805 -0.08786938 -0.09708377 -0.1474801 -0.08888664 -0.04230986 -0.07439282 -0.09185011 -0.09822635 -0.1083094 -0.1722643 -0.1021044 -0.176766 -0.1234736 -0.08214173 -0.09249968 -0.08005583 -0.124508 -0.05482566 -0.0866122 -0.08040716 -0.08159152 -0.1030229 -0.1379141 -0.07523881 -0.08723409 -0.08862105 -0.08429629 -0.03432133 -0.01381453 -0.1463351 -0.06972772 -0.0865588 -0.0741611 -0.05747903 -0.0907084 -0.07682792 -0.08598708 -0.09068207 -0.09200203 -0.08832664 -0.1151194 -0.0986151 -0.09095966 -0.01359113 -0.0886003 -0.08383571 -0.1159864 -0.1491308 -0.1071314 -0.07641047 -0.01498607 -0.1076093 -0.07730074 -0.2281017 -0.07008997 -0.0595234 -0.07319123 -0.05430586 -0.1809911 -0.222005 -0.125341 -0.06875134 -0.0154259 -0.119396 -0.06017302 -0.153048 -0.1592091 -0.0874576 -0.1075986 -0.1048559 -0.1267334 -0.07467296 -0.09611095 -0.1042577 -0.06619668 -0.1021262 -0.1122743 -0.07176416 -0.120696 -0.1175644 -0.07395227 -0.07083847 -0.06270457 -0.06305631 -0.07636625 -0.08250985 -0.09581529 -0.1728789 -0.1417665 -0.1461284 -0.06174838 -0.2838314 -0.06443279 -0.09691305 -0.06716847 -0.254467 -0.1108361 -0.1126352 -0.08507634 -0.1073408 -0.1965399 -0.1263465 -0.08797855 -0.09330063 -0.09025999 -0.07856459 -0.08532858 -0.1243845 -0.06499925 -0.1218439 -0.1085685 -0.08010785 -0.1054989 -0.0927023 -0.1753094 -0.305436 -0.1552986 -0.09118872 -0.05367997 -0.08218315 -0.1087454 -0.067458 -0.1157518 -0.1266532 -0.08496347 -0.1085925 -0.07888363 -0.08181503 -0.06493515 -0.0970282 -0.09652197 -0.0143641 -0.09679475 -0.07529224 -0.1048637 -0.06111527 -0.06525057 -0.07354114 -0.01447997 -0.08051967 -0.1059109 -0.08977877 -0.07249066 -0.0960771 -0.1999355 -0.1095991 -0.05039667 -0.01352764 -0.06699582 -0.1053136 -0.1034758 -0.05662856 -0.07832155 -0.1627948 -0.09343324 -0.07600262 -0.1676425 -0.06845406 -0.1045834 -0.111197 -0.0833132 -0.103505 -0.1153813 -0.09914009 -0.05402737 -0.2496113 -0.1037416 -0.08878484 -0.06109596 -0.09621913 -0.0170642 -0.09810954 -0.04904892 -0.1216066 -0.07878925 -0.09777805 -0.01546871 -0.08695535 -0.08208901 -0.05141348 -0.1069397 -0.08426232 -0.1009814 -0.09685661 -0.06905153 -0.07723188 -0.09834306 -0.1989978 -0.1337646 -0.09408727 -0.1010877 -0.08408851 -0.3079225 -0.2875307 -0.08237492 -0.09910835 -0.07406622 -0.142541 -0.07902495 -0.08104645 -0.077822 -0.1593294 -0.06663756 -0.09249213 -0.166898 -0.1058661 -0.0649822 -0.06864943 -0.01415111 -0.1066365 -0.05694174 -0.05094491 -0.08709776 -0.05478974 -0.07676395 -0.1020758 -0.07434375 -0.06959094 -0.1378725 -0.08397914 -0.02284263 -0.07796584 -0.1262062 -0.08548567 -0.113364 -0.07845203 -0.1685621 -0.1233291 -0.01513639 -0.06621035 -0.2665438 -0.07759943 -0.07108629 -0.07735519 -0.08505132 -0.08383001 -0.07720736 -0.08723491 -0.07695214 -0.08796468 -0.1194395 -0.01370371 -0.08389778 -0.235949 -0.08146417 -0.05359021 -0.08326761 -0.08650942 -0.01389857 -0.08246543 -0.08624117 -0.06113958 -0.07926058 -0.0796055 -0.07460661 -0.3039175 -0.1171742 -0.08319829 -0.1063386 -0.1007563 -0.07793771 -0.01513763 -0.06797072 -0.2517461 -0.1143632 -0.06550048 -0.04050517 -0.09485223 -0.09179928 -0.1082858 -0.09308774 -0.1100245 -0.09057322 -0.06996277 -0.100852 -0.01334406 -0.123482 -0.1228142 -0.08662472 -0.08811162 -0.1287054 -0.01442948 -0.06518453 -0.08870417 -0.09286091 -0.07481461 -0.09702858 -0.0156408 -0.1493095 -0.09821911 -0.09413581 -0.07749458 -0.1405677 -0.1178103 -0.01523904 -0.1055863 -0.05887147 -0.06122292 -0.2699994 -0.1119453 -0.1328207 -0.06489395 -0.08244224 -0.07373548 -0.1976867 -0.1178597 -0.09250729 -0.1262611 -0.06975915 -0.1142273 -0.06690414 -0.1290263 -0.06234633 -0.07342581 -0.1121909 -0.08374023 -0.07536631 -0.08215313 -0.05950296 -0.1080913 -0.07178694 -0.07223889 -0.01587335 -0.1132226 -0.1502535 -0.0710327 -0.04185265 -0.07685348 -0.04570565 -0.1096666 -0.09422748 -0.09504121 -0.09014558 -0.07255264 -0.07019437 -0.04390821 -0.2856223 -0.25877 -0.1055944 -0.06948013 -0.07093767 -0.06816903 -0.1139906 -0.07133465 -0.1463148 -0.09091368 -0.07216344 -0.07586823 -0.01363489 -0.07882446 -0.01414912 -0.06052756 -0.1095956 -0.09431764 -0.1103554 -0.1095054 -0.04750452 -0.1055124 -0.08715276 -0.06809081 -0.1060698 -0.09439128 -0.1410268 -0.07537449 -0.1602791 -0.2034925 -0.07836787 -0.08232073 -0.08408567 -0.119589 -0.1358973 -0.0368759 -0.09386103 -0.08936762 -0.09121702 -0.08610994 -0.05063051 -0.09892705 -0.08144218 -0.0407235 -0.08361018 -0.1024342 -0.1141937 -0.09161715 -0.03205199 -0.08964729 -0.07091811 -0.08275591 -0.08513329 -0.05396479 -0.01371219 -0.1514826 -0.07383113 -0.1023793 -0.08878723 -0.05353197 -0.08305795 -0.04099087 -0.08274263 -0.09390581 -0.01417168 -0.09138364 -0.1077716 -0.1027596 -0.04846933 -0.08704566 -0.08804111 -0.1143549 -0.09162316 -0.1150138 -0.07392146 -0.140614 -0.1848014 -0.06543005 -0.1332039 -0.08755948 -0.01434364 -0.09367814 -0.05980689 -0.1941212 -0.01609415 -0.05930686 -0.06584741 -0.0712893 -0.08451451 -0.07562567 -0.1217367 -0.1268256 -0.1173098 -0.09601311 -0.09045215 -0.05689633 -0.1245858 -0.06714644 -0.08083964 -0.06375945 -0.06627712 -0.1663524 -0.04512332 -0.01428794 -0.05289557 -0.2520452 -0.1851595 -0.06271448 -0.1099203 -0.1325003 -0.07547014 -0.07641011 -0.07214148 -0.07712772 -0.07396108 -0.07960209 -0.04290179 -0.06435679 -0.1005185 -0.06031645 -0.1029083 -0.06896345 -0.08419386 -0.05923968 -0.08911312 -0.01401028 -0.14455 -0.1028014 -0.06708364 -0.08171836 -0.07241297 -0.1034934 -0.1008842 -0.1010445 -0.1781037 -0.1668004 -0.2092246 -0.05192279 -0.1185393 -0.1744201 -0.119613 -0.08322531 -0.2944717 -0.07706097 -0.06228495 -0.1186104 -0.1336787 -0.2169433 -0.06844858 -0.05535948 -0.1098483 -0.1315349 -0.09405433 -0.1341838 -0.05843445 -0.0922372 -0.08430015 -0.05624998 -0.1104404 -0.07376418 -0.04901428 -0.1365547 -0.07267036 -0.1361365 -0.09760096 -0.1235471 -0.1113616 -0.08187326 -0.163675 -0.1129593 -0.04747798 -0.08182451 -0.08730346 -0.06846032 -0.08305301 -0.1083741 -0.2058858 -0.09003572 -0.2809112 -0.07232189 -0.08066771 -0.125828 -0.07602088 -0.06838066 -0.06439097 -0.08322838 -0.05940845 -0.01392244 -0.07493041 -0.2571073 -0.05222174 -0.08981322 -0.08347363 -0.05330762 -0.1232162 -0.05558077 -0.09811097 -0.112114 -0.1202961 -0.1967761 -0.07480421 -0.1369984 -0.03802201 -0.1241223 -0.3092809 -0.0762304 -0.0218769 -0.1527799 -0.06779996 -0.09309963 -0.07932964 -0.04652916 -0.0780515 -0.07917155 -0.09002909 -0.08737011 -0.119683 -0.05611828 -0.06201985 -0.06743775 -0.2140243 -0.2266828 -0.114106 -0.08054757 -0.1039479 -0.09830658 -0.1041163 -0.08030861 -0.05954706 -0.2113744 -0.03879698 -0.01396181 -0.1681706 -0.08454313 -0.1137785 -0.1186084 -0.1024734 -0.1400524 -0.07673614 -0.09583459 -0.08977073 -0.08372069 -0.1385667 -0.06688777 -0.07476384 -0.07036018 -0.09929378 -0.0138863 -0.04239371 -0.07446908 -0.06083065 -0.2817271 -0.08657006 -0.08277046 -0.1015936 -0.07197891 -0.03831862 -0.09926903 -0.04345721 -0.05687649 -0.1557338 -0.05424279 -0.04247961 -0.1386194 -0.07217242 -0.1245669 -0.09958224 -0.05544494 -0.06209406 -0.07606509 -0.05245285 -0.07807404 -0.092443 -0.05456376 -0.1036326 -0.08181908 -0.1224806 -0.1024449 -0.05723596 -0.1075414 -0.1108801 -0.05406982 -0.08235913 -0.1108152 -0.01341693 -0.1162682 -0.1027183 -0.03948232 -0.09039774 -0.07655604 -0.08232038 -0.126069 -0.09155636 -0.1071465 -0.1511198 -0.1242615 -0.05491386 -0.0481908 -0.09537916 -0.1092096 -0.01391471 -0.07498817 -0.09552989 -0.1390787 -0.09731804 -0.07852979 -0.05027193 -0.2472142 -0.1736184 -0.0851639 -0.05834149 -0.1625694 -0.09628507 -0.05970839 -0.1073872 -0.09784403 -0.0961783 -0.1880735 -0.09041936 -0.06388268 -0.04147281 -0.08865099 -0.03839434 -0.07837447 -0.1060994 -0.08746212 -0.06076862 -0.09542091 -0.0640701 -0.199002 -0.1385572 -0.09781668 -0.08911482 -0.1026176 -0.09039667 -0.07565711 -0.1009391 -0.1020696 -0.01385127 -0.0484376 -0.01332807 -0.1591913 -0.07024009 -0.1734845 -0.08105607 -0.1220969 -0.149499 -0.1033514 -0.09994314 -0.09738477 -0.08768354 -0.08930451 -0.1198991 -0.06834731 -0.04602299 -0.07349589 -0.1017154 -0.1210338 -0.06823336 -0.1076209 -0.1062805 -0.110379 -0.1381767 -0.08517119 -0.05838455 -0.03139708 -0.07886125 -0.08216802 -0.05940247 -0.08783574 -0.03759279 -0.07136457 -0.1165919 -0.1218042 -0.07177772 -0.09964257 -0.0159077 -0.0979282 -0.02858411 -0.01429918 -0.1924385 -0.07315201 -0.1037312 -0.06698696 -0.09326781 -0.01420363 -0.09968262 -0.1520407 -0.03172596 -0.07185225 -0.2029412 -0.1364412 -0.08693735 -0.09289441 -0.3139857 -0.01376626 -0.09089401 -0.1367023 -0.1117164 -0.1041502 -0.1155515 -0.1848971 -0.08534516 -0.101686 -0.0795328 -0.0876913 -0.0133117 -0.05680212 -0.06545809 -0.07278635 -0.07094007 -0.112869 -0.1317391 -0.115051 -0.09207056 -0.08952898 -0.1046529 -0.09972647 -0.1485051 -0.07094891 -0.08124933 -0.1321887 -0.08756552 -0.1967901 -0.2197531 -0.2036216 -0.08345038 -0.1258923 -0.2157955 -0.01399885 -0.1071507 -0.08188365 -0.09490727 -0.06455675 -0.07478527 -0.2032806 -0.06746547 -0.09182002 -0.03180513 -0.07805193 -0.08623353 -0.09529029 -0.07313917 -0.08365879 -0.05273425 -0.1034764 -0.1169397 -0.04961161 -0.1272058 -0.0802913 -0.1530489 -0.09184484 -0.09153541 -0.1165475 -0.0699158 -0.0145841 -0.08931788 -0.05882673 -0.06489658 -0.1291249 -0.1262496 -0.09335972 -0.15773 -0.1732629 -0.05856706 -0.07149681 -0.0913868 -0.09498981 -0.09211599 -0.07108985 -0.08217086 -0.01383703 -0.04571032 -0.07972677 -0.06286712 -0.1012589 -0.1050827 -0.1049148 -0.1100018 -0.1312605 -0.09766275 -0.1085543 -0.1092368 -0.09708161 -0.1125093 -0.05485262 -0.1008681 -0.08823727 -0.1078663 -0.06194832 -0.08075323 -0.1062191 -0.1015241 -0.1278467 -0.09083923 -0.01592751 -0.03256148 -0.08401472 -0.2237286 -0.09963465 -0.1142209 -0.2125469 -0.1759507 -0.05413652 -0.1025226 -0.07613559 -0.01395121 -0.1099755 -0.06705764 -0.01399654 -0.08916312 -0.01476201 -0.03993462 -0.1512694 -0.06506412 -0.09488539 -0.06804635 -0.1419476 -0.09711935 -0.1043404 -0.07716257 -0.08673508 -0.07142963 -0.1312716 -0.08542904 -0.05571374 -0.1009008 -0.09698993 -0.06273541 -0.08142084 -0.0761466 -0.07334043 -0.1113943 -0.0664392 -0.05578915 -0.05582852 -0.09758096 -0.06410912 -0.1161556 -0.07850724 -0.04723077 -0.07279426 -0.08470215 -0.08148687 -0.08405291 -0.07226488 -0.01466443 -0.07093266 -0.1372541 ]
<!EndOfComponent> 
<Rescale> 1024 1024 
<LearnRateCoef> 0  [ 8.771596 5.054901 5.876589 9.737696 9.329198 10.30498 4.742375 6.666577 7.361321 5.744436 9.714494 524.4701 5.252289 6.744358 7.649644 6.736503 4.692207 4.4501 3.127222 8.54852 4.864567 5.856391 7.435284 8.698103 4.623681 4.67052 512.8951 7.000276 5.364955 6.029278 7.589045 4.694974 6.292604 6.269114 6.639882 5.481262 3.838256 7.393117 6.831744 9.014904 6.943968 4.773875 6.424993 4.360182 5.243445 4.461367 4.167663 2.570758 6.894555 6.570969 5.643444 7.886214 5.535735 5.649587 7.016368 5.660553 5.082512 7.937467 4.704384 6.911752 4.15549 7.544798 8.270605 457.3939 7.313169 3.769056 4.76231 292.3972 5.321066 8.448215 4.926104 6.558401 3.613045 7.664093 5.976326 5.635872 489.1376 5.863897 5.889322 5.466557 4.389152 3.296375 8.129233 8.070628 6.23667 8.029639 5.528807 7.912333 3.979514 7.640058 6.561048 7.085264 2.304936 5.440402 3.326344 4.978788 4.512624 7.32961 8.240352 6.586007 10.23927 6.892935 6.946327 5.529962 5.337245 3.820413 6.687022 6.496385 5.9418 5.519445 7.923564 5.711217 6.85631 7.097362 4.93945 5.747922 6.045871 7.2 7.893013 8.305402 3.493282 7.886177 7.095745 2.798526 6.024652 6.506023 2.904211 5.51532 6.643259 5.574683 8.152926 7.089188 6.702285 8.19886 7.281189 453.6125 5.241566 4.314981 5.697729 7.655779 6.460828 4.471013 7.391407 7.168258 7.474299 8.17251 6.973606 4.760043 3.96395 5.857515 3.698123 5.790211 4.610039 7.620767 5.662351 5.051843 7.980675 6.574092 7.635583 7.442849 6.869898 4.317984 6.452983 4.976829 7.250657 8.079781 22.07733 486.9703 4.674801 6.651661 5.004551 9.347879 10.17579 5.703311 9.078317 7.350935 6.583391 4.295372 5.917101 5.706414 5.491557 7.593755 503.4343 7.108853 4.996595 6.837493 4.932307 6.070858 6.224725 334.8712 6.582224 7.528926 3.180599 6.997648 6.44111 8.13313 5.90438 4.144714 2.942217 5.909659 9.49606 341.8522 4.562939 9.879889 4.893994 3.700016 6.203706 6.631842 5.924536 5.09582 5.141181 7.196509 7.436421 7.156319 6.567324 5.946156 5.453506 4.7709 6.190217 4.979297 9.50629 6.379868 6.22216 6.815608 6.075416 6.08662 3.567386 3.715179 5.242238 8.183343 2.540013 5.340843 6.755903 6.661009 2.841868 5.790096 6.258122 7.145245 5.099072 3.39618 4.174574 7.451418 7.366142 6.657851 8.294817 4.510955 6.923761 8.040094 6.409476 6.426781 8.037197 5.638904 4.145745 4.631693 2.703973 4.339127 5.420651 6.062455 6.201708 5.19091 7.326117 5.229277 5.869352 4.874411 5.484912 6.433845 5.630982 8.711668 5.696438 4.217931 428.9092 5.146724 7.328452 6.134608 6.380015 8.571187 6.066842 411.0873 5.74552 7.553542 5.907262 5.426139 6.613672 3.574707 6.911847 11.13877 521.3175 6.292381 4.88239 7.181822 6.26606 9.011934 4.374944 5.681254 8.608521 3.117143 5.839854 7.549746 6.789529 8.734662 5.798844 5.117281 7.512594 7.477227 2.933901 7.35159 6.772588 8.434892 7.251875 207.9317 7.141771 7.651023 5.641335 6.6458 7.025562 336.8545 6.689657 6.650828 6.845332 6.668049 5.366807 7.4439 6.818725 7.672347 8.018814 7.138252 2.85325 4.973437 6.150448 6.861647 7.287045 2.683055 2.794742 6.318481 6.555104 5.721848 5.158791 5.304213 7.188183 7.494798 4.118351 5.599484 6.660187 4.79184 6.736236 6.049424 6.69492 442.9771 5.500966 9.270498 7.931501 7.361986 5.833475 8.503361 7.41457 9.734606 7.064746 4.90309 6.719033 9.004528 7.877299 6.488956 7.72752 6.424706 5.880917 3.551508 4.924413 355.9952 8.236416 2.601574 7.492751 4.940812 7.979144 6.014847 7.531481 8.292606 5.520453 5.540994 6.197838 5.693174 495.6931 8.670314 2.869581 8.289204 8.314447 4.657391 5.07419 474.2504 8.435487 7.752547 8.086019 6.117152 4.496488 6.675564 2.43981 5.468943 7.908997 6.640874 5.892915 6.566136 347.6183 10.76287 2.866301 5.27278 7.292424 8.45132 4.964529 7.746634 5.62743 5.457725 4.569016 8.243928 6.619042 6.196511 539.6255 5.182886 5.788032 6.51326 6.092773 5.180655 422.8555 7.452543 5.803005 4.15535 6.083306 6.750524 313.9813 4.798021 5.87991 5.871511 5.598641 5.766531 5.81143 317.5365 5.787533 7.255995 8.025919 2.80648 5.565284 4.631432 10.86303 7.487299 8.510703 3.265613 5.528191 7.73799 4.845948 4.984112 5.285909 7.901717 4.414452 6.194179 8.304632 5.697649 6.173316 7.574171 8.843487 6.412201 5.605297 8.373905 7.242507 302.3296 6.547444 4.159066 7.01286 7.068381 5.351699 6.93373 5.098907 6.484944 7.682957 5.109601 6.721224 9.457647 7.651899 2.822483 2.827747 6.339459 6.779306 8.264824 8.522441 6.047132 4.802439 3.784573 6.406579 5.897441 6.025589 501.3263 5.853665 447.2795 5.679835 6.242586 7.226494 5.877908 5.111858 7.197447 4.804682 8.237646 8.195549 6.814383 7.16018 4.738362 6.369699 4.816196 3.34744 8.260415 5.534106 4.893665 5.02003 4.643874 8.497334 5.558812 6.965678 7.726489 8.30395 10.91323 4.78943 8.677219 7.969086 6.781279 6.247048 5.633622 8.225821 7.201881 7.268099 6.556312 8.82377 7.907928 7.540927 498.7094 4.009463 4.533769 7.324297 5.78371 5.745066 6.870505 7.402787 4.595645 4.98307 451.1018 6.745551 5.096984 7.348472 6.534295 8.369577 7.426534 3.946782 5.396064 6.721537 8.687839 3.932949 3.278304 5.912022 5.221592 7.386797 437.5999 7.691836 6.301112 3.292791 296.4037 6.178014 6.166023 5.880223 7.962283 5.968039 5.897634 4.272898 4.949223 7.470745 4.86889 5.95501 6.052377 9.105732 7.981979 9.246905 10.08656 3.135356 6.719966 434.1483 7.654027 2.987921 2.958999 6.741503 5.580182 4.979774 5.944634 4.589557 7.930211 5.643233 8.077469 8.370213 7.412998 6.078291 4.989127 9.086525 6.328846 5.861778 6.881893 6.44075 7.299702 464.6667 4.391023 6.019854 7.220861 6.074105 8.959146 6.125734 6.385887 6.521201 3.592692 3.172102 3.103602 6.594514 4.84972 3.79481 6.514037 5.266668 2.395403 7.802409 5.626815 6.193439 6.045635 2.859918 5.800921 6.793792 6.659953 4.912619 7.144796 3.603424 6.156525 4.175279 7.790077 7.996813 5.666025 8.057714 6.339707 4.733418 7.321566 4.911622 6.218221 5.768192 7.059969 7.159936 3.590976 7.246239 9.834487 9.074784 6.589623 6.948739 4.495283 4.874469 3.439936 7.745549 2.670674 5.345748 7.734824 5.577989 9.034547 8.923107 8.006172 6.738347 8.75609 474.054 8.26453 2.822673 7.151699 4.904651 8.498845 7.387254 4.954181 8.649025 7.101606 5.834864 4.920218 2.979737 5.637922 4.991705 8.090084 5.668205 2.443157 6.900065 72.59967 5.396604 5.623875 5.025373 8.507818 6.517465 8.196714 8.712858 6.106363 6.632523 3.84261 6.379247 5.686545 7.76381 3.053639 2.91935 6.286072 8.156599 6.596107 7.468121 7.645466 6.726588 9.141595 2.885364 7.425673 474.9521 3.933154 7.003216 5.043208 4.969728 6.336117 3.761455 7.753397 6.7363 7.720068 8.360194 4.049134 9.896301 7.02483 6.118719 6.89718 478.4622 7.048843 7.835721 6.197392 2.641309 8.108408 8.002774 5.548117 6.582437 7.557023 5.701187 6.964213 6.017272 4.805467 7.111535 6.547138 4.162902 8.174543 5.295251 6.305495 7.850972 8.23977 4.663829 8.453452 7.084464 7.291928 6.825181 4.808613 6.746323 5.393201 7.393025 8.101591 5.556959 5.922932 8.278714 6.044959 5.947639 532.7772 5.820872 4.790389 6.341906 5.979565 8.058154 4.772854 5.496291 7.162121 6.606541 3.390251 3.79267 5.440322 9.465808 6.28347 4.101995 469.5358 7.962585 7.43278 4.846295 7.917295 9.5253 6.796293 2.941468 3.279146 7.138093 5.966064 4.342538 5.885085 7.129009 6.913191 4.358534 5.920089 2.930524 4.492281 7.859596 8.60473 5.656538 7.11233 6.924855 6.399612 5.159549 5.995576 6.316356 6.379541 3.149322 5.676617 6.661904 6.23319 5.436079 8.084347 6.659803 6.574119 4.746444 483.2368 6.946688 545.4297 4.420568 5.723578 3.355415 6.993088 6.297615 4.657284 7.019574 6.557649 6.719546 5.317942 8.030651 5.003553 5.343633 6.641763 7.259066 6.095893 4.603745 7.279215 6.637971 3.959177 4.821723 6.057288 8.026577 6.405385 28.88994 5.431271 6.163509 5.367332 5.670264 6.834763 4.62528 6.591234 4.68309 6.166487 7.036299 272.8929 5.709852 8.587219 434.0455 3.581724 9.676868 6.344259 5.096321 7.545219 447.7505 5.875587 5.210791 8.736806 6.485363 3.214524 3.838774 8.627716 4.577352 2.321206 491.9459 5.709632 4.394078 6.689902 7.154694 4.173096 2.967431 6.40662 5.570621 9.485583 7.336606 549.246 6.182506 5.042325 7.818219 5.191919 7.099287 6.078229 5.81827 6.231077 7.509638 6.584115 4.000247 5.654681 9.203434 8.091209 4.074395 6.681293 3.110621 3.091208 2.941216 6.181697 5.960697 3.036438 461.0448 3.903327 8.010115 6.143847 6.182079 5.121873 3.409362 5.072272 7.067468 8.306115 7.82737 5.843863 5.644511 8.730829 5.357905 6.219261 6.125389 6.51096 8.564427 4.485422 7.508573 4.478719 6.861642 6.489136 5.520125 7.550335 393.658 7.517271 5.412375 5.163775 3.80437 4.713928 6.538308 3.196941 3.644715 8.348331 8.503953 7.370932 5.266528 7.646746 8.811621 8.053626 484.9476 7.351469 5.077439 6.870806 7.24352 6.631978 6.8355 5.933335 3.790607 6.684715 5.57285 3.861147 7.318461 5.588351 6.5122 6.962911 7.693685 6.765899 8.072249 5.42587 5.449274 6.802826 6.12703 6.619126 255.4539 8.834353 6.319472 3.043852 6.10446 6.730121 3.185483 3.778152 6.306566 5.572381 5.929017 477.4066 6.125344 7.908602 457.7381 6.969916 378.7835 6.987834 4.533782 5.831152 7.724253 6.585112 4.758877 5.607104 4.000909 7.702807 8.038631 8.951051 4.447422 7.110398 10.09173 6.629758 6.842925 7.68381 5.579773 5.744221 6.882631 6.648021 8.81473 7.611062 5.794957 4.98401 5.941878 5.578032 8.945218 6.543495 4.778418 4.693058 7.995963 6.908617 5.868352 367.9286 8.410189 5.360237 ]
<!EndOfComponent> 
</Nnet> 
