<Nnet> 
<AddShift> 1024 1024 
<LearnRateCoef> 0  [ -0.01457234 -0.06287113 -0.07217012 -0.09486796 -0.0136484 -0.101731 -0.1105375 -0.01361728 -0.1032808 -0.0711811 -0.1091218 -0.01311869 -0.07569396 -0.1014053 -0.06707352 -0.08269159 -0.1024751 -0.0760509 -0.09820714 -0.09904343 -0.08668219 -0.01462309 -0.1030794 -0.07455315 -0.08723024 -0.01386499 -0.0800097 -0.09326369 -0.09007007 -0.1243341 -0.05859848 -0.07179615 -0.07104587 -0.08267562 -0.01345879 -0.07907327 -0.1293942 -0.07157357 -0.01503769 -0.07045776 -0.2146546 -0.1085275 -0.06205154 -0.08755469 -0.08734524 -0.08772901 -0.1177067 -0.1706565 -0.0868296 -0.01330539 -0.07236316 -0.07926136 -0.1068364 -0.09343655 -0.0874761 -0.06573272 -0.0778584 -0.07072797 -0.06207669 -0.08296423 -0.08213931 -0.0143607 -0.09861763 -0.07252133 -0.01456801 -0.0606997 -0.01338886 -0.0745535 -0.08739091 -0.06812914 -0.1394596 -0.1021399 -0.08968463 -0.01375737 -0.08630183 -0.08323061 -0.01367754 -0.05705063 -0.1264615 -0.1274941 -0.07496499 -0.09866708 -0.1105581 -0.08892313 -0.1099221 -0.06890743 -0.09027016 -0.01433605 -0.07303277 -0.06649829 -0.07941348 -0.08847402 -0.09180269 -0.1172737 -0.1947557 -0.1186507 -0.08182999 -0.08647951 -0.06861065 -0.1222958 -0.1006998 -0.1162324 -0.08209539 -0.07852933 -0.08925327 -0.09851118 -0.1025942 -0.100835 -0.07244424 -0.08680741 -0.05414288 -0.07849649 -0.07441559 -0.0797255 -0.1069105 -0.08637097 -0.2467225 -0.01331377 -0.0950072 -0.06563143 -0.08782592 -0.01417066 -0.1134932 -0.1055448 -0.1530613 -0.01349866 -0.08165792 -0.06728916 -0.01398955 -0.0701602 -0.12164 -0.01387814 -0.01371031 -0.01477934 -0.05599603 -0.01351003 -0.06442644 -0.06453835 -0.1023898 -0.05920098 -0.1083576 -0.06937192 -0.01383166 -0.07655716 -0.052139 -0.01394674 -0.03946554 -0.09410805 -0.1023744 -0.1031125 -0.05885132 -0.1039581 -0.08814487 -0.1051713 -0.0903866 -0.01373033 -0.09559905 -0.1002821 -0.07272238 -0.09183659 -0.08301127 -0.06345319 -0.05758347 -0.03453618 -0.1035955 -0.01457062 -0.1050541 -0.01362226 -0.09142628 -0.100243 -0.01400764 -0.01390615 -0.08573175 -0.0882922 -0.08863129 -0.01381556 -0.1012511 -0.1019291 -0.0707924 -0.1119677 -0.1068112 -0.09058475 -0.01382233 -0.05036828 -0.103616 -0.07281713 -0.08576161 -0.1040635 -0.07351214 -0.01364278 -0.3064496 -0.05852984 -0.1028914 -0.1320108 -0.06288659 -0.07587684 -0.07483082 -0.02706488 -0.04539834 -0.01395619 -0.08872851 -0.07343137 -0.07912454 -0.01413811 -0.1182321 -0.08119292 -0.0646071 -0.01366463 -0.01467932 -0.1306085 -0.09354842 -0.04801435 -0.01397403 -0.1858864 -0.08981784 -0.05895446 -0.09515072 -0.05611796 -0.07355958 -0.07842289 -0.01373694 -0.06430876 -0.06250752 -0.01349528 -0.2441055 -0.136666 -0.1597663 -0.1099918 -0.09812648 -0.1381743 -0.08654851 -0.1226829 -0.09461103 -0.06987254 -0.08464305 -0.07604309 -0.01396107 -0.09868809 -0.1004908 -0.3083809 -0.1577996 -0.01368154 -0.01381173 -0.07498948 -0.07627973 -0.05534752 -0.0143451 -0.05148167 -0.01398116 -0.07026749 -0.09602253 -0.09854297 -0.09492948 -0.05603781 -0.1855943 -0.06547405 -0.08617277 -0.09748789 -0.1258845 -0.1313121 -0.09497679 -0.07868525 -0.07161408 -0.06015309 -0.08566502 -0.08536229 -0.1115537 -0.0167854 -0.0667436 -0.08673099 -0.01428127 -0.068402 -0.1656008 -0.1478602 -0.08678648 -0.09556901 -0.1974938 -0.09569747 -0.09350826 -0.07748353 -0.05985608 -0.05920682 -0.1037783 -0.09031785 -0.06526101 -0.01362438 -0.01369141 -0.1707541 -0.07108603 -0.07643136 -0.09169731 -0.01375601 -0.2122907 -0.08747533 -0.01385561 -0.1326181 -0.1467152 -0.05859419 -0.05978434 -0.07627831 -0.08612375 -0.0773173 -0.01338869 -0.09891451 -0.09423707 -0.09432423 -0.1277537 -0.08854312 -0.1363653 -0.05578995 -0.05653336 -0.08057191 -0.07312857 -0.09832471 -0.01353459 -0.01389895 -0.0635328 -0.1006103 -0.1119319 -0.1417468 -0.09413456 -0.01404837 -0.06901394 -0.07905594 -0.09095999 -0.08653417 -0.07993524 -0.08479787 -0.04395781 -0.0133525 -0.1025836 -0.09916904 -0.157256 -0.01511307 -0.1778709 -0.07856824 -0.07546285 -0.06524943 -0.07175632 -0.01480476 -0.1117683 -0.08784236 -0.06057475 -0.09104328 -0.07632105 -0.06671327 -0.06497759 -0.01337386 -0.109555 -0.1168549 -0.01498923 -0.07591119 -0.1326239 -0.1227625 -0.05375689 -0.07246189 -0.01356581 -0.0971987 -0.09751625 -0.1180476 -0.08066402 -0.06187494 -0.01368746 -0.05093569 -0.06736785 -0.1198898 -0.1064615 -0.01424332 -0.1018922 -0.06887706 -0.01394699 -0.1046685 -0.07149111 -0.1409527 -0.06716087 -0.01393262 -0.1131708 -0.05653439 -0.117097 -0.1269104 -0.01334912 -0.07273777 -0.06902909 -0.1191198 -0.08603515 -0.03673915 -0.07510848 -0.09859769 -0.09713271 -0.06662995 -0.067279 -0.09618684 -0.10522 -0.1139372 -0.08471164 -0.1163449 -0.08325057 -0.07018356 -0.0135589 -0.112876 -0.08766147 -0.01373715 -0.09120593 -0.08781058 -0.07249335 -0.07090833 -0.08775023 -0.118499 -0.01401609 -0.09433289 -0.04785955 -0.1421972 -0.1350127 -0.07947878 -0.01312341 -0.08628055 -0.1053347 -0.08441347 -0.07107277 -0.1508942 -0.08842365 -0.08535062 -0.07278774 -0.1032931 -0.08277061 -0.09757429 -0.01464674 -0.1156998 -0.1018016 -0.07649218 -0.06818029 -0.09028296 -0.06964527 -0.01344107 -0.08429461 -0.07666566 -0.01390474 -0.3677129 -0.1094161 -0.07393658 -0.06088109 -0.0983355 -0.0633355 -0.08800028 -0.08346533 -0.0907666 -0.06787413 -0.1555095 -0.07617041 -0.08160897 -0.07654113 -0.07276157 -0.08872799 -0.01422341 -0.06995875 -0.01369311 -0.08937327 -0.04861081 -0.05765831 -0.01477578 -0.1025431 -0.01486767 -0.01414846 -0.06830991 -0.0787319 -0.09498762 -0.07658185 -0.1259349 -0.1140668 -0.01376184 -0.1408151 -0.1077253 -0.1008511 -0.01339556 -0.09083784 -0.1004879 -0.0877526 -0.07865234 -0.08214734 -0.167067 -0.09979335 -0.01362047 -0.1169254 -0.1378394 -0.01382167 -0.09798999 -0.07767238 -0.08681638 -0.05058575 -0.08594196 -0.08041926 -0.1063055 -0.1650946 -0.1182823 -0.01427988 -0.06010206 -0.01385012 -0.102314 -0.08663066 -0.1137881 -0.08967117 -0.09672073 -0.1108661 -0.08459105 -0.07220279 -0.09030893 -0.06366233 -0.1259807 -0.0334688 -0.09749036 -0.08499377 -0.01346212 -0.0990252 -0.1069045 -0.01993842 -0.05739597 -0.09113564 -0.09052723 -0.08521043 -0.06998869 -0.08163857 -0.07963511 -0.07046702 -0.08345943 -0.01383394 -0.06631923 -0.09801669 -0.05399569 -0.07400387 -0.01375332 -0.07424201 -0.07281088 -0.01373327 -0.1170442 -0.09491549 -0.1384188 -0.1166353 -0.1252594 -0.01357162 -0.01328693 -0.1132043 -0.07817739 -0.0139065 -0.1617214 -0.01344691 -0.07446346 -0.07932687 -0.07866124 -0.05807767 -0.01498132 -0.1650824 -0.06075685 -0.07158039 -0.01436157 -0.01351717 -0.01391529 -0.06827266 -0.08980313 -0.3318236 -0.1358806 -0.122737 -0.1008948 -0.0949467 -0.01481497 -0.1402975 -0.0724253 -0.1031149 -0.1162675 -0.0809994 -0.09619714 -0.01369303 -0.01438055 -0.05301228 -0.01401615 -0.01454154 -0.1194036 -0.06591859 -0.0796735 -0.01848397 -0.05587582 -0.1807691 -0.08863883 -0.09901511 -0.07072172 -0.08837992 -0.09459077 -0.07967118 -0.1030873 -0.08479031 -0.03839881 -0.04929403 -0.07199005 -0.08996762 -0.01349974 -0.1083673 -0.01432711 -0.08116049 -0.08943921 -0.1258806 -0.01394886 -0.0138092 -0.1503408 -0.07859478 -0.06868084 -0.05289009 -0.1150464 -0.01352627 -0.07740925 -0.08625198 -0.1102288 -0.07034976 -0.09418473 -0.08120016 -0.07429022 -0.06130026 -0.1032481 -0.08777238 -0.1806852 -0.09376004 -0.115023 -0.1040504 -0.08335937 -0.07782717 -0.06704798 -0.05340461 -0.099616 -0.1563543 -0.08648525 -0.06030931 -0.1016837 -0.09338281 -0.06031638 -0.08500735 -0.1528359 -0.1003471 -0.08899757 -0.1402116 -0.06923512 -0.142897 -0.01347831 -0.1403247 -0.08259855 -0.09496002 -0.1706952 -0.1558678 -0.1071941 -0.01388799 -0.09419005 -0.1288087 -0.06681352 -0.1136874 -0.1155944 -0.3535819 -0.08312665 -0.0584005 -0.076814 -0.1015806 -0.09069964 -0.06422232 -0.08374926 -0.09000184 -0.08303083 -0.07437982 -0.06178243 -0.1913912 -0.1177555 -0.06657752 -0.1188924 -0.177962 -0.013728 -0.01716098 -0.1108987 -0.08912878 -0.1074333 -0.1109156 -0.09996526 -0.115887 -0.1012408 -0.09488421 -0.1131497 -0.1003513 -0.0139682 -0.01347847 -0.08366806 -0.1300182 -0.01475806 -0.08777031 -0.1154237 -0.01394222 -0.1458517 -0.09131231 -0.1129089 -0.09030285 -0.1394102 -0.06778134 -0.1048849 -0.1025399 -0.04082283 -0.0928323 -0.08020437 -0.1300534 -0.1058566 -0.06398639 -0.1015156 -0.0898514 -0.1024151 -0.05568087 -0.08780128 -0.1100257 -0.06644648 -0.1528554 -0.09851904 -0.07219549 -0.01355265 -0.01439801 -0.05215887 -0.01369037 -0.1140646 -0.0135171 -0.1467266 -0.08547278 -0.07011863 -0.01624409 -0.09184783 -0.07261057 -0.08942378 -0.1201692 -0.109061 -0.1572086 -0.08284821 -0.06578193 -0.0738623 -0.1687682 -0.1160684 -0.1333836 -0.07753518 -0.2121743 -0.07626668 -0.08016603 -0.05900663 -0.06984499 -0.08250943 -0.09213465 -0.04737176 -0.1177073 -0.1328272 -0.0669628 -0.01379307 -0.1080515 -0.06240015 -0.06886438 -0.0981685 -0.01472148 -0.09057184 -0.135795 -0.07628364 -0.09303564 -0.1628809 -0.1195583 -0.01338294 -0.06925731 -0.08192933 -0.1124727 -0.01476559 -0.1130688 -0.09452736 -0.07973319 -0.08855075 -0.05368481 -0.07304379 -0.08674332 -0.08121416 -0.01409099 -0.09313993 -0.08992517 -0.07255568 -0.01436097 -0.09268681 -0.07422436 -0.06730541 -0.05371912 -0.1019138 -0.1518306 -0.08612563 -0.01428475 -0.1634313 -0.104681 -0.1135344 -0.06591519 -0.08465755 -0.07401033 -0.09768817 -0.09399234 -0.05402526 -0.08346925 -0.1061916 -0.09737362 -0.05220981 -0.07369861 -0.01430119 -0.09142458 -0.09213539 -0.07913422 -0.1198126 -0.0695025 -0.04124101 -0.09515291 -0.1021661 -0.08106312 -0.01388578 -0.05980787 -0.06850854 -0.142254 -0.06413438 -0.09409237 -0.01355451 -0.1276651 -0.01312907 -0.1304001 -0.0551814 -0.07606674 -0.06403805 -0.07832823 -0.06632198 -0.09127846 -0.01452453 -0.09561446 -0.05737938 -0.1572639 -0.08664305 -0.09180349 -0.08174326 -0.09605195 -0.05416306 -0.1530114 -0.09442583 -0.0606026 -0.01386958 -0.08007758 -0.08550904 -0.01324031 -0.07029402 -0.08073466 -0.1658416 -0.08010325 -0.1038945 -0.07751498 -0.01360818 -0.1003551 -0.1338498 -0.1271372 -0.07150216 -0.08937494 -0.08592794 -0.06916032 -0.0486561 -0.06987282 -0.01418381 -0.1007196 -0.1065365 -0.0143151 -0.07835091 -0.1104572 -0.09739585 -0.08833492 -0.09362477 -0.09976397 -0.07955807 -0.05980504 -0.09016296 -0.01320725 -0.06989749 -0.08774424 -0.05989877 -0.01378217 -0.1149768 -0.1629338 -0.08970527 -0.0993295 -0.07354671 -0.01370096 -0.01302773 -0.07037087 -0.07941739 -0.08730406 -0.1681623 -0.08194213 -0.0556712 -0.1067574 -0.06583228 -0.01464049 -0.0134195 -0.1130499 -0.105238 -0.0615615 -0.01394941 -0.08912393 -0.05410671 -0.1218393 -0.05155862 -0.1533455 -0.1443545 -0.0846967 -0.09616456 -0.01388302 -0.07832003 -0.01387419 -0.115623 -0.09865293 -0.06982161 -0.1174941 -0.1258763 -0.09027417 -0.1290538 -0.08090924 -0.05144952 -0.09650477 -0.08954498 -0.01392397 -0.05876194 -0.08534937 -0.06970841 -0.08235429 -0.07238713 -0.06962167 -0.0804031 -0.07638802 -0.1458563 -0.06382632 -0.1211181 -0.04557604 -0.06265542 -0.09934552 -0.08403215 -0.08830854 -0.07917617 -0.07200405 -0.1092628 -0.07720666 -0.07894383 -0.05728904 -0.01395127 -0.1151464 -0.1068714 -0.06101565 -0.09017473 -0.01384383 -0.1322644 -0.07172588 -0.07407817 -0.01452665 -0.08733317 -0.0925241 -0.08365636 -0.1197148 -0.07774287 -0.08370591 -0.07395025 -0.0879705 -0.1229055 -0.1530927 -0.07697798 -0.08495951 -0.06952932 -0.082223 -0.1076453 -0.08410257 -0.07617971 -0.1201651 -0.1564728 -0.01552239 -0.01345237 -0.1253608 -0.108329 -0.08177903 -0.06931571 -0.1110353 -0.06010901 -0.142668 -0.06372181 -0.07680498 -0.07195593 -0.314391 -0.01374377 -0.0850971 -0.102333 -0.01406684 -0.03898789 -0.09807777 -0.07239218 -0.01454168 -0.1054467 -0.07943171 -0.06897058 -0.06273071 -0.08851821 -0.08914524 -0.01465164 -0.05670967 -0.06845615 -0.09359866 -0.01346493 -0.01409401 -0.01341253 -0.08349758 -0.08879184 -0.01362797 -0.01396398 -0.01400855 -0.07066327 -0.1059173 -0.09780118 -0.1052973 -0.01355314 -0.04951111 -0.09167524 -0.2051069 -0.07862626 -0.1317724 -0.01368496 -0.09810928 -0.01380614 -0.08509586 -0.1343709 ]
<!EndOfComponent> 
<Rescale> 1024 1024 
<LearnRateCoef> 0  [ 463.658 6.204389 7.900536 4.921152 592.3221 5.894332 6.081406 599.0107 5.960144 6.553487 5.603475 678.851 5.76622 4.565098 6.682069 7.314009 5.911525 4.802592 4.538748 6.074983 6.099921 461.8775 5.887995 8.197253 4.5809 564.2605 5.502545 6.042263 5.12401 4.90469 10.14953 7.065018 5.913884 6.874067 623.6979 6.500849 5.028338 8.529559 401.943 7.69742 2.824942 5.488533 6.428113 4.524052 5.697092 6.412958 5.031496 2.933856 6.472853 649.2925 7.170516 6.318714 5.306392 6.278373 5.024313 8.044901 5.169049 6.698981 6.220086 6.288627 5.449661 488.9924 4.887998 8.319633 456.9106 7.186237 635.2674 6.573164 7.272583 7.816855 3.67763 4.0244 6.798584 574.4409 6.513919 6.259003 589.1039 8.935182 4.492427 3.638611 6.355365 5.349706 4.921461 5.775601 4.170521 6.165905 7.246041 497.9642 6.832739 7.559146 6.834198 6.596732 5.009953 5.852084 2.875357 5.122112 5.853686 7.293237 9.960735 5.348533 5.83048 5.576705 5.275586 4.74752 5.868386 3.994583 4.55949 4.571717 7.220977 6.625193 9.753687 7.965658 10.47648 5.594747 5.921117 4.733898 2.583536 648.3577 5.712833 6.920545 6.312456 519.7962 6.570106 5.993756 3.163242 616.2053 7.514091 7.24135 544.1291 6.236562 5.483809 556.6083 583.6128 437.4156 5.753666 612.6525 7.019286 7.062696 5.799695 8.69542 5.150612 7.032357 566.0892 6.843948 7.769401 552.8121 9.402284 3.915854 5.690335 4.910882 6.951113 4.648438 5.42937 6.365903 5.654703 577.9927 5.258776 6.764902 7.789067 5.759524 5.980139 8.167907 7.79357 7.756994 6.54546 463.2581 6.512824 599.6367 6.336219 5.781847 541.1438 556.1754 6.302881 4.760343 7.159121 563.8875 6.651977 7.110649 7.429385 5.347902 4.911892 5.493824 558.8956 7.681222 4.724787 7.229417 6.457581 5.923177 5.796825 594.3046 2.537556 7.520978 4.29558 3.611993 8.207946 6.391757 7.619324 7.50392 7.697931 547.4319 8.05115 7.022706 5.041683 519.2599 4.535924 6.793149 5.582042 589.7236 449.1948 3.38392 6.143582 5.646704 544.9524 3.037248 6.373245 7.006868 7.506967 7.283555 5.548093 5.824455 573.0339 7.738402 6.099533 619.1672 2.7673 5.067223 3.675695 4.918377 6.462962 3.96839 3.870976 3.763483 6.516891 8.152423 4.740782 7.648488 546.3382 7.684035 4.665514 2.41451 4.158276 589.3405 569.6066 5.298638 8.179892 5.711589 497.1232 7.960012 545.6933 8.116722 5.943439 4.878603 5.686113 7.458323 3.016156 8.111613 6.512542 4.665722 5.831187 3.767043 6.518897 7.319898 7.882433 5.717245 6.619673 6.511243 4.835557 237.1164 6.959837 5.569791 503.0674 7.770833 4.354295 3.385403 6.152616 6.390404 2.953598 6.214032 6.770831 7.368238 7.16366 6.037331 4.804537 5.99151 6.604149 595.9366 588.2356 3.442653 7.158681 7.121409 5.269995 575.4206 3.231838 6.731398 562.3654 5.178308 3.533579 7.229612 6.03737 7.506967 5.93306 7.351023 634.2709 4.082933 5.590215 6.222874 5.359238 5.909254 5.608365 8.982318 7.214635 6.010598 4.413595 6.716303 610.7372 557.2817 11.14649 4.968707 5.548213 3.220081 4.880099 533.6593 8.536994 8.470782 5.547411 6.036703 4.840695 4.780262 6.299377 639.5344 5.753227 6.400002 4.841084 397.718 3.164738 5.997581 6.335631 9.911647 6.245123 434.3758 4.404097 5.342458 7.403972 5.176859 7.070317 6.566612 4.914989 636.5828 6.098478 5.302819 405.0379 7.103774 4.883073 4.153364 7.378256 8.053893 601.5629 4.374583 4.057252 6.099472 7.5727 7.905322 586.3799 8.104575 8.115626 4.921847 5.271801 502.9994 6.2953 5.742881 553.7659 6.546166 8.128077 4.396006 7.214906 550.4786 4.838208 6.946524 4.444909 4.053923 638.6765 7.952084 8.127271 4.774165 7.649044 8.485112 5.606236 6.707132 5.430405 5.733365 7.598144 5.981587 4.166746 6.067459 7.137847 4.929875 7.083075 9.138021 605.808 5.855316 6.446845 579.4069 6.153836 7.183064 8.251506 9.000381 5.829761 3.94565 539.3703 6.32825 6.332696 4.060412 4.418557 6.699159 678.9832 6.60266 5.167195 6.090297 6.603928 3.464201 7.459903 7.848459 6.437469 4.670041 7.253803 7.182642 450.8318 4.694662 3.719738 7.481371 6.845535 5.154378 6.704316 626.4409 6.914877 5.704022 555.8735 2.256288 4.709919 8.167917 10.04311 6.190325 5.969821 6.869907 6.963291 8.419064 5.539079 3.300284 7.613925 7.325282 5.171645 8.959017 5.926183 510.8509 8.47105 584.5425 5.848795 6.213542 8.73973 430.189 4.612424 423.7447 519.1328 5.876037 8.602448 3.794079 7.265967 4.718018 5.74297 571.7628 5.170959 4.932379 5.212405 632.6412 6.702135 6.843856 4.201176 7.274345 7.861092 4.613523 6.049307 593.2787 5.179581 3.474307 568.5026 6.208869 4.75074 6.649162 5.689253 6.783317 5.379209 5.452175 3.787871 5.402549 501.7051 7.273839 562.5349 5.224164 7.589069 5.515984 5.492533 6.35932 5.007938 6.659128 5.76729 7.86357 7.259479 4.609254 12.58135 5.484758 6.625467 621.7534 4.820851 5.782264 124.0569 5.996768 6.287971 5.937048 5.70276 6.711186 7.632188 5.133814 5.454887 7.132633 563.7169 7.764628 6.103508 8.375768 6.387804 576.1614 8.130905 7.149272 578.179 4.860392 5.042439 4.010765 6.007452 5.562581 608.8984 654.3264 5.424686 6.309622 552.9572 3.208038 623.9483 7.939589 5.927212 7.19594 7.075998 407.1651 3.538293 9.659495 8.324907 496.7504 613.5003 552.9149 7.507941 6.685517 2.236739 4.944569 4.082271 4.631793 5.669388 436.9331 5.194305 5.753835 5.99708 5.519217 6.730868 6.616811 587.3498 491.9417 10.44874 538.1662 469.4363 5.037557 6.51252 6.754708 158.2413 8.395122 3.114867 6.394595 6.588766 6.792644 6.077331 6.315031 6.327883 4.836032 7.538078 24.18707 6.804473 8.140002 6.465044 615.8748 6.564929 496.1773 5.618749 6.300753 5.006285 545.5164 569.4419 4.111428 6.288637 6.394516 7.015031 5.23942 610.7418 4.785201 5.59739 5.402196 5.751029 6.002042 5.29379 8.389966 8.557637 5.892548 6.980378 2.874704 5.701115 5.6907 4.729001 7.527896 7.302242 7.129145 8.186263 6.620594 3.740877 7.184592 7.616384 4.155663 6.912486 6.361468 4.768373 3.658171 5.925541 7.076469 3.354766 7.494821 3.909076 618.6379 4.875624 7.425282 5.302272 3.0347 5.200769 4.657651 555.5945 6.593908 4.929095 6.676909 5.48509 3.723969 2.189203 5.222493 8.235533 7.23493 4.307712 7.087945 9.236343 5.724217 5.103916 7.100335 7.24524 8.047608 3.061276 4.87535 6.612431 6.218713 3.46268 581.3592 229.7331 4.464894 6.544443 4.137511 5.132653 4.134102 4.806674 6.063755 6.166611 4.192905 4.472062 548.558 617.0479 6.105189 5.188314 442.0294 6.138322 5.883458 555.8942 4.648494 5.067428 3.860748 7.276049 4.040198 7.213739 4.242395 5.703775 6.907937 6.637093 6.982167 5.160877 6.18969 7.142976 5.35685 5.131153 6.411999 6.931178 4.489505 4.182795 8.305258 3.973272 5.668227 6.631503 609.1058 483.963 8.175441 586.5107 4.747494 612.0788 3.449453 7.347349 7.470226 269.0875 6.043852 7.732309 4.974881 4.453537 4.814589 4.644282 6.13268 9.49086 5.766223 3.176726 5.640142 4.166032 6.40801 2.956288 5.689464 5.450096 7.953283 6.522501 6.675658 6.016438 6.477533 3.645807 4.181592 7.429781 571.5909 6.098326 6.713791 7.029602 5.437096 444.9759 5.735748 4.958579 7.510471 6.194601 4.218623 6.120925 633.3342 9.370039 7.901371 5.846156 422.3515 5.718084 6.903135 5.609225 6.679827 9.841228 5.236413 5.798962 6.071242 526.4426 8.274231 6.410349 8.140243 499.607 4.735196 7.16353 8.642599 6.196608 5.707777 3.388447 4.55907 500.809 3.700278 4.054327 5.366117 5.927467 5.824019 6.04732 6.064108 6.471531 8.440597 6.789334 7.260335 4.131411 8.883218 6.615322 501.1456 7.814759 6.549127 6.173075 5.117939 4.759917 6.618192 6.360609 5.716243 6.829458 557.4597 7.784102 8.989182 3.334507 6.712209 6.889724 605.7153 5.52241 678.9855 5.141907 9.114614 5.673298 6.66972 8.770613 7.763026 5.487668 472.3754 3.950769 7.200561 3.957405 6.014329 6.453548 5.830367 5.65218 9.099948 4.813018 4.474586 5.811848 559.1591 7.85709 7.089324 658.649 7.55694 6.74676 4.12432 7.059746 5.138622 7.09525 598.2213 6.316974 3.986804 3.671629 7.8556 4.710662 5.058932 7.22457 6.609087 6.937789 512.0605 7.443254 6.977862 499.4312 7.359037 4.889763 4.214955 5.008192 4.247442 6.096519 4.456317 9.131046 5.567123 665.1671 5.869126 5.33197 7.8395 571.5774 5.787903 3.393609 5.332082 4.945803 7.749811 584.4659 694.186 7.260314 6.344474 6.647489 3.940376 6.46232 7.044199 3.863311 9.313209 447.0079 629.402 4.623831 3.994703 6.705041 550.4762 7.359534 5.4606 4.321346 7.31146 4.020535 3.611128 6.353662 5.24136 556.4581 8.153523 560.3749 5.414842 4.624047 9.24806 5.901289 5.349567 6.301523 5.585124 6.558476 9.616662 5.129323 6.310865 545.6586 7.339313 5.229067 7.201078 7.869418 9.097095 6.18942 6.897179 6.50088 3.294502 5.451556 6.600047 7.861492 8.667929 5.668247 6.119909 5.596895 6.691511 6.576294 3.935342 7.567896 7.250638 5.147939 554.2115 4.977916 6.045603 7.87709 7.410987 559.9401 5.189133 6.058006 7.363909 470.5272 6.43029 4.286574 4.730853 6.280286 7.37593 6.646666 7.776075 6.103312 4.839832 3.89057 7.192015 7.194277 8.561385 7.781846 6.539525 6.173359 6.472026 5.575171 3.186889 354.0207 619.6204 5.218557 5.909935 6.004557 8.800844 4.062795 6.054688 4.389744 7.425293 5.417431 7.564957 2.29662 575.9618 6.685899 3.54726 526.5942 7.826275 4.835675 6.705087 460.2482 5.857973 7.407779 6.538316 7.955624 6.37116 6.118356 456.0946 6.572051 8.246666 5.462668 621.9238 535.8218 633.1408 7.433502 5.991163 596.6877 544.1266 539.699 6.142623 5.401264 6.462847 6.170786 608.9511 8.503792 6.464757 2.821077 7.243925 3.442787 587.6902 6.517035 567.4843 6.075914 4.526553 ]
<!EndOfComponent> 
</Nnet> 
