<Nnet> 
<AddShift> 1024 1024 
<LearnRateCoef> 0  [ -0.01322838 -0.09339018 -0.1288441 -0.01269934 -0.01308975 -0.1135213 -0.06068759 -0.01302213 -0.01294938 -0.0974464 -0.1086409 -0.01252043 -0.01299039 -0.0904742 -0.0128907 -0.09250312 -0.07091469 -0.06011171 -0.06488676 -0.1200312 -0.1065535 -0.01307577 -0.106013 -0.01295023 -0.3153414 -0.01306761 -0.01273715 -0.01352863 -0.06703798 -0.06271028 -0.05837191 -0.117829 -0.09110617 -0.01313795 -0.01281485 -0.01398506 -0.05555336 -0.01315851 -0.0126356 -0.07012661 -0.1140331 -0.01290968 -0.2511763 -0.01307514 -0.0129264 -0.07984725 -0.181555 -0.1298489 -0.1032356 -0.01270358 -0.1033914 -0.2073801 -0.1307932 -0.01307948 -0.05541659 -0.1310711 -0.06622094 -0.01288157 -0.09118681 -0.0932356 -0.05433979 -0.01304279 -0.05860469 -0.01310931 -0.01307448 -0.1332981 -0.01284033 -0.01294218 -0.01299146 -0.06716526 -0.08342466 -0.09952252 -0.09698649 -0.0128707 -0.1139414 -0.07306381 -0.01274289 -0.01323456 -0.08214452 -0.03778872 -0.07378437 -0.0768216 -0.04703492 -0.1038936 -0.1943037 -0.01257946 -0.01316923 -0.01301716 -0.06288601 -0.1278727 -0.0737632 -0.01271218 -0.06284498 -0.1010855 -0.0676486 -0.05634806 -0.09067221 -0.012938 -0.01276928 -0.09469474 -0.01286686 -0.0128384 -0.09562089 -0.03642781 -0.06059095 -0.09053165 -0.06050698 -0.1237354 -0.01341468 -0.01281377 -0.04632046 -0.01295138 -0.1376508 -0.03672541 -0.1002644 -0.07876492 -0.08048219 -0.01291626 -0.08060428 -0.1163336 -0.0558283 -0.01289942 -0.09401542 -0.1226649 -0.09208997 -0.01305522 -0.09427875 -0.1020675 -0.01285511 -0.01336686 -0.1541779 -0.01303499 -0.01285788 -0.01307819 -0.01255045 -0.01311799 -0.01346981 -0.1003927 -0.09093211 -0.01303879 -0.08089797 -0.07132971 -0.0128925 -0.3207859 -0.06438421 -0.01302044 -0.1335627 -0.1501343 -0.08007723 -0.09206314 -0.1372618 -0.1090213 -0.0798636 -0.09402086 -0.109818 -0.05807851 -0.01260793 -0.01308205 -0.01320162 -0.08103427 -0.01286286 -0.1013869 -0.01304243 -0.01385025 -0.01288299 -0.01332125 -0.01295663 -0.01296129 -0.04808207 -0.01321754 -0.07940956 -0.01319438 -0.1110261 -0.07307465 -0.06989413 -0.01290664 -0.06975479 -0.13424 -0.01362625 -0.01288384 -0.06967022 -0.1009211 -0.01267748 -0.06164813 -0.08716647 -0.2681541 -0.1272551 -0.01269696 -0.05202863 -0.01290418 -0.1248306 -0.09153514 -0.105182 -0.2734125 -0.09894933 -0.1630208 -0.0140776 -0.06231856 -0.1833597 -0.1122693 -0.0131274 -0.01308055 -0.09923031 -0.01296707 -0.07248198 -0.04490225 -0.06876338 -0.01303984 -0.1304632 -0.2862988 -0.1316802 -0.04235457 -0.01306965 -0.1917273 -0.203937 -0.08423681 -0.01339354 -0.1021244 -0.0807007 -0.151384 -0.01292985 -0.07577175 -0.1307868 -0.01293764 -0.0989041 -0.1286727 -0.09464978 -0.1123883 -0.089049 -0.0428183 -0.05990952 -0.07136401 -0.01312439 -0.01288872 -0.03807142 -0.1459403 -0.01328349 -0.1611088 -0.01348693 -0.1659085 -0.123178 -0.0132548 -0.1372402 -0.04722331 -0.01324209 -0.05613723 -0.0131044 -0.1037055 -0.01313666 -0.01305542 -0.04976939 -0.1094243 -0.04270795 -0.08892572 -0.09567305 -0.1096516 -0.0133328 -0.06598941 -0.09639734 -0.1084573 -0.01273491 -0.08469021 -0.1204109 -0.09933701 -0.01420308 -0.06615742 -0.01311504 -0.01315884 -0.07221341 -0.1004837 -0.01329338 -0.0141134 -0.09070375 -0.1525568 -0.08985499 -0.05778338 -0.1143339 -0.01334413 -0.06447653 -0.07448631 -0.08876145 -0.1229202 -0.09039091 -0.01348499 -0.0131923 -0.01302287 -0.0127426 -0.1390986 -0.1233504 -0.0882284 -0.1534148 -0.01393494 -0.08727293 -0.07636184 -0.01291511 -0.1311405 -0.07302949 -0.01336475 -0.07312819 -0.01301125 -0.07052061 -0.01329869 -0.01303003 -0.07570156 -0.06831075 -0.09883193 -0.01325343 -0.2148986 -0.01308533 -0.01270325 -0.2422789 -0.09103036 -0.06664764 -0.01315208 -0.01300109 -0.01322719 -0.01354286 -0.1607697 -0.09867503 -0.07439751 -0.08662738 -0.01338257 -0.01304352 -0.01313004 -0.04371828 -0.1135057 -0.07794596 -0.1641869 -0.06521053 -0.01278578 -0.01303372 -0.1503864 -0.08769851 -0.01329028 -0.1513658 -0.09896131 -0.09227596 -0.01299396 -0.1346837 -0.01336703 -0.07176551 -0.1412369 -0.01298452 -0.1577652 -0.01308339 -0.1147924 -0.06184807 -0.01308725 -0.06601031 -0.1053936 -0.01315222 -0.0626164 -0.08053268 -0.09946235 -0.1021222 -0.01293492 -0.01264446 -0.07815655 -0.09380341 -0.07377285 -0.01286869 -0.05623396 -0.01313195 -0.01261161 -0.09625569 -0.07199649 -0.09659282 -0.01304578 -0.1272575 -0.1881633 -0.06114784 -0.09512986 -0.01278673 -0.120898 -0.1190385 -0.01301266 -0.0991145 -0.1227623 -0.07907279 -0.1746244 -0.01286577 -0.08361202 -0.01299341 -0.04958391 -0.01321124 -0.2988251 -0.09566891 -0.0130188 -0.144158 -0.013249 -0.135212 -0.1044532 -0.05347631 -0.152006 -0.05716522 -0.108511 -0.1222475 -0.01296529 -0.0128777 -0.1550536 -0.01297512 -0.01275978 -0.05196491 -0.08361579 -0.06750165 -0.01289484 -0.09239068 -0.06146546 -0.01300119 -0.2052327 -0.1050263 -0.2375073 -0.09441615 -0.07893357 -0.01274666 -0.01302714 -0.07063373 -0.1835207 -0.08610741 -0.1964721 -0.01291669 -0.07783395 -0.1922444 -0.09429719 -0.08828855 -0.01332839 -0.01323056 -0.1129932 -0.08520275 -0.01337499 -0.1216261 -0.1162805 -0.09128198 -0.01278236 -0.01301646 -0.1266004 -0.01326326 -0.2860712 -0.1888234 -0.1339596 -0.01331721 -0.01353562 -0.1007319 -0.07833295 -0.01291631 -0.01290328 -0.07715636 -0.2246624 -0.07988077 -0.01276597 -0.06968681 -0.112161 -0.100096 -0.1039911 -0.01319165 -0.01323425 -0.0135578 -0.01336314 -0.2075174 -0.08316315 -0.09717931 -0.01323059 -0.01321083 -0.01303476 -0.01283005 -0.08645361 -0.08438829 -0.07257424 -0.08966282 -0.01329825 -0.01296445 -0.09832346 -0.1159507 -0.01268329 -0.09895846 -0.07197965 -0.07856288 -0.01286765 -0.07069382 -0.01337131 -0.01328919 -0.01284887 -0.09630626 -0.07626312 -0.01312359 -0.1424391 -0.08467509 -0.01271761 -0.07018729 -0.01296393 -0.09299068 -0.1215172 -0.01309488 -0.06491249 -0.01314975 -0.09750912 -0.01330857 -0.06655597 -0.0131184 -0.01330095 -0.01330861 -0.09167828 -0.08596709 -0.04959926 -0.08919144 -0.01305168 -0.07383908 -0.1042382 -0.04624376 -0.1182058 -0.08993205 -0.01291407 -0.01344403 -0.1705027 -0.01293228 -0.100665 -0.1200138 -0.0864777 -0.086168 -0.1311657 -0.01294512 -0.07232661 -0.2089412 -0.2137865 -0.01312201 -0.01276895 -0.08956081 -0.01343079 -0.0582635 -0.01297231 -0.07309194 -0.1477914 -0.01292477 -0.09126106 -0.08290248 -0.1262469 -0.2349728 -0.0752934 -0.01349212 -0.01341794 -0.09519029 -0.01274732 -0.01288323 -0.1389166 -0.01312632 -0.01301314 -0.251713 -0.1362249 -0.09482172 -0.01253752 -0.03902156 -0.1041089 -0.0984913 -0.01273511 -0.01292897 -0.01285018 -0.1019183 -0.04745668 -0.137378 -0.09322942 -0.0495369 -0.1223168 -0.01288746 -0.01324388 -0.1427058 -0.08632667 -0.1159469 -0.05825452 -0.1329533 -0.07358921 -0.01302441 -0.01304653 -0.06200888 -0.08488765 -0.01294857 -0.01336576 -0.1635351 -0.1031679 -0.01309203 -0.01265531 -0.115479 -0.08894746 -0.1167805 -0.1044161 -0.07307065 -0.06933746 -0.1075531 -0.1204675 -0.07718211 -0.0134174 -0.01275625 -0.1107827 -0.0775368 -0.01298425 -0.01345628 -0.01309616 -0.2771605 -0.1051402 -0.09765604 -0.01311108 -0.01318465 -0.08815995 -0.01298766 -0.2233995 -0.1126819 -0.1892463 -0.01287746 -0.09751359 -0.1067169 -0.0627621 -0.03237026 -0.1840723 -0.07975201 -0.1016087 -0.06943421 -0.07830976 -0.08570375 -0.1659511 -0.09464958 -0.2713206 -0.06304677 -0.1165606 -0.04699573 -0.06195392 -0.01278388 -0.119715 -0.06746261 -0.01331418 -0.084906 -0.08783221 -0.06530771 -0.053545 -0.1319388 -0.1279323 -0.01281947 -0.111366 -0.1861885 -0.0129267 -0.1185066 -0.07792332 -0.1263554 -0.08793041 -0.1186254 -0.2531425 -0.08076284 -0.05788272 -0.01322906 -0.1297527 -0.1156279 -0.07429386 -0.2097123 -0.0862231 -0.2210601 -0.1379282 -0.01325998 -0.01279014 -0.1211382 -0.01308025 -0.01319745 -0.07883212 -0.1143466 -0.1033731 -0.01313666 -0.08225423 -0.0448379 -0.09012781 -0.159718 -0.01323174 -0.1855661 -0.01301556 -0.01374611 -0.1017985 -0.09120903 -0.2327779 -0.1132229 -0.05694894 -0.1874092 -0.06196886 -0.08610284 -0.3137886 -0.06699374 -0.01307165 -0.01291703 -0.09660783 -0.1295517 -0.01301032 -0.07078022 -0.04315474 -0.01312251 -0.1051111 -0.09104045 -0.2067624 -0.05274284 -0.1407491 -0.01293676 -0.09501879 -0.07318182 -0.0689006 -0.1009941 -0.09885507 -0.1758868 -0.1315486 -0.09916874 -0.0130633 -0.1013323 -0.08783064 -0.1033851 -0.0786135 -0.01277957 -0.1132729 -0.07188164 -0.06053208 -0.0902541 -0.01304745 -0.01314629 -0.01361455 -0.01281086 -0.06537037 -0.01331662 -0.08505096 -0.2726144 -0.01329261 -0.01277841 -0.1740967 -0.08060786 -0.04921167 -0.1234806 -0.08124482 -0.1204273 -0.1033337 -0.01330437 -0.06184641 -0.1334064 -0.11148 -0.08652148 -0.2621371 -0.06214101 -0.07235913 -0.05865638 -0.07624596 -0.06909545 -0.07020782 -0.01318243 -0.1104922 -0.178328 -0.1068318 -0.01283687 -0.01377734 -0.07119593 -0.05340913 -0.06783744 -0.07352348 -0.01359368 -0.07143724 -0.05061047 -0.0361904 -0.1021656 -0.1558867 -0.09231408 -0.01287569 -0.05633118 -0.1646314 -0.05258911 -0.01284451 -0.1381477 -0.07707202 -0.08999909 -0.012598 -0.08049576 -0.08057377 -0.1187274 -0.01295276 -0.01288019 -0.01270677 -0.06418754 -0.01283174 -0.01314872 -0.01304872 -0.01246821 -0.01300067 -0.0866696 -0.0909481 -0.1261484 -0.06786506 -0.06802747 -0.07448828 -0.08122037 -0.1125195 -0.2483553 -0.1301567 -0.06981477 -0.06080174 -0.04362872 -0.01320495 -0.2214902 -0.01279271 -0.04002219 -0.01324494 -0.2809552 -0.01356554 -0.09280458 -0.1509206 -0.120349 -0.05507302 -0.07699817 -0.06571283 -0.01312285 -0.1209699 -0.1777959 -0.01306144 -0.01287535 -0.0131425 -0.07497695 -0.01320132 -0.06823272 -0.01273032 -0.1324117 -0.01275685 -0.07850739 -0.106228 -0.01316214 -0.13352 -0.01289494 -0.1029201 -0.1072323 -0.01332684 -0.1238489 -0.09278254 -0.1134607 -0.277123 -0.01293848 -0.01318093 -0.01358087 -0.174196 -0.07718141 -0.09926139 -0.1567847 -0.01325837 -0.01302552 -0.01286431 -0.01291959 -0.0952395 -0.1534617 -0.1038506 -0.08151654 -0.01310206 -0.1059804 -0.01288065 -0.06655674 -0.08529667 -0.08420566 -0.01293556 -0.07830589 -0.06074874 -0.07610772 -0.01344413 -0.0129825 -0.01287631 -0.1328836 -0.01285451 -0.01301201 -0.06273148 -0.1071399 -0.1671165 -0.0700326 -0.03350561 -0.1261447 -0.1021917 -0.01325232 -0.08009002 -0.01309423 -0.06017805 -0.1348391 -0.105259 -0.01320734 -0.1940873 -0.1147881 -0.01348325 -0.07965971 -0.01298134 -0.01293262 -0.01243271 -0.1621057 -0.06534266 -0.01290077 -0.0760501 -0.06011502 -0.04802264 -0.09899677 -0.01280528 -0.01295243 -0.01326487 -0.08546366 -0.1543774 -0.05692726 -0.01320421 -0.05328193 -0.09589823 -0.07957617 -0.08095617 -0.1906373 -0.2299963 -0.1180306 -0.1052348 -0.01261578 -0.1493807 -0.01283253 -0.09909644 -0.08402507 -0.09816831 -0.09652893 -0.1171734 -0.1313755 -0.06719211 -0.06121641 -0.0127131 -0.07507191 -0.06745593 -0.01286824 -0.1064874 -0.1228021 -0.07014381 -0.0127765 -0.01294559 -0.08459276 -0.1068667 -0.1081345 -0.1939053 -0.08039088 -0.09627767 -0.01307768 -0.01291689 -0.07849614 -0.1002263 -0.0637809 -0.1411238 -0.0130489 -0.1136379 -0.1070753 -0.01328867 -0.01311217 -0.01326695 -0.126818 -0.08555943 -0.01333343 -0.0747819 -0.01284937 -0.01316324 -0.1500903 -0.07119136 -0.0131063 -0.1156083 -0.1820605 -0.09500621 -0.1179568 -0.01452984 -0.05266824 -0.01304137 -0.0130246 -0.09386436 -0.1797554 -0.0835364 -0.2495286 -0.01275207 -0.01339541 -0.08364593 -0.09247702 -0.01300189 -0.01423663 -0.1456449 -0.01296544 -0.0128493 -0.01319774 -0.1830772 -0.0127294 -0.01331695 -0.3211411 -0.0629242 -0.07823191 -0.07220805 -0.1324704 -0.01266607 -0.1967666 -0.1039314 -0.01293417 -0.07393446 -0.01294971 -0.1851924 -0.08014426 -0.09810878 -0.01286271 -0.01277403 -0.01307578 -0.08039775 -0.07389595 -0.128507 -0.01306754 -0.01297332 -0.09024133 -0.122039 -0.1502014 -0.09966189 -0.01309723 -0.01265514 -0.07428794 -0.07294017 -0.01276609 -0.01317546 -0.01307888 -0.1327669 -0.1176932 -0.08383259 -0.0765972 -0.0128102 -0.01294891 -0.1036417 -0.08877183 -0.08546363 -0.01323605 -0.01281718 -0.06971469 -0.0130598 -0.1153196 -0.0947273 ]
<!EndOfComponent> 
<Rescale> 1024 1024 
<LearnRateCoef> 0  [ 1040.169 5.602471 5.443648 1184.82 1074.891 6.336372 5.172841 1093.952 1112.119 6.963954 4.011763 1238.211 1101.282 5.413635 1129.284 6.268289 7.074731 5.813925 8.174693 4.573528 5.451872 1078.958 4.634444 1112.701 2.2912 1082.088 1172.704 964.9336 7.00722 5.756656 8.971791 6.151714 5.756841 1062.59 1150.194 864.9902 5.752096 1057.817 1202.811 7.319794 4.280929 1124.141 2.66971 1077.916 1119.368 6.41538 3.751971 4.648805 6.229445 1182.506 5.627186 3.022795 5.504227 1078.567 6.041638 4.358402 6.674561 1132.399 4.584856 6.813786 6.120077 1086.748 7.977072 1068.969 1079.252 5.340093 1143.391 1115.307 1103.452 5.59397 6.42203 5.671456 4.304141 1134.351 5.720985 6.432242 1171.243 1037.992 5.596117 7.452504 5.502181 5.061832 8.786447 4.48149 2.919672 1220.539 1055.345 1095.479 6.159346 3.797415 6.421983 1180.096 5.822614 5.570479 6.712941 5.815225 4.305181 1115.836 1164.578 6.683757 1135.464 1143.255 6.943922 7.3183 7.456986 6.022487 7.509604 3.717852 992.7437 1149.365 6.560702 1112.777 5.056674 6.724791 3.770798 5.029831 6.729097 1122.332 5.709696 4.762884 6.351884 1127.039 5.141969 5.534561 6.033143 1084.176 6.060679 6.049794 1139.212 1007.225 4.229193 1089.054 1137.971 1078.522 1228.48 1068.396 977.8508 6.058712 5.878748 1088.938 4.317912 7.370017 1128.593 2.578629 7.623234 1093.998 5.371137 3.875454 7.038924 6.019837 5.268173 5.374328 5.852385 6.763718 5.805466 5.790119 1211.643 1077.722 1048.489 5.236375 1137.14 5.762195 1088.267 891.295 1130.906 1018.253 1111.139 1109.6 6.293521 1041.339 4.73491 1048.019 5.703918 5.074378 5.538901 1125.146 5.858041 5.901041 946.5558 1131.759 5.335669 6.055536 1189.969 6.340715 6.685126 2.74273 4.263866 1184.271 5.520041 1125.205 5.386706 4.747351 5.77526 2.741218 3.93294 3.117228 845.8015 5.72444 3.561165 5.098925 1064.133 1077.659 4.585089 1107.49 5.058205 7.092504 7.388153 1088.109 4.907541 2.504176 4.816829 6.353322 1082.971 3.158026 3.350554 5.92887 998.2808 3.891752 5.733024 4.259631 1118.753 6.814366 5.492529 1116.047 6.073911 3.419983 6.800725 4.085337 5.551725 7.117536 5.340534 5.173565 1068.019 1129.617 9.302371 5.037532 1026.22 3.587706 980.4721 3.996218 5.838182 1030.373 4.575384 6.788494 1036.849 6.182364 1071.576 5.414909 1061.947 1084.617 6.392725 5.094881 7.204644 4.656699 4.659033 5.919665 1014.416 4.94033 5.777392 5.60868 1173.646 5.016335 4.154017 4.597787 814.0536 4.85517 1069.663 1057.335 5.718609 7.014325 1022.685 836.322 5.744871 4.613089 6.251815 6.263926 4.849981 1009.948 5.053496 7.786314 6.514808 5.787717 4.937522 980.0911 1048.115 1093.233 1170.744 3.628245 4.825602 5.573447 4.802404 885.5197 5.717544 4.685983 1122.573 5.353775 4.871784 1005.824 6.6244 1094.982 6.525746 1021.431 1091.455 7.036455 5.422226 6.238634 1033.41 3.333183 1077.123 1183.165 2.933884 5.96655 5.623664 1059.036 1098.167 1040.397 960.2928 3.265618 5.597088 4.479144 6.925635 1002.658 1087.665 1064.643 6.368001 5.846688 4.390965 3.525575 5.608812 1159.451 1090.104 4.276828 4.6202 1024.247 3.289825 6.353331 6.38448 1100.537 4.400803 1004.653 5.173155 3.472601 1103.33 3.58507 1078.344 5.868453 5.613613 1075.04 5.037417 4.967313 1061.347 6.375736 4.242176 5.108246 5.610631 1116.94 1200.343 5.98965 5.641779 4.637652 1135.038 5.199162 1064.906 1210.139 5.811692 5.746872 4.884848 1087.193 5.417671 2.975482 6.135084 6.643426 1159.378 4.86921 5.854998 1095.436 4.937654 5.201347 5.512467 4.102222 1136.319 6.122741 1100.478 6.163219 1043.254 2.635914 5.828785 1094.176 4.947882 1032.3 5.165656 3.920125 6.52134 4.22828 6.313956 4.225575 4.606434 1109.045 1132.157 4.3301 1105.633 1167.044 5.874468 5.901301 5.831563 1127.331 4.786766 7.792249 1098.552 2.903522 5.708293 2.763216 4.071303 5.909971 1169.443 1092.121 5.784959 3.144367 4.581522 3.067259 1121.535 6.055037 3.265037 6.214493 6.801392 1016.23 1039.613 5.386273 7.019684 1003.704 4.955552 6.217853 6.341843 1159.586 1094.804 3.701273 1031.778 2.52364 2.846987 3.697607 1018.053 968.9524 5.650915 4.512515 1122.193 1124.983 4.848347 2.832628 5.189691 1165.209 6.167785 4.914615 6.647811 6.417181 1049.843 1039.312 961.377 1007.073 3.282316 6.640706 5.135527 1039.143 1044.274 1088.186 1145.865 5.082119 5.946815 7.605658 7.657671 1027.554 1109.031 6.397635 5.806319 1187.978 6.00287 4.849273 4.569867 1135.691 6.32537 1006.614 1026.773 1140.471 5.954298 6.255764 1066.296 4.401783 5.008211 1178.418 5.833113 1108.936 5.961741 4.92229 1073.506 5.912577 1061.193 6.200299 1019.052 7.965099 1069.516 1023.682 1020.109 5.586951 5.445816 7.152329 6.234472 1085.13 4.999095 5.150071 7.048626 4.633003 5.203992 1122.838 984.2726 3.542175 1118.059 5.864689 5.170686 5.757971 4.332899 5.131686 1114.234 5.381615 3.23164 3.294486 1065.575 1163.786 4.81314 994.4102 6.056171 1107.757 5.264925 3.893144 1119.026 4.593405 6.666266 5.551993 2.869126 5.98609 974.1644 991.5869 5.055707 1169.791 1131.073 3.865361 1066.41 1094.453 2.791579 5.38224 5.992105 1232.693 6.816386 5.235191 5.852823 1173.282 1118.693 1140.057 4.859225 6.010072 5.056626 5.071035 7.672298 5.624518 1130.541 1036.727 3.600311 6.274938 4.80893 6.90278 3.644743 5.934637 1093.192 1086.368 6.035785 6.893066 1113.225 1004.832 3.604754 4.602882 1075.047 1196.425 4.011068 6.236845 5.464732 5.983699 7.149125 4.580686 6.408551 5.818955 6.93517 992.5944 1166.071 3.852455 6.366451 1103.083 979.9553 1074.442 2.514821 5.155653 6.372425 1069.594 1050.231 5.768707 1103.542 2.822643 5.009706 3.986147 1133.097 6.551356 4.672276 6.352337 8.655878 3.104392 6.198997 4.934313 6.07443 6.091637 6.602241 3.504411 5.130283 2.761381 7.108617 4.451297 6.623945 5.008276 1159.977 4.317727 5.942146 1021.234 4.302784 5.739096 6.684261 5.953643 4.211424 5.350993 1148.409 5.752073 3.235018 1118.971 5.620555 5.803604 4.340799 5.221977 5.379229 2.762665 5.931339 6.198899 1038.582 4.836204 4.281815 4.785934 3.087422 5.906886 2.711691 3.512905 1033.961 1158.43 5.60496 1077.893 1047.706 6.389168 5.045108 5.345353 1062.784 5.808993 6.028907 7.08835 4.456359 1035.885 3.137943 1096.215 921.5262 6.140754 5.20518 2.912787 5.902001 6.70452 2.868326 7.80841 6.287973 2.280006 5.153445 1080.207 1122.453 6.983467 5.639 1095.586 6.550903 7.011658 1068.37 3.995589 4.949817 2.87313 5.726801 5.043281 1117.686 4.774379 4.596406 7.444907 5.623167 6.139495 3.273135 5.082905 4.931115 1082.259 4.50979 5.996655 6.321512 4.946203 1160.691 3.675503 6.538084 5.447556 5.225925 1086.909 1060.091 953.1608 1150.803 8.517301 1018.28 4.292751 2.537395 1026.152 1161.656 4.289728 5.205919 6.265358 4.67989 5.193216 4.85976 3.824368 1021.894 5.280222 3.628111 5.689425 6.671586 2.851798 5.827698 4.953466 5.619936 8.248813 7.021724 5.92487 1051.443 4.70778 3.22544 5.255214 1144.461 911.1606 5.526739 7.147998 5.493404 6.77864 950.3835 6.172312 7.968484 6.322263 6.015372 4.172557 6.587345 1133.632 8.11006 3.471278 6.692245 1142.663 4.574485 6.723778 6.229289 1214.81 5.717217 4.439674 5.130544 1110.702 1131.853 1182.206 5.541147 1146.211 1060.416 1086.31 1254.081 1098.573 6.305138 5.351069 4.853646 4.59233 5.814154 7.036786 6.531596 4.536381 2.847149 4.560393 6.729633 6.604614 6.325274 1047.109 2.957102 1156.827 7.469684 1033.335 2.671714 957.7678 5.925054 3.950753 6.434316 5.858441 5.034009 7.304329 1065.812 5.535541 4.153451 1083.435 1132.907 1061.872 6.509184 1045.724 5.718735 1174.656 4.760994 1166.074 6.327409 4.701592 1055.923 4.453156 1127.303 6.060238 6.140005 1015.74 4.879342 4.549346 5.737222 2.757721 1115.085 1051.497 953.0427 3.336636 5.679514 6.892577 3.10767 1036.158 1092.378 1136.317 1119.963 6.81658 4.408121 5.130203 6.165376 1071.822 5.568124 1131.738 7.678319 7.144154 7.201111 1117.062 5.796176 5.13932 7.37146 987.0741 1103.811 1133.116 4.415681 1140.119 1095.826 5.771557 5.521717 3.06202 6.273807 11.38449 4.968777 5.653207 1032.841 6.553107 1074.26 6.074054 3.715169 6.229635 1041.836 3.292598 6.326831 976.5306 4.409644 1103.671 1118.13 1265.783 3.079733 5.841272 1126.883 8.365564 5.895083 5.912684 4.144821 1153.185 1111.663 1032.401 6.708915 3.840501 6.046491 1045.568 5.754479 6.19045 6.041604 5.088315 3.463814 2.83399 4.744631 5.743453 1208.583 4.121505 1145.615 4.94343 5.149358 4.001669 5.664119 5.870391 3.894228 5.373283 6.200078 1179.448 5.179545 6.699715 1134.658 5.062861 5.348817 4.710683 1160.82 1114.606 6.384923 5.535321 3.769019 2.968956 5.772215 5.954198 1079.992 1120.419 5.612793 5.783697 5.482458 3.432369 1087.059 3.719465 6.058736 1022.924 1070 1030.058 5.345795 7.759198 1013.769 6.932689 1140.314 1058.28 4.394407 5.589832 1069.409 4.763145 3.164769 5.023568 5.369646 740.1753 5.976761 1087.406 1092.916 5.697236 2.897147 6.193144 2.759814 1167.807 997.4094 5.877028 5.577649 1099.829 810.4918 4.052371 1108.317 1140.127 1049.273 2.917655 1174.839 1018.126 2.318368 7.445254 5.886204 7.021336 4.867247 1193.594 2.880686 6.189127 1115.682 6.617795 1111.978 2.87149 5.991765 5.675937 1136.514 1161.909 1078.155 6.326082 5.027772 3.950169 1081.041 1107.995 5.436976 4.308486 4.432467 6.86975 1072.958 1197.494 6.794298 6.199435 1163.767 1053.373 1077.068 5.585019 5.637378 5.257016 5.688648 1151.455 1113.366 5.792304 7.209133 7.764235 1040.418 1149.755 6.459864 1082.794 5.739734 6.47189 ]
<!EndOfComponent> 
</Nnet> 
