<Nnet> 
<Splice> 440 40 
[ -5 -4 -3 -2 -1 0 1 2 3 4 5 ]
<!EndOfComponent> 
<AddShift> 440 440 
<LearnRateCoef> 0  [ -0.07032295 -0.04061492 0.005411542 -0.01097182 -0.186084 -0.001581346 -0.01110394 0.001952193 0.03322365 0.02035298 0.000373171 0.1059898 0.001648128 -0.0229832 -0.01658096 -0.007721779 -0.003610838 0.01897961 0.001166596 0.0140282 -0.004579344 0.0178699 -0.00989438 -0.01664513 0.0002712988 -0.003548189 0.07354533 0.03361179 -0.003814861 0.001378255 -0.03514344 -0.005541692 -0.003875964 -0.02930126 -0.01647324 0.005056744 0.01479387 0.007589363 0.002291855 -0.01076831 -0.06717712 -0.04014846 0.004156708 -0.01007862 -0.1836457 -0.00162585 -0.01080818 0.001758727 0.03326684 0.01872481 0.000146364 0.1059816 0.001635407 -0.02206478 -0.01668117 -0.007196896 -0.003665899 0.0188758 0.0009711472 0.01465522 -0.00407117 0.0178397 -0.00970651 -0.01652278 0.0003894055 -0.003643691 0.07247109 0.0339935 -0.003881427 0.001697278 -0.03503508 -0.006331376 -0.004038797 -0.02865506 -0.01637256 0.004945253 0.01458048 0.007680701 0.002309167 -0.01057995 -0.0644339 -0.03986258 0.002985162 -0.009338353 -0.1814698 -0.001712421 -0.01063193 0.001638962 0.03322106 0.01709961 -7.673915e-05 0.1058656 0.001681094 -0.02124711 -0.01674916 -0.006618083 -0.003770665 0.01868817 0.0007712991 0.01520591 -0.00353392 0.0178515 -0.009565448 -0.01645551 0.0005309953 -0.003728064 0.07162302 0.03441864 -0.003990034 0.001971608 -0.034955 -0.006905403 -0.004150725 -0.02805947 -0.01637519 0.004825966 0.01438623 0.007680499 0.002366505 -0.01039984 -0.06195162 -0.03976992 0.001884165 -0.008638666 -0.1795825 -0.001875728 -0.0105292 0.00148702 0.03289363 0.01549181 -0.0003382633 0.105549 0.001789811 -0.02060806 -0.01679751 -0.006121756 -0.00383231 0.01857151 0.0005995424 0.01566749 -0.003032252 0.01813755 -0.009470846 -0.01645957 0.0006226643 -0.003827463 0.07098469 0.03487159 -0.004011004 0.00220552 -0.03500959 -0.007319446 -0.004214615 -0.02754934 -0.01645467 0.004669853 0.01420172 0.007674645 0.002434486 -0.01034367 -0.05967255 -0.03984643 0.0008256863 -0.007985007 -0.1780385 -0.002074611 -0.01048005 0.001298046 0.03243513 0.01387619 -0.000625269 0.1051751 0.001977899 -0.02006074 -0.01680727 -0.005752214 -0.003771294 0.0185771 0.0005310889 0.01607124 -0.002534067 0.01846636 -0.009396818 -0.01627455 0.0006958731 -0.003928781 0.07047795 0.03532294 -0.003941547 0.00237605 -0.03535913 -0.007700705 -0.004237649 -0.02698706 -0.01654568 0.00447727 0.0140116 0.007659304 0.002485144 -0.01012211 -0.05749689 -0.04008734 -0.0001839615 -0.007425765 -0.1767755 -0.002324325 -0.01048409 0.0009923934 0.03192808 0.01223676 -0.0008473617 0.1047585 0.002213527 -0.01956265 -0.01675609 -0.005520013 -0.003691878 0.01878319 0.0004735018 0.01637185 -0.002043046 0.01873667 -0.009288834 -0.01582032 0.0007189984 -0.004072679 0.07009569 0.03582921 -0.003847418 0.002489263 -0.03578737 -0.008075928 -0.004234906 -0.02645705 -0.01650556 0.004378504 0.01386865 0.007739307 0.002475262 -0.009919417 -0.05532123 -0.04032825 -0.001193609 -0.006866523 -0.1755124 -0.002574039 -0.01048812 0.0006867408 0.03142104 0.01059732 -0.001069454 0.1043418 0.002449155 -0.01906455 -0.01670492 -0.005287812 -0.003612462 0.01898929 0.0004159147 0.01667247 -0.001552024 0.01900698 -0.009180851 -0.01536609 0.0007421238 -0.004216576 0.06971342 0.03633548 -0.00375329 0.002602476 -0.03621561 -0.008451151 -0.004232163 -0.02592705 -0.01646545 0.004279737 0.01372571 0.007819311 0.002465379 -0.009716723 -0.0530861 -0.04042853 -0.002207186 -0.006523165 -0.1743345 -0.002723114 -0.01047212 0.0001107861 0.03101296 0.009095708 -0.001324876 0.1039778 0.002722639 -0.01851546 -0.01668477 -0.005153078 -0.003518106 0.01924912 0.0004706015 0.01697838 -0.00107756 0.0191505 -0.009097883 -0.0149138 0.0008025197 -0.004360658 0.06929506 0.03669155 -0.003762161 0.002784364 -0.03646893 -0.009150683 -0.004260281 -0.02545611 -0.01626073 0.00434708 0.01357198 0.00793207 0.002388981 -0.009539995 -0.05083957 -0.04038336 -0.003247519 -0.006408976 -0.173107 -0.002773207 -0.01040634 -0.0004898598 0.03069817 0.007746767 -0.001591527 0.1034443 0.002968777 -0.01798115 -0.01674634 -0.00503917 -0.003380548 0.01928424 0.0005730655 0.01727669 -0.0006282346 0.01899368 -0.009061188 -0.0144677 0.0009239418 -0.004463252 0.06889532 0.0368566 -0.003934301 0.002930664 -0.03648178 -0.009966661 -0.004304563 -0.02495159 -0.01610549 0.004343431 0.01339148 0.008024808 0.002307188 -0.009393331 -0.04857527 -0.04015994 -0.004306608 -0.006202582 -0.1718781 -0.002698104 -0.0103025 -0.001136428 0.03058326 0.006593467 -0.001768027 0.1032185 0.003237648 -0.01768868 -0.01691635 -0.004935822 -0.003132604 0.01901891 0.0007071648 0.01760736 -0.0002479643 0.01867195 -0.009130306 -0.01405781 0.00102269 -0.004531539 0.06863963 0.03680148 -0.00428181 0.00310732 -0.036512 -0.01076176 -0.0043673 -0.0244005 -0.01600334 0.004238528 0.01329583 0.008009053 0.002219775 -0.009387203 -0.0463697 -0.03973897 -0.005409703 -0.005934799 -0.1705374 -0.002486379 -0.01015838 -0.001718672 0.03061457 0.005660333 -0.001903288 0.1030213 0.003436285 -0.01742012 -0.01717325 -0.004804158 -0.002928 0.01873626 0.0008015583 0.01790465 9.235596e-05 0.0183919 -0.009142539 -0.01380978 0.001208556 -0.004619995 0.06839855 0.03650673 -0.004615664 0.003303991 -0.03626056 -0.01137279 -0.004427265 -0.02383482 -0.01593705 0.004332326 0.01319096 0.007938074 0.00225416 -0.009335149 ]
<!EndOfComponent> 
<Rescale> 440 440 
<LearnRateCoef> 0  [ 0.3143397 0.4876058 0.5452883 0.5820702 0.5327113 0.6646481 0.7277563 0.731787 0.6351032 0.5659178 0.7903191 0.5849201 0.828517 0.6714724 0.7824132 0.8556306 0.9059358 0.8204969 0.9247799 0.7536713 0.9134562 0.8168337 0.8750581 0.6505166 0.9453171 0.9037079 0.5286591 0.8682197 0.9006096 0.9811094 0.7869427 0.8000265 0.9494336 0.867455 0.6955759 0.9083413 0.9311593 0.9658788 0.9459354 0.9081709 0.3147132 0.4878001 0.5450638 0.5820374 0.5329247 0.6645404 0.7275743 0.7318817 0.6351366 0.5662261 0.7902783 0.5849524 0.8284138 0.6714683 0.7821589 0.8553875 0.9057687 0.8201498 0.9245809 0.753486 0.9131547 0.8167335 0.8747799 0.650554 0.9452841 0.9037527 0.5285955 0.8680773 0.900189 0.9809667 0.7867854 0.8000549 0.9493671 0.8668707 0.6952603 0.9081149 0.9310032 0.9655975 0.9456549 0.907259 0.3150448 0.487939 0.5448655 0.5820003 0.5331331 0.6644736 0.7274546 0.7319711 0.6351756 0.5665529 0.7902635 0.5849873 0.8283524 0.671468 0.7819645 0.855195 0.9056143 0.819857 0.9244103 0.7533528 0.9129302 0.8166846 0.8745469 0.650591 0.9452452 0.9038048 0.5285473 0.8679857 0.899754 0.9808704 0.7866399 0.800207 0.9493027 0.8663702 0.6949558 0.9079031 0.9309001 0.9653583 0.9454196 0.9064308 0.31535 0.4880095 0.5446842 0.581975 0.5333229 0.6644394 0.7273597 0.7320525 0.6352907 0.5668898 0.7902342 0.5851235 0.82831 0.6714479 0.7817885 0.8549378 0.9054586 0.8195493 0.9242636 0.7532462 0.9127409 0.8166898 0.8743647 0.6506448 0.9452413 0.9037532 0.5285221 0.8679228 0.899316 0.980772 0.7865581 0.8002692 0.9492654 0.8658875 0.6946824 0.9078687 0.9308193 0.965081 0.9452363 0.9056892 0.3156321 0.4880189 0.5445116 0.5819601 0.5334793 0.6644212 0.7272846 0.732168 0.6354254 0.5672243 0.7901585 0.5853221 0.8282818 0.6714407 0.7816042 0.8546628 0.9055171 0.8192315 0.9242005 0.7531049 0.9125345 0.8167236 0.8742882 0.6507269 0.9452423 0.9037037 0.5285206 0.8677253 0.8989227 0.9806857 0.7865306 0.8003913 0.9492326 0.8657526 0.6945199 0.9079729 0.93076 0.9648229 0.9452383 0.9051788 0.3158974 0.487965 0.5443389 0.5819423 0.5336003 0.664407 0.7271996 0.7323571 0.6355713 0.5675494 0.7901263 0.5855511 0.8282993 0.6714295 0.7813832 0.8544741 0.9058809 0.8189318 0.9242261 0.7529361 0.9122842 0.816815 0.87433 0.6508711 0.9453083 0.9038624 0.5285835 0.8672656 0.8985186 0.9805847 0.7865872 0.8009463 0.949159 0.8657444 0.6944652 0.9081299 0.9306709 0.9645795 0.9453252 0.9047688 0.3161636 0.4879111 0.5441666 0.5819246 0.5337216 0.6643927 0.7271145 0.7325464 0.6357174 0.5678756 0.7900942 0.5857803 0.8283168 0.6714182 0.7811624 0.8542856 0.9062451 0.8186325 0.9242517 0.7527674 0.9120342 0.8169065 0.8743718 0.6510155 0.9453741 0.904021 0.5286465 0.8668066 0.898115 0.9804838 0.786644 0.8015026 0.9490853 0.8657364 0.6944106 0.9082869 0.9305818 0.964336 0.9454123 0.9043595 0.3164394 0.4878965 0.5439718 0.5819506 0.5338566 0.6643243 0.7269768 0.7327598 0.6358392 0.5681369 0.7901477 0.5860337 0.8283978 0.6714271 0.7807856 0.8542669 0.9067014 0.8184456 0.9243175 0.7525072 0.9116997 0.8170865 0.8745476 0.6511673 0.9454667 0.9042751 0.5287307 0.8660687 0.8979341 0.9803346 0.7868328 0.8021162 0.9489698 0.8659748 0.6946484 0.9085719 0.930388 0.9642347 0.9456275 0.9043076 0.3167167 0.487923 0.5437571 0.5819945 0.5340524 0.6642065 0.7268052 0.7329575 0.6359771 0.5683443 0.7902001 0.5863712 0.828496 0.6714496 0.7802917 0.8542268 0.9072371 0.8184257 0.9244676 0.7521796 0.9113037 0.8174009 0.8748236 0.6513339 0.9455089 0.9044915 0.5288522 0.8651902 0.8979254 0.9801455 0.7871274 0.8026325 0.948802 0.8665348 0.6948971 0.9089449 0.9301573 0.9641939 0.9459891 0.9046046 0.3169993 0.4880065 0.5435306 0.5820545 0.5342656 0.664044 0.7266058 0.7331517 0.6360935 0.5684929 0.7902018 0.5866513 0.8285754 0.6715173 0.7797102 0.8540937 0.9078459 0.8186566 0.9247035 0.7518077 0.9108831 0.8177777 0.8750837 0.6515014 0.9455768 0.9046692 0.5290252 0.8642733 0.8980047 0.9799358 0.7875326 0.803119 0.9486458 0.8671988 0.6952084 0.9093664 0.9299222 0.9641787 0.9464154 0.9049739 0.3172788 0.4881596 0.5432956 0.5821032 0.5345387 0.6638487 0.7263955 0.7333619 0.6361986 0.5686005 0.7901989 0.5869341 0.8286563 0.671593 0.7791042 0.8539628 0.9085043 0.8189328 0.9249687 0.7514342 0.9104522 0.8181824 0.8753214 0.6516566 0.9456584 0.9048605 0.5292142 0.8633431 0.8981456 0.9797499 0.7880235 0.8036613 0.9484611 0.8678591 0.69551 0.9098876 0.9297055 0.9642124 0.9468135 0.9053804 ]
<!EndOfComponent> 
</Nnet> 
