<Nnet> 
<AddShift> 1024 1024 
<LearnRateCoef> 0  [ -0.09554598 -0.322883 -0.07569796 -0.2448763 -0.1377446 -0.07370279 -0.1117631 -0.1953882 -0.09859708 -0.1422242 -0.1013792 -0.1492648 -0.1746992 -0.196943 -0.1775882 -0.1844679 -0.1627653 -0.05864862 -0.1272953 -0.1493944 -0.2708859 -0.07045817 -0.181777 -0.1783716 -0.1468976 -0.1382636 -0.102866 -0.1008059 -0.1803029 -0.07102508 -0.190837 -0.08606973 -0.1765896 -0.2369548 -0.08562901 -0.04984316 -0.09756545 -0.1346729 -0.03192225 -0.09161653 -0.06491344 -0.1012546 -0.1848234 -0.06968734 -0.05812543 -0.08489273 -0.3630539 -0.1219328 -0.1452033 -0.152593 -0.09591012 -0.2761649 -0.1323394 -0.03757247 -0.1371846 -0.157171 -0.1547784 -0.1267062 -0.1829095 -0.1048664 -0.0706977 -0.03685967 -0.2408093 -0.1002889 -0.0944545 -0.3091954 -0.1944378 -0.1690963 -0.1731638 -0.06748312 -0.08951092 -0.1458114 -0.1162595 -0.1051572 -0.1653945 -0.2060196 -0.30783 -0.09679911 -0.07673143 -0.1086498 -0.1026866 -0.09794834 -0.1613712 -0.1649556 -0.1527118 -0.1682145 -0.08841539 -0.09580325 -0.05374208 -0.1750792 -0.1153784 -0.1159078 -0.07838254 -0.1794997 -0.02337621 -0.1044254 -0.1072905 -0.1603642 -0.1377527 -0.09121863 -0.04721534 -0.1711074 -0.1322101 -0.29118 -0.0849685 -0.1549298 -0.1660639 -0.1076983 -0.05489723 -0.07379235 -0.06368428 -0.1140043 -0.0633709 -0.07551251 -0.1400707 -0.02136704 -0.1597026 -0.03590631 -0.2007739 -0.09885801 -0.1328081 -0.3172231 -0.08182107 -0.1061549 -0.1725977 -0.1384163 -0.1872356 -0.09453087 -0.04018733 -0.1730273 -0.09720077 -0.1161368 -0.1508684 -0.08596276 -0.184055 -0.09451316 -0.1345933 -0.0921103 -0.1880612 -0.1473411 -0.1400928 -0.176389 -0.1040712 -0.1565989 -0.1924598 -0.07080666 -0.1336055 -0.24977 -0.04764102 -0.1785798 -0.08503775 -0.1146461 -0.1762736 -0.1173686 -0.1569173 -0.09775566 -0.1699353 -0.07695398 -0.1623203 -0.2667324 -0.1807455 -0.0605254 -0.1882664 -0.0536829 -0.06193967 -0.2010484 -0.1624599 -0.1519663 -0.1068222 -0.1114437 -0.1039187 -0.187576 -0.074783 -0.124377 -0.0833676 -0.08003958 -0.1819827 -0.1696553 -0.06874147 -0.09515958 -0.09409245 -0.1792844 -0.07967857 -0.1805167 -0.1313203 -0.1839053 -0.1196458 -0.04100023 -0.07336897 -0.1604956 -0.0742949 -0.3369348 -0.1726337 -0.1185929 -0.3106147 -0.1535174 -0.06580523 -0.03528185 -0.2231315 -0.1215039 -0.06002878 -0.1489488 -0.1462317 -0.1863282 -0.1662116 -0.1330648 -0.1689498 -0.3220738 -0.1981142 -0.1813424 -0.04125096 -0.09868124 -0.2370988 -0.1547354 -0.08236599 -0.1869914 -0.05702828 -0.04362529 -0.2659892 -0.1093764 -0.1524131 -0.1549438 -0.2920176 -0.09936965 -0.1818873 -0.2900715 -0.09943908 -0.08599839 -0.1503352 -0.2829797 -0.2281508 -0.1501537 -0.06330927 -0.0624608 -0.3022209 -0.1348716 -0.1675399 -0.1490574 -0.04196236 -0.194626 -0.1054444 -0.1591881 -0.1233943 -0.1602136 -0.09380843 -0.1061917 -0.1860683 -0.1195131 -0.1090706 -0.1651658 -0.1561842 -0.1600216 -0.1888143 -0.06393106 -0.1563666 -0.1262773 -0.1549842 -0.06973704 -0.08390531 -0.1637155 -0.157383 -0.1882678 -0.1901305 -0.1663553 -0.1280409 -0.05969162 -0.1345112 -0.06295251 -0.1659337 -0.1547307 -0.1682072 -0.2023562 -0.1816377 -0.09478933 -0.0514378 -0.0610874 -0.1102278 -0.1838534 -0.1833293 -0.1254388 -0.2318402 -0.0694306 -0.1308041 -0.1888443 -0.1200277 -0.1311032 -0.2466629 -0.1308308 -0.04176901 -0.09724241 -0.08707394 -0.1566688 -0.1070635 -0.3147173 -0.1902239 -0.174446 -0.1879606 -0.1086363 -0.1928315 -0.07883345 -0.224888 -0.1093123 -0.1269954 -0.1372308 -0.1397394 -0.06253754 -0.06738265 -0.1423392 -0.1840049 -0.1923259 -0.09559922 -0.1483582 -0.19117 -0.103941 -0.08242281 -0.1732168 -0.1364242 -0.04732336 -0.03999458 -0.188166 -0.1121406 -0.1350361 -0.1091746 -0.06646593 -0.1044974 -0.1392188 -0.146885 -0.1342388 -0.1614831 -0.1030023 -0.1734339 -0.06267639 -0.1702875 -0.1437069 -0.1687328 -0.1756903 -0.3401122 -0.2599573 -0.1264945 -0.1691807 -0.07588935 -0.07901631 -0.1090445 -0.2087056 -0.1910693 -0.06553203 -0.04939708 -0.1885302 -0.1823605 -0.07916523 -0.1159731 -0.05463241 -0.1506319 -0.1344726 -0.06984564 -0.09763233 -0.1691103 -0.1075336 -0.3947411 -0.07112794 -0.06986526 -0.1706103 -0.1763662 -0.06995275 -0.3470157 -0.04491546 -0.07904726 -0.0733308 -0.1759666 -0.02761706 -0.08282542 -0.1848067 -0.1653669 -0.1204048 -0.1310651 -0.09914364 -0.07012371 -0.1872444 -0.1681752 -0.05283557 -0.07832159 -0.1413206 -0.1783521 -0.178049 -0.07343777 -0.1258668 -0.329829 -0.1159997 -0.1605424 -0.1279429 -0.0772333 -0.08265598 -0.1854561 -0.04423363 -0.1109294 -0.06073514 -0.08512906 -0.0503349 -0.08985434 -0.05189144 -0.1083844 -0.1918048 -0.1291947 -0.1701382 -0.1648908 -0.07340473 -0.1037117 -0.1618434 -0.09888955 -0.04916793 -0.174575 -0.1876962 -0.1580991 -0.07742125 -0.1166744 -0.0546913 -0.1134448 -0.1535574 -0.1775372 -0.1672342 -0.09171708 -0.2412153 -0.1423655 -0.1691541 -0.07348636 -0.1525408 -0.3258726 -0.1429845 -0.1602745 -0.1061026 -0.10569 -0.1713135 -0.1438798 -0.08491191 -0.03958785 -0.2288643 -0.1726881 -0.06124825 -0.06896372 -0.1128298 -0.1890749 -0.11627 -0.1811387 -0.2992149 -0.1023464 -0.1638442 -0.1859534 -0.1948681 -0.1672554 -0.02617407 -0.15524 -0.1625364 -0.1272549 -0.1789304 -0.06167141 -0.1773057 -0.1928004 -0.1899439 -0.09301313 -0.05139595 -0.153763 -0.1626879 -0.145618 -0.09870247 -0.2639532 -0.1305805 -0.07182682 -0.1056415 -0.1686889 -0.04306614 -0.06864708 -0.1304515 -0.1808895 -0.2459913 -0.1711831 -0.1131417 -0.06920497 -0.1556661 -0.2072281 -0.1788727 -0.1104131 -0.1738467 -0.1282638 -0.1888107 -0.1726714 -0.05398498 -0.156541 -0.1895904 -0.07479884 -0.06631595 -0.1412793 -0.083474 -0.09007591 -0.3257966 -0.05443873 -0.06219535 -0.1906117 -0.1372525 -0.1071216 -0.1834534 -0.1077694 -0.1499874 -0.1039222 -0.1696186 -0.09424786 -0.08853296 -0.2812124 -0.08851971 -0.1219684 -0.1322342 -0.07917043 -0.07586119 -0.07256467 -0.06378999 -0.190679 -0.1735986 -0.2825823 -0.1228976 -0.1825734 -0.1763551 -0.08746848 -0.07991419 -0.07628094 -0.1802619 -0.1209122 -0.1559087 -0.09624665 -0.1003856 -0.1786025 -0.1372659 -0.09876398 -0.2787533 -0.09591464 -0.1852541 -0.03713307 -0.10483 -0.1278213 -0.1861149 -0.1017307 -0.1481317 -0.0518335 -0.1212878 -0.06301133 -0.1451474 -0.2268672 -0.1497607 -0.06594346 -0.1482144 -0.1459419 -0.1891419 -0.05906662 -0.1754328 -0.1127452 -0.08673493 -0.05611854 -0.1374459 -0.09744786 -0.04101016 -0.07078385 -0.08619006 -0.03353393 -0.08463424 -0.07194232 -0.1384412 -0.1115232 -0.05372758 -0.1065843 -0.1212315 -0.1217764 -0.205276 -0.1883942 -0.1142048 -0.1781074 -0.05315189 -0.07954246 -0.06331418 -0.4013114 -0.310878 -0.03907044 -0.0796775 -0.1066942 -0.3123475 -0.06416134 -0.1244739 -0.1190366 -0.04567398 -0.05852227 -0.04875872 -0.1628324 -0.1599169 -0.1908705 -0.1762708 -0.1228201 -0.176768 -0.1173687 -0.101572 -0.05557952 -0.1679545 -0.162585 -0.07979353 -0.07020286 -0.1009257 -0.2840126 -0.1481422 -0.08814903 -0.1203026 -0.08537801 -0.1873724 -0.09315842 -0.1086868 -0.09862228 -0.06597799 -0.1789583 -0.103315 -0.1773377 -0.1132346 -0.1548136 -0.1642258 -0.2610326 -0.04837067 -0.06377446 -0.09823918 -0.06013583 -0.1594224 -0.03658449 -0.1105479 -0.1300092 -0.04522331 -0.05739921 -0.1795278 -0.09062514 -0.2292583 -0.03866379 -0.1628843 -0.1179163 -0.1770746 -0.1244161 -0.1240272 -0.1548215 -0.1515482 -0.09357314 -0.1248926 -0.1553007 -0.1344387 -0.1192698 -0.1799894 -0.04383838 -0.1695256 -0.1193942 -0.07404974 -0.1650914 -0.1772186 -0.1064564 -0.1202915 -0.1117871 -0.07894862 -0.1914557 -0.09107164 -0.1707 -0.07779265 -0.1452298 -0.1672779 -0.1288953 -0.1660886 -0.09462206 -0.1147776 -0.1786279 -0.07219527 -0.1312582 -0.1680865 -0.05447178 -0.2897929 -0.06696948 -0.1274091 -0.1104116 -0.07324012 -0.2670023 -0.06942298 -0.06805065 -0.1748063 -0.1304454 -0.1473204 -0.169713 -0.05232044 -0.1094047 -0.1811494 -0.120047 -0.104436 -0.3500337 -0.05022025 -0.1732167 -0.2049856 -0.1811958 -0.1083946 -0.1633503 -0.09622045 -0.06083571 -0.2535393 -0.1008107 -0.07187716 -0.1398284 -0.295457 -0.3095667 -0.1856521 -0.08396756 -0.1881955 -0.1924141 -0.1298058 -0.1547633 -0.1073878 -0.1753649 -0.0414707 -0.07129554 -0.2634775 -0.03699514 -0.2262799 -0.09915433 -0.08876479 -0.07307439 -0.09762943 -0.3244028 -0.08984948 -0.102159 -0.17278 -0.1290746 -0.1643373 -0.04629498 -0.1011675 -0.07576405 -0.2021302 -0.0792749 -0.1677648 -0.03431897 -0.1369594 -0.05419012 -0.1775288 -0.1809836 -0.1508789 -0.07188652 -0.1277904 -0.1261951 -0.1589695 -0.1689342 -0.113693 -0.1307319 -0.1695877 -0.118037 -0.1827812 -0.1888523 -0.1731143 -0.1519331 -0.09283246 -0.02265183 -0.0880521 -0.08963238 -0.09671589 -0.1839392 -0.1576487 -0.1746881 -0.08288873 -0.03815487 -0.06661039 -0.1800968 -0.07746472 -0.1860324 -0.07888985 -0.0679372 -0.09368312 -0.09204161 -0.07138576 -0.2513906 -0.169952 -0.08174799 -0.1718688 -0.1829817 -0.2813064 -0.1798254 -0.1097703 -0.1102041 -0.1884774 -0.1687989 -0.1242678 -0.1294315 -0.1889564 -0.04591267 -0.124783 -0.1773418 -0.04416054 -0.1277213 -0.04966383 -0.08762234 -0.1159398 -0.3089823 -0.1748677 -0.04031333 -0.1853595 -0.1860224 -0.1113003 -0.1183807 -0.1953152 -0.2077806 -0.127866 -0.1566735 -0.1783829 -0.1637505 -0.07117454 -0.03970484 -0.2137638 -0.3112395 -0.1289002 -0.0679848 -0.1360405 -0.1622606 -0.03417104 -0.2755616 -0.2481965 -0.1579548 -0.03016157 -0.1087378 -0.07931387 -0.02022268 -0.1593027 -0.1335891 -0.1289385 -0.1222764 -0.156089 -0.153962 -0.115043 -0.04293573 -0.1035988 -0.1001531 -0.06523099 -0.05426141 -0.1007845 -0.1771332 -0.1150964 -0.2073366 -0.1641722 -0.1013909 -0.06487213 -0.1028415 -0.083799 -0.1016409 -0.1701031 -0.09005989 -0.1814267 -0.05880461 -0.1225612 -0.1894504 -0.1103807 -0.07236519 -0.06415552 -0.163196 -0.1767492 -0.03850036 -0.07980403 -0.1328021 -0.07960354 -0.08918614 -0.1934059 -0.08683272 -0.1195977 -0.1163043 -0.07925985 -0.3044448 -0.1344749 -0.1205129 -0.1678554 -0.1702617 -0.09063759 -0.3139264 -0.1859353 -0.09542538 -0.1393192 -0.1723338 -0.3187077 -0.08517896 -0.07984617 -0.1147907 -0.05272214 -0.09239403 -0.05199926 -0.2393861 -0.2812712 -0.1803757 -0.150428 -0.03506861 -0.039953 -0.1497471 -0.1009037 -0.1031323 -0.1378905 -0.1341821 -0.06573645 -0.08691723 -0.03629149 -0.07820627 -0.2132018 -0.08051796 -0.1265325 -0.05901241 -0.06702801 -0.03989165 -0.1631448 -0.1110373 -0.05997838 -0.1589984 -0.2814171 -0.05968253 -0.1118585 -0.06770752 -0.1006818 -0.1530519 -0.1029298 -0.1101877 -0.175745 -0.1335278 -0.08090526 -0.05706083 -0.1248257 -0.129352 -0.09116729 -0.1309571 -0.113568 -0.1752783 -0.07520334 -0.1896356 -0.06455137 -0.1450329 -0.07147225 -0.08503429 -0.09168826 -0.1277706 -0.2257212 -0.06477589 -0.1389951 -0.1361339 -0.07003345 -0.172872 -0.08385238 -0.1785786 -0.1894225 -0.09377446 -0.08643793 -0.1507531 -0.04515123 -0.1783371 -0.1320904 -0.1777153 -0.1324032 -0.2700319 -0.2470126 -0.04537829 -0.06561822 -0.08507984 -0.09933044 -0.06861711 -0.1717841 -0.08549986 -0.075595 -0.1799689 -0.1773078 -0.1791274 -0.06054349 -0.1683915 -0.1808306 -0.1420268 -0.1840303 -0.09671437 -0.3303873 -0.1521171 -0.08172277 -0.1179263 -0.08818237 -0.0737868 -0.1685885 -0.13367 -0.1879416 -0.1311974 -0.1244293 -0.1019406 -0.07978612 -0.1267193 -0.1720108 -0.1083953 -0.08402199 -0.1015542 -0.06052038 -0.06313051 -0.04065395 -0.1052532 -0.173446 -0.1325311 -0.059524 -0.09741145 -0.1785191 -0.1218391 -0.1042473 -0.1086053 -0.1977224 -0.06896722 -0.03237323 -0.2853644 -0.1450828 -0.0353938 -0.07448632 -0.1103027 -0.1398132 -0.1273157 -0.06862299 -0.1760077 -0.1065055 -0.09233187 -0.1769617 -0.09165777 -0.07819866 -0.0734521 -0.07841478 -0.1955902 -0.0921744 -0.04533821 -0.07670179 -0.2101448 -0.07864689 ]
<!EndOfComponent> 
<Rescale> 1024 1024 
<LearnRateCoef> 0  [ 6.58104 2.959134 7.806913 3.241299 5.813917 4.559502 6.277807 4.234024 6.076962 4.984216 5.999058 3.918072 4.338151 4.372111 4.544285 4.382376 5.161319 8.533651 5.321828 4.973312 3.286061 5.598077 4.500108 4.43588 4.164981 5.501422 5.023689 6.252908 4.399231 5.048007 3.989485 4.767259 4.559102 3.301249 5.935581 6.215706 6.665623 4.95966 8.602703 6.538241 5.582076 6.016798 4.36975 5.093979 5.952014 7.19415 3.099897 4.981979 4.860644 4.43382 5.501373 2.976688 5.26656 7.537432 6.304533 4.983154 5.12717 5.505161 3.253025 5.305572 7.045521 8.424251 3.143826 6.334044 6.257417 2.946046 3.975095 4.542522 4.888961 6.600275 5.808422 4.875769 4.592465 6.152012 4.288907 3.166763 2.483551 5.076799 4.791341 5.785367 5.319528 5.9691 4.685197 4.679783 4.87603 4.580226 5.580584 4.456298 5.964665 4.324931 3.909368 5.108739 4.967309 4.659134 8.608605 5.541063 5.591726 3.575973 3.999077 5.65898 7.006535 4.798201 5.478566 2.937107 6.164898 4.337038 4.806994 5.095146 6.119052 7.210514 4.905949 5.702538 8.28618 5.27114 5.163158 8.929723 4.916083 7.680254 3.81908 6.038724 5.76983 2.869292 6.588521 4.895333 5.475046 4.938625 4.142701 5.936255 8.922617 4.706125 5.261215 6.108864 3.587443 5.884334 4.443553 6.465281 4.807723 5.968367 4.464679 4.86762 5.048834 4.496955 6.12924 4.519948 4.169235 5.523976 5.370101 3.129928 7.717 4.556754 4.30358 5.743077 4.611479 5.542759 4.722025 6.18444 4.272222 7.192074 4.890418 3.144578 4.615681 7.929314 4.366021 6.891924 6.064132 3.418154 4.944421 4.889482 6.13258 5.405998 5.845103 4.454747 6.427842 5.594622 6.167097 5.909261 4.480508 4.720617 7.347231 6.025764 5.745924 4.540135 4.677197 4.48471 5.510212 4.595401 5.244601 6.896937 7.409817 4.705068 5.774104 2.906069 4.230983 5.138675 2.66275 4.691726 7.329317 8.570823 2.967965 5.416174 5.959531 4.856788 5.195737 4.195744 4.692595 5.721803 4.44395 2.475589 4.135262 4.402856 6.764354 6.236789 3.528032 3.568393 5.871744 4.207644 6.573794 8.092166 3.41076 5.831228 4.738197 5.731693 2.835798 6.064442 4.50647 2.819366 6.278217 6.301299 5.09559 3.099581 3.347698 5.129669 5.727799 7.052979 2.789119 5.255881 4.54214 5.54556 6.96002 4.269447 6.245125 4.272151 5.800453 3.483289 5.34397 6.763095 4.553768 5.023399 6.5095 4.819149 5.068707 4.780397 4.250617 6.617111 4.545732 5.450836 4.55703 7.720165 6.628924 4.963855 4.28568 4.422293 4.260069 4.040408 3.868428 5.703845 4.741202 7.860425 4.662466 4.132949 4.401546 3.313742 4.558655 6.767736 6.88113 5.814893 5.208029 4.637713 4.416296 6.542232 3.272717 7.104562 4.752946 4.425483 6.038679 5.527158 3.169556 4.881287 8.317584 5.591181 6.307798 4.575501 5.562226 2.945368 4.154698 3.981786 4.404527 6.029539 4.344162 4.898637 3.178418 4.780992 5.564243 3.776108 4.440998 6.491576 5.435425 5.11792 4.726173 4.170836 6.184185 4.904762 4.163611 5.74002 5.809546 4.525177 4.106338 6.278025 7.357354 3.270568 5.586318 5.479181 5.076214 6.685896 5.423213 4.343617 5.173491 5.530254 4.346361 4.697681 4.761289 5.967156 4.854662 5.120613 4.275113 4.711334 3.049481 3.037684 5.482553 4.635532 8.209269 6.938149 4.140284 3.22333 4.44985 5.44402 6.861559 4.538511 4.508085 6.887388 5.452171 5.731625 4.936258 5.280117 7.025742 6.274513 4.668897 4.984856 2.55079 4.699644 4.954726 4.809393 4.518796 5.693911 2.691221 7.510744 6.651059 6.676877 4.772011 9.183284 5.342529 4.422451 4.531158 6.24386 5.295045 5.690148 5.664349 4.333401 4.502318 7.589308 5.971225 5.135984 4.418172 4.358199 6.823103 4.866889 2.789688 5.865358 4.433037 6.215154 4.605922 6.345437 4.233319 7.09845 5.990526 6.253314 6.348513 6.990157 5.749849 5.802019 5.475496 4.421151 5.164775 3.902415 4.769232 5.210622 5.981876 5.062261 6.027763 6.323498 4.463573 4.327874 4.483994 6.843287 5.665571 8.646614 5.604957 4.53867 4.213006 4.197669 6.70495 3.149206 4.025336 4.634311 6.448246 4.928726 2.362959 5.101899 4.968726 5.72098 6.564145 4.840351 4.917081 4.852573 6.985507 2.985707 3.561986 6.189668 6.772926 6.200193 3.409071 5.718346 4.471399 2.728357 5.573174 4.613646 4.5484 4.192931 3.574197 8.695361 4.897755 4.146394 5.994169 4.668414 6.125525 4.663134 4.335688 3.265207 5.018338 8.261268 4.224044 4.721967 4.540164 6.172027 3.066838 5.28055 5.064889 4.226595 4.11653 6.913135 5.889771 5.268334 4.518475 2.971967 4.719387 5.332017 6.953907 5.078718 3.294489 4.249884 5.886859 4.552341 5.45503 4.557589 4.508153 5.661005 5.05318 4.58989 4.7087 6.120271 4.165613 7.015476 6.589271 2.904056 6.839811 6.110272 4.467686 5.108798 5.446652 4.343532 5.447599 4.437976 5.520144 4.799818 5.986249 6.472676 3.071039 5.691199 5.454761 4.30946 6.391626 7.566357 5.294853 6.306845 4.326627 4.853459 3.103251 5.273584 4.453622 4.024174 6.441636 4.788236 5.219807 4.529129 5.411951 4.41247 6.190129 5.296996 4.43961 3.860503 4.85681 2.934251 5.0646 4.30827 8.975273 5.622144 5.174872 4.31964 5.977308 4.89327 6.545386 5.606376 6.206342 4.497684 3.12867 3.64978 6.808419 4.518016 4.871594 4.246606 5.371381 4.59078 5.33581 6.966714 6.159826 4.965927 5.387098 7.973922 5.209836 4.771696 8.354093 4.578617 5.096705 5.655096 5.074011 5.964107 5.629762 4.793267 6.486831 3.590688 4.386644 4.911077 4.18269 6.003092 6.361006 7.158553 2.677613 2.700719 6.733154 6.540644 5.103181 2.433748 5.795034 5.153048 5.833665 7.963349 6.445255 6.696006 4.518926 4.965157 4.197068 4.614875 5.102644 4.566174 5.206342 6.474193 7.341044 4.506879 4.613585 6.653785 7.003316 6.11738 2.939243 5.260795 6.862579 4.903647 5.743221 3.857088 5.995171 5.140557 6.112525 5.361032 4.542868 6.052767 4.469733 5.598021 4.804768 4.474093 3.046785 9.825822 5.209776 5.430948 5.884267 4.279035 7.404145 4.761111 6.327231 7.79936 6.057128 4.597436 6.35305 3.585699 6.895398 4.717268 4.508811 4.565878 5.664998 5.461971 4.990694 4.991643 6.648185 5.510367 4.914458 3.795073 4.69975 4.572648 8.279514 4.763386 5.343919 5.390687 4.544342 3.38932 4.999367 5.290636 5.675487 5.194983 4.334082 5.495873 4.619865 6.435505 4.488674 4.776649 4.943193 4.701974 5.935851 4.437321 4.462369 4.867038 5.389921 4.914951 6.796196 3.054013 5.145434 4.99096 5.122398 5.510038 2.873064 6.164274 6.3548 4.577412 3.716534 3.669391 4.464727 6.711787 6.570819 4.55314 5.571784 5.494909 2.733541 6.205217 4.726946 3.53056 4.444516 5.110565 4.584307 4.120518 6.253806 3.268081 5.342214 4.998122 5.016626 2.970429 2.444046 4.618341 5.599096 4.570653 3.450355 4.937418 5.291403 6.251891 4.402757 7.33708 5.788172 3.278948 6.931037 2.992912 5.330209 4.982965 6.210799 5.197022 2.529966 6.469122 5.667789 4.727329 5.541345 4.164762 6.932891 6.344791 5.464474 3.339727 5.344329 4.767971 6.814688 4.150893 6.6068 3.883026 4.318666 4.565449 7.554355 5.958491 5.635424 3.498353 4.495594 5.482474 5.27854 4.743344 5.574233 4.437659 4.382083 4.740173 3.969736 5.91991 8.597505 4.618885 6.048722 5.857652 4.208662 4.094502 4.608727 7.622601 8.368545 5.681611 4.534653 5.061608 3.970717 5.073534 5.187486 6.648617 5.75896 6.67331 3.228681 4.734379 5.294059 4.597613 4.464593 2.829236 4.48502 6.182137 4.379521 4.421817 4.711812 5.849435 5.086323 4.395486 6.514347 5.101689 4.490866 7.588603 5.284182 8.736057 6.679915 4.197945 2.465483 4.35578 7.331964 4.391343 4.618949 5.639332 5.122264 4.279866 3.520701 4.621185 4.273744 4.654463 4.872052 4.917007 7.926806 3.45553 2.452741 5.031369 7.070777 4.877993 4.51012 9.641486 2.995556 3.126964 3.523736 8.896965 5.674285 5.532341 9.09842 5.050109 5.15079 5.54677 5.379712 4.428212 4.307188 5.453758 7.975936 5.498593 6.34327 6.174192 5.715462 5.429259 4.340768 4.884842 3.36709 4.781531 5.745026 6.092862 6.751763 5.751376 5.066932 4.612794 5.587724 4.417447 7.586152 5.025081 4.412038 5.192816 4.644113 5.092187 4.763401 4.437253 7.518496 6.743815 5.512435 6.054416 6.374028 4.017227 5.788126 3.963229 6.242073 5.965407 2.475199 5.150523 5.366807 5.83287 4.901829 6.089526 2.822508 4.605674 5.309921 4.279218 4.769165 2.874982 5.700894 4.978633 5.439943 6.500667 5.936077 7.134377 3.363001 3.006159 4.453977 4.708151 7.894763 6.645845 5.010088 6.606071 4.717848 4.930842 4.349284 5.64089 6.008224 7.659519 6.761763 3.162053 4.605402 4.489303 6.064487 6.857884 8.063218 5.038136 4.241451 5.789971 5.004402 2.843711 6.281427 6.119994 5.612729 4.853513 4.731643 5.034811 5.600751 4.595022 4.267281 4.855694 5.950737 4.716387 5.01528 5.806792 5.370087 5.261559 4.64637 6.217829 4.423558 6.1734 4.672484 7.051054 6.473253 5.357454 5.507079 3.567632 5.553508 5.196738 5.319808 6.637394 4.979693 7.004858 4.366852 3.597217 5.308825 5.710218 4.345696 6.781032 4.623835 4.45351 3.680831 4.533175 3.11526 3.026612 6.581863 6.661544 6.598262 5.450029 6.545112 5.516297 5.97615 8.351055 4.426006 4.365084 4.743932 8.031547 4.769063 3.355296 4.945341 4.522889 6.571595 3.084069 4.828949 5.816157 5.602036 5.559143 7.620245 4.844518 4.79459 4.444438 4.762192 5.041869 5.411675 6.564001 4.774639 4.643968 5.708811 7.413156 5.376041 6.28919 7.100371 7.643357 5.666303 4.590041 5.374932 6.694841 4.979073 4.372329 5.413993 6.287077 5.769795 3.066846 6.012064 8.947859 3.037855 5.002656 7.119802 5.465784 5.526502 5.585176 5.024705 6.521381 4.715317 6.116947 5.398502 4.406117 4.876393 7.046786 6.646497 6.624449 3.494987 5.052537 6.938792 6.300128 3.179574 6.700208 ]
<!EndOfComponent> 
</Nnet> 
