<Nnet> 
<AddShift> 1024 1024 
<LearnRateCoef> 0  [ -0.05607054 -0.1369649 -0.02511033 -0.08855094 -0.1217966 -0.1243185 -0.09338267 -0.08920795 -0.06950778 -0.1306856 -0.08074576 -0.04909793 -0.09079865 -0.2250649 -0.05054392 -0.08368633 -0.09104945 -0.1302846 -0.08587299 -0.2970047 -0.1245763 -0.1235004 -0.08381797 -0.0782197 -0.08850176 -0.1226346 -0.07582755 -0.1343321 -0.2406731 -0.1091307 -0.06339439 -0.1053658 -0.1136361 -0.0452343 -0.07586113 -0.05388662 -0.1031799 -0.0742045 -0.1042573 -0.1069552 -0.1155943 -0.1200298 -0.06163597 -0.08542561 -0.0620725 -0.1200372 -0.1050529 -0.166721 -0.06026627 -0.078502 -0.1220205 -0.1024733 -0.06166561 -0.0738016 -0.09795055 -0.107981 -0.08867875 -0.1831837 -0.08169015 -0.1011219 -0.1008908 -0.0888795 -0.1531927 -0.07085889 -0.08290378 -0.06863379 -0.07309543 -0.07335231 -0.06989891 -0.1411032 -0.09732885 -0.09123449 -0.1262912 -0.1030076 -0.09900442 -0.1513834 -0.06404279 -0.0880812 -0.09921832 -0.06506886 -0.06516765 -0.123939 -0.1149303 -0.1338848 -0.07967275 -0.08826019 -0.09231368 -0.1057888 -0.08475195 -0.08919228 -0.07840244 -0.1003322 -0.09392325 -0.0865593 -0.0585819 -0.1300621 -0.1309025 -0.08852796 -0.07012012 -0.07323319 -0.09752847 -0.08509524 -0.07814135 -0.09951812 -0.05677777 -0.05434589 -0.1376814 -0.09149567 -0.06012173 -0.0889372 -0.057886 -0.06189241 -0.08467177 -0.0700468 -0.06863949 -0.110432 -0.1052349 -0.1362948 -0.1479595 -0.06861663 -0.1055215 -0.07217156 -0.1348195 -0.08066724 -0.09996224 -0.07212108 -0.210357 -0.07877458 -0.04279002 -0.1106045 -0.09136474 -0.07379557 -0.0749324 -0.0634341 -0.05027262 -0.05677489 -0.04556816 -0.1184867 -0.07896955 -0.1418884 -0.08057915 -0.08061136 -0.08405423 -0.1112193 -0.09698723 -0.1303064 -0.0767494 -0.1113481 -0.09891826 -0.0663851 -0.1486602 -0.1478108 -0.1137612 -0.05608733 -0.1706896 -0.08944622 -0.147118 -0.06993652 -0.1073656 -0.1202384 -0.080515 -0.05703564 -0.09347258 -0.1124916 -0.1135011 -0.1400613 -0.1005396 -0.08696039 -0.1512741 -0.09240052 -0.1767683 -0.1124236 -0.07086713 -0.06070005 -0.06738704 -0.05911732 -0.3511577 -0.07754763 -0.08339352 -0.08431634 -0.100652 -0.07274104 -0.1091414 -0.1197081 -0.1139208 -0.06081191 -0.1450146 -0.1048526 -0.08811495 -0.1079879 -0.09066668 -0.1130857 -0.1071555 -0.1218968 -0.08810953 -0.1004272 -0.103904 -0.1590532 -0.07334032 -0.09909071 -0.08773103 -0.1002607 -0.06342795 -0.1107368 -0.1303843 -0.06624488 -0.07697545 -0.09651466 -0.1784383 -0.1172603 -0.07089904 -0.09380876 -0.09914532 -0.09125662 -0.04658823 -0.08288141 -0.06580787 -0.0824384 -0.1268637 -0.1219355 -0.07394506 -0.0721366 -0.1007289 -0.08067721 -0.07567509 -0.1343321 -0.09997056 -0.3453485 -0.07947654 -0.06708368 -0.1044819 -0.1026945 -0.09311925 -0.08459873 -0.1957574 -0.1079555 -0.04911314 -0.1128662 -0.08596591 -0.1073759 -0.1354345 -0.1033419 -0.1301254 -0.06646989 -0.1480973 -0.1590704 -0.09980863 -0.1146913 -0.1308525 -0.07016202 -0.0774878 -0.07171823 -0.08547857 -0.1056859 -0.1839847 -0.07530871 -0.06041788 -0.1283053 -0.09116182 -0.1319078 -0.06078367 -0.08600993 -0.1144388 -0.08107343 -0.08328447 -0.0691078 -0.1116479 -0.1025726 -0.0849878 -0.1340179 -0.06738919 -0.1003227 -0.0590561 -0.1354205 -0.07589477 -0.08969968 -0.07411124 -0.05721487 -0.09387668 -0.08560131 -0.08873993 -0.0598419 -0.2308608 -0.1305305 -0.1033638 -0.09284551 -0.09370781 -0.1008833 -0.0527415 -0.08672344 -0.05046329 -0.1022024 -0.1470887 -0.1010375 -0.07601944 -0.06766865 -0.06300017 -0.08205672 -0.1004022 -0.07748045 -0.05093497 -0.07874914 -0.05839312 -0.1845381 -0.06468187 -0.1211583 -0.1099337 -0.1023048 -0.09192841 -0.06135507 -0.1755318 -0.1022528 -0.05713833 -0.1069745 -0.05451413 -0.1070804 -0.05269568 -0.1159136 -0.07164221 -0.0761241 -0.08964355 -0.09760304 -0.1005857 -0.1232243 -0.05820825 -0.1013738 -0.1218887 -0.08319329 -0.07847302 -0.1280592 -0.07650176 -0.2012111 -0.1076385 -0.08795322 -0.1270869 -0.07080137 -0.04647448 -0.07631942 -0.05489059 -0.1031985 -0.09962296 -0.1319434 -0.05201175 -0.1173529 -0.1398548 -0.08189534 -0.2125183 -0.1076866 -0.06536597 -0.1061797 -0.08465612 -0.1585625 -0.08015152 -0.08609729 -0.09852593 -0.08739772 -0.07247216 -0.1328657 -0.08785744 -0.1289746 -0.1038069 -0.1431796 -0.0936809 -0.07529041 -0.08595125 -0.1432399 -0.1218051 -0.1117672 -0.1282229 -0.09271301 -0.08937245 -0.08917572 -0.1576509 -0.111596 -0.1022817 -0.09948299 -0.1631492 -0.09299002 -0.08093619 -0.100662 -0.126185 -0.1010748 -0.07022069 -0.1090144 -0.07756261 -0.07307281 -0.1019192 -0.09902713 -0.08398591 -0.0743626 -0.113712 -0.05765774 -0.1165747 -0.1140686 -0.1584297 -0.1812191 -0.1482056 -0.1015774 -0.1285596 -0.06169704 -0.0569717 -0.04436726 -0.1036589 -0.06516201 -0.03965232 -0.06688111 -0.1030492 -0.1049348 -0.1083313 -0.07702354 -0.1804028 -0.08566792 -0.09269796 -0.07302766 -0.0779011 -0.1149798 -0.06750733 -0.1424913 -0.09939688 -0.1090673 -0.08792915 -0.09435143 -0.1536479 -0.09426581 -0.05244451 -0.08404017 -0.1549661 -0.08169851 -0.06872057 -0.1928438 -0.1034053 -0.09100349 -0.1154287 -0.106102 -0.1583662 -0.09477772 -0.1137878 -0.04723674 -0.2602158 -0.09444429 -0.1022381 -0.1073135 -0.09688909 -0.1296848 -0.1108547 -0.1232843 -0.09165605 -0.06216124 -0.05545387 -0.1098125 -0.1102746 -0.08648946 -0.1144095 -0.0646638 -0.05020664 -0.1380778 -0.1045516 -0.07278125 -0.1222611 -0.08450365 -0.08199479 -0.0952185 -0.0708513 -0.06068977 -0.1061612 -0.07348325 -0.1018725 -0.06608935 -0.09475945 -0.06748424 -0.07117438 -0.08163761 -0.1074813 -0.087657 -0.05583631 -0.09366551 -0.1223972 -0.09043068 -0.07767646 -0.08704136 -0.07421978 -0.08590169 -0.0672707 -0.1298175 -0.1020669 -0.1119439 -0.1013597 -0.06775778 -0.05988924 -0.08483132 -0.0655148 -0.1426035 -0.1041361 -0.0995822 -0.04396923 -0.07235648 -0.07179443 -0.07398888 -0.08006009 -0.08921821 -0.05631053 -0.1184778 -0.1436976 -0.126398 -0.06278044 -0.1506264 -0.08081579 -0.07515198 -0.1353243 -0.07359381 -0.06643817 -0.111242 -0.07101151 -0.06485488 -0.08455613 -0.1249376 -0.1688836 -0.08507443 -0.0697111 -0.09084549 -0.08609148 -0.05359368 -0.08100164 -0.08022873 -0.08864818 -0.06326317 -0.09234387 -0.0966806 -0.1220479 -0.1027216 -0.1255726 -0.08947698 -0.1037452 -0.0664379 -0.08756294 -0.08300559 -0.07298732 -0.1582991 -0.1329137 -0.09648939 -0.1295384 -0.1325581 -0.06521771 -0.06290419 -0.1449451 -0.04543175 -0.1219327 -0.1276743 -0.06619948 -0.07432425 -0.1754983 -0.1842404 -0.06746775 -0.06160805 -0.09117781 -0.1214461 -0.0935142 -0.09254403 -0.1018263 -0.09162651 -0.09718802 -0.07804023 -0.1191976 -0.1384921 -0.09567095 -0.07666855 -0.09751264 -0.09346894 -0.1691306 -0.08600885 -0.08430888 -0.07569348 -0.0712617 -0.04538548 -0.1551661 -0.04501413 -0.1467703 -0.08671144 -0.1073357 -0.09097675 -0.1036627 -0.08152299 -0.1035329 -0.08818895 -0.08232287 -0.09976219 -0.06223563 -0.1331746 -0.1109763 -0.1135341 -0.05961208 -0.1087462 -0.07150389 -0.04671419 -0.1013085 -0.06919571 -0.04314159 -0.1011809 -0.05323056 -0.07374576 -0.1066204 -0.1041534 -0.07957077 -0.09391001 -0.1123461 -0.08372627 -0.07245761 -0.0832442 -0.08157258 -0.1500113 -0.1282378 -0.09444327 -0.1126377 -0.09199458 -0.07823517 -0.06921711 -0.1242645 -0.05641667 -0.06762826 -0.08688933 -0.08430252 -0.06149415 -0.06897934 -0.1379339 -0.05503085 -0.08145574 -0.1058773 -0.03853505 -0.09443958 -0.182255 -0.1183364 -0.06125646 -0.08633465 -0.08884569 -0.06207363 -0.1051169 -0.08019698 -0.1661749 -0.1892316 -0.05687568 -0.06785808 -0.08471204 -0.153215 -0.1098207 -0.106519 -0.08684541 -0.1571015 -0.09357981 -0.1000457 -0.09945533 -0.08002024 -0.1033965 -0.06725552 -0.1132584 -0.05910427 -0.06837481 -0.07790498 -0.07493984 -0.104119 -0.1177739 -0.09952421 -0.116067 -0.1002891 -0.09332082 -0.1837158 -0.07281258 -0.1819327 -0.1022957 -0.3165523 -0.1064392 -0.07769611 -0.1005915 -0.1144216 -0.1018108 -0.09937188 -0.117903 -0.09194217 -0.06297128 -0.1547992 -0.09998798 -0.08888967 -0.1250191 -0.1145613 -0.08235873 -0.1061401 -0.07120735 -0.08383057 -0.1287748 -0.09054607 -0.06934182 -0.1188885 -0.1387458 -0.08049471 -0.04228074 -0.04525839 -0.12468 -0.09000741 -0.1152181 -0.102822 -0.1155123 -0.05712815 -0.07076882 -0.08712597 -0.1168389 -0.1126955 -0.1005319 -0.06058574 -0.07385872 -0.05243086 -0.08109058 -0.06800257 -0.09505433 -0.1701238 -0.07354203 -0.08224691 -0.1175708 -0.1272265 -0.05374296 -0.05264336 -0.06656822 -0.09576119 -0.1198636 -0.1167002 -0.08880633 -0.0723035 -0.07635075 -0.05347299 -0.06333251 -0.1080954 -0.08187634 -0.0790249 -0.06900062 -0.1054557 -0.1722505 -0.1019634 -0.1244432 -0.1332513 -0.1658986 -0.09796067 -0.08976425 -0.08919878 -0.1055111 -0.06376027 -0.03920066 -0.08135009 -0.1075299 -0.06174134 -0.08540876 -0.0844898 -0.19123 -0.1506721 -0.08019493 -0.08462067 -0.08352547 -0.1256052 -0.1368482 -0.0991374 -0.1095036 -0.06580074 -0.1399561 -0.1033586 -0.06681975 -0.1314267 -0.05347912 -0.1690156 -0.0935401 -0.1086802 -0.07977323 -0.09397146 -0.09785471 -0.07792017 -0.07642224 -0.06961733 -0.06142907 -0.06087333 -0.08811381 -0.08604722 -0.09620608 -0.08039384 -0.1438551 -0.119888 -0.1119153 -0.1213458 -0.1118289 -0.1142794 -0.1375954 -0.119366 -0.06296933 -0.1060357 -0.1241026 -0.1379028 -0.07614776 -0.03914195 -0.09139859 -0.09198123 -0.07837749 -0.08692812 -0.1216668 -0.05539378 -0.05413987 -0.05231326 -0.08955636 -0.08687773 -0.08737168 -0.1129974 -0.2033043 -0.09669673 -0.09037745 -0.07697669 -0.09996528 -0.09908556 -0.08902758 -0.1000405 -0.1277852 -0.1366996 -0.1062143 -0.1173118 -0.08711128 -0.04072853 -0.1241984 -0.07565761 -0.1401587 -0.07153372 -0.08158948 -0.05255666 -0.08140972 -0.09227277 -0.2769054 -0.1081531 -0.07590738 -0.04498127 -0.08743399 -0.08452263 -0.0841948 -0.1028379 -0.1435573 -0.05054267 -0.1766561 -0.08723933 -0.05226647 -0.06237195 -0.1001037 -0.09003448 -0.07188611 -0.0994174 -0.08601367 -0.1696516 -0.09124704 -0.1260309 -0.05202165 -0.0506767 -0.06491441 -0.08603644 -0.08162017 -0.1522089 -0.06238229 -0.1021445 -0.08805288 -0.1004494 -0.09475344 -0.08255684 -0.1002934 -0.1068847 -0.05133625 -0.1472511 -0.09696851 -0.08714671 -0.0621824 -0.08952519 -0.07914001 -0.06007092 -0.1306448 -0.0786531 -0.1406303 -0.07442614 -0.06527928 -0.1106834 -0.05846141 -0.06645482 -0.1174623 -0.09059849 -0.08858782 -0.09258652 -0.08523616 -0.08527742 -0.06751193 -0.1187219 -0.07275749 -0.07501134 -0.1000875 -0.07093783 -0.1206326 -0.0796333 -0.08116365 -0.05675248 -0.07810249 -0.08924178 -0.07273083 -0.1574755 -0.1662636 -0.09868456 -0.1095342 -0.05712275 -0.08012567 -0.1034957 -0.09558605 -0.0546587 -0.03170095 -0.08355434 -0.08557972 -0.108753 -0.08325708 -0.09267467 -0.07581761 -0.07929494 -0.119457 -0.09879736 -0.08813894 -0.08005005 -0.09476852 -0.08769198 -0.1137741 -0.09399959 -0.07312827 -0.08551973 -0.1221471 -0.05284243 -0.12422 -0.1605928 -0.1042496 -0.08936448 -0.07645449 -0.0799529 -0.1573837 -0.0730067 -0.0937083 -0.1054941 -0.1157262 -0.1069402 -0.07646663 -0.1424206 -0.07419184 -0.09915616 -0.1007105 -0.06570152 -0.07049458 -0.08075999 -0.1784778 -0.08300463 -0.07755668 -0.03935674 -0.09466381 -0.1236874 -0.07247757 -0.0888524 -0.08962697 -0.1012314 -0.1074298 -0.1315605 -0.09857027 -0.0816314 -0.09230645 -0.1263982 -0.09683638 -0.05495679 -0.1136113 -0.1706836 -0.09217103 -0.0710352 -0.106545 -0.1730435 -0.09527942 -0.06520495 -0.09004454 -0.05747223 -0.08753432 -0.1894048 -0.08007267 -0.1037222 -0.08216193 -0.1088531 -0.05941101 -0.06658195 -0.1178034 -0.07757418 -0.1132435 -0.08178025 -0.1183942 -0.07576606 -0.1023692 -0.07304537 -0.06958116 -0.1087319 -0.05122967 -0.05679563 -0.1159493 -0.05267478 -0.06834976 -0.1021898 -0.06077688 -0.06703567 -0.08824683 -0.08008778 -0.1057898 -0.1220325 -0.05492603 -0.08029416 -0.04524797 -0.1006187 -0.06572708 -0.0985347 -0.3231915 -0.08081751 -0.07885049 -0.09704374 -0.03537017 -0.06465138 -0.06158413 -0.07261609 -0.08432173 -0.08323892 -0.07908839 -0.04958613 -0.1492804 ]
<!EndOfComponent> 
<Rescale> 1024 1024 
<LearnRateCoef> 0  [ 10.68817 4.235803 7.681074 5.698792 5.661982 4.527095 5.783665 6.368464 6.163459 4.715399 6.02387 9.558022 6.447567 2.973797 9.234169 7.052495 6.608137 4.893089 6.25043 2.560349 5.281631 5.012084 5.473421 6.424711 5.33671 4.667082 8.249983 4.738966 2.643108 5.806593 9.208726 5.445838 6.388803 9.746078 7.304791 8.05328 4.829733 7.995185 5.727859 5.939216 5.811478 5.517261 6.254001 6.518089 7.591563 5.197486 5.650361 3.412939 7.150371 6.930363 5.490962 5.774636 6.930318 7.637487 6.378763 6.210259 5.235795 4.633051 5.591863 5.762394 5.784799 5.893147 3.289124 6.090765 6.825264 8.503611 7.089184 7.734859 6.983273 4.597499 7.015722 5.734203 4.79805 6.486188 6.073265 3.614282 7.791456 7.413653 4.584181 7.939629 6.38401 4.93297 4.832515 3.437258 6.518196 6.049821 6.817781 6.439077 5.843337 5.412389 6.127816 4.668491 5.944518 4.042564 9.432027 4.834921 5.626978 6.89622 8.481766 7.541912 5.460196 6.673044 4.184398 6.703943 7.56282 7.960547 3.753844 5.149129 9.46969 6.489413 8.59446 8.043011 6.112062 7.037308 8.25806 6.126291 5.679083 4.837173 4.366492 7.918083 5.492726 7.464307 4.534144 7.185722 5.154536 7.194305 2.806823 6.694314 10.4453 4.876962 4.826593 7.003292 6.859586 8.265181 10.14735 8.570101 11.00113 6.117831 7.422773 5.608459 7.713233 6.262231 7.085769 4.876806 6.47168 5.189543 7.119212 5.260211 4.708214 6.213403 4.685233 4.953141 5.466513 7.6445 4.455194 6.514272 4.612749 8.196015 5.696064 4.899441 6.126058 8.022482 6.461354 5.939785 4.893182 4.984644 6.181041 6.391059 3.299612 6.451796 4.534419 5.658835 7.203746 8.363878 5.238599 9.090851 2.277147 6.5416 5.777999 6.970682 5.411279 7.574697 5.433607 5.102014 5.986795 8.403341 3.971142 5.639174 6.940965 5.55195 7.053953 5.843984 5.660636 4.848117 7.261238 5.481282 6.234348 3.411268 6.360498 5.784808 6.463626 5.520053 6.940754 6.052039 4.690031 7.888164 6.499556 5.991194 3.679424 3.970335 7.534773 5.489483 4.934756 6.570943 9.039722 5.493323 9.222558 4.975485 5.462214 5.544394 6.195504 5.923149 5.506797 6.57247 6.918351 5.867234 6.233765 2.357852 5.569627 6.127114 3.93735 5.60379 5.949368 5.345795 2.867135 5.532459 10.51884 5.224663 6.048337 6.393542 5.129284 6.538577 5.232499 7.808631 4.361621 3.425145 5.917559 5.563736 3.988079 7.172391 7.538313 8.07375 6.022543 6.102345 3.086581 6.095153 9.779881 6.092546 6.549016 5.007491 8.599105 6.759408 4.153261 7.105237 8.061016 5.132152 5.43579 5.70791 5.859634 4.041771 7.176524 5.750989 6.861899 4.844409 6.10532 5.469254 6.917182 8.203835 6.010897 5.746698 6.513266 6.592649 2.763335 6.032809 4.745879 6.001103 6.209464 6.124603 6.996969 6.602906 8.784726 6.032109 5.37389 5.500488 7.309922 7.489567 8.304297 7.358556 4.741994 7.256617 8.900902 6.936914 10.09671 2.936769 6.190819 5.499854 4.155438 5.855278 6.278797 7.778712 3.553882 5.306067 8.008506 5.344758 10.91744 6.429118 6.721536 4.689945 6.957283 5.731484 6.592505 6.252424 6.221501 4.593896 7.796977 5.398797 4.78968 7.158539 6.677481 4.936271 7.148295 2.8489 5.912901 6.512204 5.299941 8.860789 6.448404 6.920025 6.443046 4.781661 4.822737 5.841734 6.628345 5.571647 5.13968 5.181664 3.153925 5.983835 5.966224 6.873453 7.225148 4.496511 5.95946 6.223087 5.121967 6.100274 7.239242 5.459217 4.908231 3.556137 5.721213 4.750433 6.358207 6.111145 7.172725 4.925789 5.185785 5.61651 4.880584 6.88883 6.127606 7.308983 4.063168 6.092628 6.36998 5.811988 4.215699 6.000268 7.013362 6.210948 5.083986 5.933133 8.265523 5.306712 7.10134 6.841092 4.168121 6.380849 7.225319 7.582983 5.803985 9.158688 3.815761 6.1019 3.594008 3.711505 4.302993 6.410441 4.419693 8.333014 8.533752 6.005888 5.789401 7.217303 10.3649 7.466923 4.957798 6.394335 5.77677 8.02521 4.561415 6.497543 5.677879 7.087282 7.462543 4.90803 7.602551 3.82319 4.317117 5.991215 7.552411 6.449972 3.548552 6.003766 7.936066 6.161412 4.509654 6.071462 6.251018 3.395318 6.075633 6.462416 5.867317 5.41366 4.692601 5.660764 4.36286 7.753403 2.613844 4.42231 4.243893 5.782852 4.98034 3.712182 4.798832 5.303822 6.16441 6.421054 6.832004 5.130368 6.076824 4.993868 5.971437 8.064103 8.783333 4.7851 5.311382 7.272568 4.797416 5.965813 5.662823 6.088857 6.558933 7.295292 6.07426 7.716 4.51757 6.996351 7.480973 7.615045 8.069125 6.568916 4.406292 5.902969 8.665038 5.947797 4.802976 6.944452 6.243869 6.622308 6.859544 5.944911 7.202687 5.079904 6.275324 5.002538 5.838798 8.235469 7.764086 6.439173 5.345002 3.563658 6.245759 6.305808 10.8282 6.770957 6.63463 7.591975 7.8075 6.424573 8.72391 4.21358 4.066864 3.763492 8.032168 5.059744 6.67793 7.229288 3.712017 7.583488 6.291085 5.811986 7.419507 7.38144 6.751739 5.793777 3.896674 7.758487 6.423161 6.205911 4.81071 8.013497 5.263718 6.515141 7.935466 7.453118 6.314859 5.174301 3.781407 5.046164 5.019299 6.670629 5.044097 7.19856 5.84164 6.057148 5.874517 3.332015 4.601028 5.965887 3.59707 5.273062 7.8127 5.983658 5.010333 8.069356 3.689366 5.326345 6.998027 7.822144 3.252415 3.639551 8.069265 8.050391 6.373105 5.169054 6.046637 6.768126 6.782168 6.781073 6.621622 6.255285 4.528734 4.395236 6.92997 5.48003 5.35815 5.306603 3.647467 5.801505 7.118183 7.72299 8.187488 10.62395 3.955882 8.166381 5.092304 4.475036 5.521302 6.273269 6.007118 5.277495 5.746092 4.612768 6.325593 5.748949 8.408494 5.800788 5.080768 5.166593 8.155345 5.425061 7.536131 10.74832 5.680739 6.29163 8.878746 4.813924 9.149113 7.442287 6.015457 5.577329 7.150981 4.801965 5.869383 6.24472 6.955045 7.474002 6.346601 4.98344 4.188098 5.640596 5.062976 6.548398 6.591779 7.647345 5.763209 7.870325 8.275289 5.201065 5.998272 7.450563 7.335724 5.224222 9.040969 6.935195 4.589118 9.362054 4.365559 3.417798 5.399129 9.344348 6.75139 7.425658 8.895319 4.757232 5.850249 4.658689 2.978692 8.563828 7.285599 6.141469 4.615335 4.463908 6.072654 6.957568 4.37141 3.832818 5.668583 5.191196 4.624405 5.700575 7.098042 5.860816 7.693717 7.573748 6.72143 7.078693 5.968298 4.649561 5.742129 3.89566 6.28742 5.665861 3.512307 7.024142 3.244179 6.324829 2.326289 6.051208 6.808512 4.574203 4.569624 5.02664 6.158589 3.900516 5.446343 6.587718 4.634735 6.200374 5.279276 4.836103 5.931788 5.090028 6.274072 7.367919 6.164441 5.419801 6.168935 7.2225 5.678062 4.329296 5.614967 7.928426 9.150456 5.570421 4.322687 5.464725 6.12869 4.531669 9.490143 7.871986 4.996787 4.931696 5.807384 5.481461 9.1099 8.505003 8.475334 6.627988 5.063799 5.199506 4.523274 7.160357 7.351565 5.124413 5.283136 8.74064 9.189922 7.43547 4.977685 5.407644 5.1735 5.336957 6.401366 7.412092 7.537267 6.994736 4.968603 6.518738 7.73262 8.113093 5.176038 3.076314 6.112235 4.202196 5.544358 3.412449 5.949692 5.224827 6.348514 4.93779 7.782185 10.31036 5.151317 6.006614 8.863251 7.361225 3.899191 3.218863 4.241154 5.800651 6.265806 7.085165 4.855647 5.357915 6.100674 5.034666 8.650015 4.29137 5.811947 6.712791 5.408833 7.646687 3.502703 5.110952 4.659907 7.604177 5.937425 5.866728 6.159095 7.46805 8.606093 7.375897 6.92855 6.509856 6.431045 6.453495 6.670508 4.619067 3.998168 6.588294 3.885972 4.0691 5.910358 5.071509 4.522496 6.887819 6.441977 5.411716 5.235899 4.74786 8.090625 6.943479 7.017166 5.51785 6.793176 4.80824 6.191496 8.435747 5.877624 7.260453 5.520065 6.549707 5.878439 2.834534 5.593981 5.879198 5.225994 5.958271 5.035988 5.622365 6.380444 6.018968 3.81009 4.50566 6.210288 7.232241 10.40165 4.471928 6.391722 3.63648 6.830061 6.022771 8.548593 7.621706 5.907766 2.680027 4.81009 6.6624 9.088426 6.245469 7.169644 5.190713 6.462647 5.015298 5.595246 4.584971 6.695376 9.353355 9.602474 6.342888 6.102886 6.081091 6.821689 6.670315 4.366896 6.122551 4.835679 6.862592 9.568318 7.723577 5.292049 5.466575 4.486658 7.562045 5.829622 7.289166 5.035162 6.377368 5.657289 6.538374 5.499017 6.902515 3.648513 5.931917 5.603261 8.992366 5.581636 5.549367 8.611194 5.065738 6.705111 4.718602 7.052924 6.703723 5.4159 7.881637 7.156176 4.846881 6.991941 7.933074 4.928307 6.409493 6.374671 7.990638 6.428622 8.431796 6.964395 6.018551 7.088629 5.31452 7.021229 6.643683 6.235639 6.630566 5.157871 7.448169 3.310027 3.135776 4.613052 5.458646 8.612812 5.628186 5.159902 5.870063 8.583282 8.046679 7.04645 4.792978 5.691592 6.700338 5.115808 6.865522 5.345785 6.193008 4.85467 5.816179 6.977386 6.796488 6.482765 5.774964 6.517138 8.071779 5.490643 4.344635 6.971489 5.005458 3.81887 5.231539 6.698337 6.735713 6.640793 4.098554 7.342605 5.775732 4.679068 4.375921 6.134596 6.536894 4.939264 6.530108 5.983473 4.657345 7.770502 5.880048 6.156594 4.097016 5.381704 7.014562 9.748199 3.705026 5.073883 6.803254 6.717213 6.074294 6.239789 5.744887 5.455228 6.336045 6.272628 5.973654 4.751153 6.350062 8.1285 5.482188 4.001334 5.070397 7.00714 6.478093 3.816807 5.859116 7.244159 4.485507 8.364345 6.594892 2.852986 4.813452 6.471945 6.476514 5.918798 7.975203 5.973985 4.853261 6.887093 5.766097 7.561216 4.57939 5.848743 6.2105 8.832328 7.562859 4.591032 7.802271 7.990573 5.44597 7.228008 7.005901 6.266955 8.671764 4.57129 6.163767 6.807494 5.975416 5.811525 9.499364 7.026134 11.19355 5.39821 6.843025 4.829681 2.30882 6.912477 6.55368 6.002006 11.74592 6.673881 7.60945 6.744287 6.916177 7.096148 7.22811 11.21351 5.044948 ]
<!EndOfComponent> 
</Nnet> 
