<Nnet> 
<AddShift> 1024 1024 
<LearnRateCoef> 0  [ -0.09458126 -0.1372986 -0.09708603 -0.09990183 -0.01539986 -0.1359099 -0.07401311 -0.07747294 -0.09368123 -0.1142377 -0.08913755 -0.01306485 -0.04915608 -0.04409435 -0.08968445 -0.07232173 -0.06104957 -0.09974947 -0.08472501 -0.08490802 -0.1334653 -0.07385524 -0.1100586 -0.08597577 -0.08701846 -0.09483163 -0.01418367 -0.09040792 -0.2239318 -0.1840108 -0.1252821 -0.09506532 -0.07811066 -0.1138187 -0.08365229 -0.1312781 -0.1161396 -0.01523898 -0.01441528 -0.1617539 -0.200182 -0.1000856 -0.1579956 -0.1089397 -0.09144711 -0.1232809 -0.1845006 -0.05140673 -0.0874173 -0.01388911 -0.1495365 -0.07026899 -0.1066205 -0.1538271 -0.1042407 -0.1076036 -0.1047246 -0.07449111 -0.1331365 -0.07453749 -0.1043917 -0.08352727 -0.2527362 -0.01404136 -0.1003654 -0.1051341 -0.08050667 -0.04817921 -0.1037449 -0.07273213 -0.1422345 -0.1578418 -0.1321759 -0.06121731 -0.01382989 -0.103756 -0.01342315 -0.06030237 -0.09177517 -0.1206853 -0.1136928 -0.3264844 -0.1058762 -0.1214313 -0.1289173 -0.1014336 -0.07118818 -0.01423125 -0.1048947 -0.08756704 -0.02333139 -0.07742464 -0.07601391 -0.08717601 -0.2369942 -0.1023906 -0.2032843 -0.0693382 -0.1375603 -0.07320617 -0.0962612 -0.06075816 -0.06781049 -0.1254818 -0.07725284 -0.08923103 -0.07776589 -0.1329282 -0.09305023 -0.1090954 -0.05417985 -0.01454096 -0.08175002 -0.08005161 -0.07499408 -0.1238645 -0.09338458 -0.01395403 -0.1318188 -0.08747192 -0.07393108 -0.01384993 -0.06942654 -0.06583199 -0.1235442 -0.06027636 -0.1012912 -0.117772 -0.0786818 -0.1037979 -0.1330808 -0.01387324 -0.07155088 -0.08277349 -0.07631943 -0.09534844 -0.08337558 -0.08722934 -0.09809522 -0.1346941 -0.08670226 -0.0656412 -0.1241196 -0.2868961 -0.08989531 -0.07935232 -0.036316 -0.09198886 -0.09631135 -0.1005705 -0.1434077 -0.1066689 -0.1447045 -0.09972184 -0.1119388 -0.09523161 -0.1039167 -0.06567275 -0.08536266 -0.06762158 -0.1232058 -0.0734895 -0.04667667 -0.06535579 -0.1060648 -0.1013269 -0.0939855 -0.05923139 -0.08189391 -0.1273157 -0.09347127 -0.08536536 -0.05526924 -0.08199363 -0.1443258 -0.1000809 -0.1195279 -0.06955649 -0.07157878 -0.07041536 -0.2585059 -0.08045376 -0.09594117 -0.1138657 -0.1693776 -0.06737525 -0.05056729 -0.0680792 -0.1729563 -0.1128753 -0.06103683 -0.0929495 -0.08182198 -0.2279767 -0.07583024 -0.1698724 -0.07173859 -0.09817711 -0.09993759 -0.1131945 -0.07312056 -0.01431218 -0.08060273 -0.06698401 -0.08288059 -0.1855743 -0.1447399 -0.01393846 -0.08762502 -0.1592177 -0.1038756 -0.08731418 -0.05060376 -0.1514646 -0.06877118 -0.08358853 -0.07600389 -0.1072701 -0.08283907 -0.1190442 -0.01387477 -0.05398845 -0.06610621 -0.09686938 -0.09225866 -0.05700028 -0.1363613 -0.07422472 -0.110648 -0.06783603 -0.09455962 -0.109843 -0.07895047 -0.01422828 -0.1576097 -0.06947032 -0.09308682 -0.1028061 -0.07908904 -0.08107741 -0.07112121 -0.08153412 -0.09181669 -0.09511066 -0.07176927 -0.1683057 -0.08228377 -0.1253767 -0.01487814 -0.01531817 -0.08821592 -0.1145345 -0.0973355 -0.06354229 -0.1464283 -0.1163354 -0.1122321 -0.1933719 -0.1142131 -0.08330207 -0.1113902 -0.1640343 -0.2613269 -0.08897753 -0.07872294 -0.1035402 -0.1418625 -0.09755731 -0.1034572 -0.09627919 -0.1083969 -0.0711363 -0.1202757 -0.09791526 -0.1132977 -0.09649272 -0.0640792 -0.09152655 -0.06297478 -0.01339115 -0.1174296 -0.1461563 -0.04794376 -0.07390429 -0.1156232 -0.08661679 -0.07654334 -0.08465619 -0.1729197 -0.1301623 -0.0748039 -0.08335359 -0.05848986 -0.08897167 -0.09023686 -0.09515388 -0.1968998 -0.09288529 -0.06049455 -0.07338939 -0.07860811 -0.08515693 -0.08406013 -0.09173086 -0.09447831 -0.09921619 -0.1058874 -0.0989255 -0.07622873 -0.01357925 -0.1220127 -0.09353979 -0.1106582 -0.0879081 -0.08318129 -0.1189067 -0.09695859 -0.04924725 -0.09182004 -0.1065221 -0.06175298 -0.08039331 -0.1162836 -0.05845045 -0.06892545 -0.07302123 -0.2110542 -0.1273043 -0.07589039 -0.01337096 -0.08834308 -0.08307677 -0.06714831 -0.09498349 -0.04066364 -0.09722338 -0.1885857 -0.1054843 -0.123992 -0.04614216 -0.1034509 -0.06428193 -0.0145436 -0.09098911 -0.06231816 -0.1061225 -0.3039047 -0.08391865 -0.1146533 -0.08214031 -0.05861764 -0.07441581 -0.09348552 -0.1455652 -0.04013393 -0.07712753 -0.08136268 -0.06453382 -0.09388278 -0.1143292 -0.128576 -0.08567126 -0.094076 -0.1296564 -0.08252833 -0.09132823 -0.1171501 -0.0636894 -0.06683294 -0.1541449 -0.1164469 -0.1092287 -0.07352088 -0.1224002 -0.04062973 -0.0335383 -0.07960921 -0.07849623 -0.1114353 -0.2080299 -0.01392826 -0.07487603 -0.1316423 -0.1329966 -0.1217305 -0.1185994 -0.0914185 -0.08990463 -0.0900162 -0.1248941 -0.08266284 -0.06946589 -0.02765709 -0.1115795 -0.207069 -0.1217654 -0.1197915 -0.113171 -0.01475352 -0.1441715 -0.0592694 -0.01364077 -0.07764126 -0.09681942 -0.1063698 -0.06193174 -0.08631455 -0.1059681 -0.1165361 -0.09768088 -0.1006147 -0.07578697 -0.1155079 -0.1140741 -0.0136278 -0.06343105 -0.05924205 -0.06719345 -0.08284243 -0.04977191 -0.1076218 -0.04729151 -0.04531455 -0.07265618 -0.1624624 -0.07858054 -0.01585749 -0.177456 -0.09761443 -0.07388032 -0.1498031 -0.05974765 -0.08547083 -0.0142736 -0.06278069 -0.07253312 -0.08746436 -0.2114582 -0.08663227 -0.07839648 -0.08521616 -0.05193248 -0.118337 -0.04976603 -0.06137419 -0.07309811 -0.1323953 -0.09904923 -0.06514102 -0.100798 -0.05613706 -0.06715748 -0.1178779 -0.08076993 -0.1006277 -0.06917379 -0.08954033 -0.111343 -0.07298512 -0.09486072 -0.1271695 -0.1012246 -0.0902848 -0.06456857 -0.08863711 -0.1532242 -0.08594769 -0.1098213 -0.1204716 -0.09441898 -0.1032735 -0.1046154 -0.09410017 -0.01364838 -0.1487914 -0.1614614 -0.2334048 -0.01397723 -0.09427975 -0.1277906 -0.08106791 -0.0750137 -0.06310178 -0.145736 -0.04461735 -0.1293913 -0.0993114 -0.0718516 -0.08611475 -0.01371094 -0.1586016 -0.1187514 -0.0792474 -0.09726371 -0.08414938 -0.05500289 -0.07350565 -0.09131912 -0.1096462 -0.08478467 -0.08383416 -0.1541518 -0.08256686 -0.06630675 -0.1190923 -0.07212804 -0.09043556 -0.1324551 -0.1645017 -0.1388142 -0.07710917 -0.01432714 -0.08184063 -0.08614109 -0.09620532 -0.09574766 -0.07002687 -0.09968674 -0.1535606 -0.1381087 -0.01657888 -0.07612507 -0.308879 -0.1940417 -0.01397364 -0.03053524 -0.09838304 -0.01438501 -0.1849766 -0.07892702 -0.178551 -0.01443919 -0.1166227 -0.07298303 -0.09366222 -0.1543788 -0.05672951 -0.06270474 -0.06361558 -0.01326567 -0.0943462 -0.09351422 -0.09771049 -0.06624062 -0.06693946 -0.05879975 -0.2444852 -0.1004729 -0.08842558 -0.07648929 -0.2219949 -0.117094 -0.1424835 -0.01447091 -0.07413791 -0.077732 -0.1277145 -0.1392089 -0.08217414 -0.1069758 -0.1397492 -0.1052178 -0.1490034 -0.0979614 -0.08072863 -0.07601219 -0.0370837 -0.05587157 -0.04927031 -0.07122976 -0.1052358 -0.04436054 -0.06242605 -0.07436546 -0.06640065 -0.1102346 -0.1910872 -0.1201209 -0.09360249 -0.01350604 -0.07881738 -0.1609433 -0.07719444 -0.05994983 -0.07552648 -0.1029009 -0.08879797 -0.1453821 -0.05866303 -0.08609252 -0.08640491 -0.1000351 -0.01460026 -0.1019168 -0.0931337 -0.01441265 -0.08949153 -0.09468031 -0.07745898 -0.08438007 -0.0145885 -0.1445423 -0.08642986 -0.0946953 -0.07138431 -0.103128 -0.1138534 -0.1615389 -0.1796521 -0.06720093 -0.161749 -0.1157848 -0.06613144 -0.04496373 -0.0571241 -0.1052489 -0.1524349 -0.0775612 -0.1145191 -0.2278323 -0.04473338 -0.08925529 -0.1017341 -0.1307733 -0.09889252 -0.121687 -0.09633461 -0.06543049 -0.1272335 -0.101253 -0.08634046 -0.08254546 -0.1872594 -0.08965474 -0.07760587 -0.1061982 -0.1047562 -0.0549532 -0.08104447 -0.09804054 -0.0906982 -0.06843814 -0.07152221 -0.0404888 -0.09491307 -0.2309555 -0.01385995 -0.08733414 -0.1281423 -0.1302946 -0.09843522 -0.08938866 -0.08674623 -0.05494817 -0.08147412 -0.101245 -0.1428649 -0.1107538 -0.08897264 -0.06726472 -0.03742269 -0.1230736 -0.0659589 -0.0459392 -0.1152286 -0.07427766 -0.1289768 -0.0355491 -0.3412775 -0.0740146 -0.09439325 -0.1349134 -0.05833581 -0.1058063 -0.08072221 -0.08222665 -0.1209829 -0.07216105 -0.08229706 -0.3097145 -0.1204176 -0.09699844 -0.01328713 -0.08252083 -0.07073868 -0.01398157 -0.06949902 -0.1090767 -0.07511381 -0.1149392 -0.08282419 -0.2948315 -0.03400237 -0.31493 -0.1018891 -0.06975248 -0.04793396 -0.09484293 -0.06497658 -0.03368128 -0.06070317 -0.06270996 -0.1055974 -0.1142679 -0.2407714 -0.1150709 -0.09654325 -0.02699475 -0.07898497 -0.1384549 -0.09313433 -0.06285006 -0.09798733 -0.0663151 -0.03041859 -0.1370144 -0.08771588 -0.0781583 -0.09924224 -0.1859632 -0.05608826 -0.07379285 -0.01345441 -0.06451321 -0.159215 -0.115201 -0.09403574 -0.2293902 -0.06454221 -0.09979512 -0.1013269 -0.1450475 -0.232986 -0.07157467 -0.07944547 -0.07167251 -0.08022288 -0.1877729 -0.02805308 -0.04787353 -0.1081116 -0.105011 -0.0708435 -0.08766865 -0.1256315 -0.08928978 -0.06085173 -0.1007174 -0.113139 -0.1281216 -0.08662616 -0.08164588 -0.09887489 -0.05132034 -0.08669012 -0.1183869 -0.07008494 -0.05486983 -0.08917664 -0.0971219 -0.07430328 -0.0686686 -0.1201162 -0.07227383 -0.06565007 -0.09058698 -0.07459831 -0.07079063 -0.06851689 -0.0678087 -0.1131597 -0.01348283 -0.01363903 -0.07288177 -0.1188712 -0.01332078 -0.0878608 -0.05363685 -0.09578648 -0.1158555 -0.07951961 -0.1061958 -0.08129776 -0.1061455 -0.01492257 -0.0511504 -0.09860518 -0.1090942 -0.05468725 -0.05394176 -0.1431945 -0.1022705 -0.08165453 -0.08846587 -0.04337402 -0.09747886 -0.1531231 -0.09974495 -0.1126962 -0.07660922 -0.06580028 -0.06197274 -0.0943018 -0.07759798 -0.06618608 -0.1632182 -0.09768219 -0.0771377 -0.06311938 -0.04590805 -0.1295972 -0.06466433 -0.1223737 -0.07711907 -0.07333981 -0.1367251 -0.08867698 -0.01302437 -0.07031131 -0.0856786 -0.06179991 -0.09226917 -0.120808 -0.08193442 -0.09536745 -0.09062789 -0.05850301 -0.2686746 -0.09126163 -0.107682 -0.1123684 -0.0675339 -0.06992855 -0.1083299 -0.07991266 -0.07044813 -0.1773254 -0.08432265 -0.09275486 -0.08092792 -0.01307855 -0.1299388 -0.06947342 -0.1941846 -0.2189209 -0.08033305 -0.11118 -0.08019058 -0.08871424 -0.05009943 -0.07953839 -0.09380928 -0.09915712 -0.1232984 -0.07019213 -0.1038323 -0.06749726 -0.07864232 -0.08915081 -0.01380638 -0.09234577 -0.1106002 -0.08451495 -0.09090316 -0.0445389 -0.2180254 -0.08304711 -0.1450129 -0.1031231 -0.03931895 -0.08734836 -0.191953 -0.08023054 -0.1566279 -0.01404422 -0.1741316 -0.1128066 -0.09629114 -0.09863164 -0.1291166 -0.0138482 -0.01291366 -0.08091156 -0.09220522 -0.08049537 -0.1059598 -0.1149363 -0.08143601 -0.06946599 -0.07737909 -0.1072878 -0.01738887 -0.09311707 -0.1120502 -0.1408838 -0.0909855 -0.09234927 -0.07526647 -0.1919334 -0.2786669 -0.09581994 -0.1227216 -0.05441088 -0.05759871 -0.01324722 -0.07590181 -0.01432553 -0.07861218 -0.08839859 -0.123224 -0.0772572 -0.1129953 -0.1097331 -0.05215317 -0.1060278 -0.08941192 -0.07565391 -0.08284619 -0.102549 -0.0727884 -0.1037751 -0.3129035 -0.06850702 -0.08103853 -0.06431866 -0.1913906 -0.04483931 -0.1755767 -0.09130167 -0.1077957 -0.1461939 -0.07325738 -0.03770246 -0.07118434 -0.07124166 -0.1317651 -0.1208871 -0.07993716 -0.06369582 -0.09190556 -0.09028763 -0.01464227 -0.1286512 -0.07970844 -0.05952937 -0.06249966 -0.01397367 -0.09894189 -0.09090239 -0.1609835 -0.01379118 -0.06684987 -0.1246424 -0.1797553 -0.04931586 -0.08992227 -0.07476205 -0.01657163 -0.1153017 -0.088508 -0.1599689 -0.1126586 -0.132633 -0.07751595 -0.1286711 -0.1094792 -0.09901419 -0.1374586 -0.06987852 -0.05599035 -0.1066204 -0.08914084 -0.07009142 -0.06239825 -0.106009 -0.08992289 -0.2267043 -0.04278629 -0.1247458 -0.0645745 -0.08377435 -0.0814226 -0.2646962 -0.06777086 -0.07699865 -0.1077811 -0.01361907 -0.277532 -0.05701651 -0.08343165 -0.07279401 -0.1080586 -0.05805128 -0.05050888 -0.07520019 -0.06810229 -0.07433555 -0.09396716 -0.2582713 -0.1134233 -0.07791182 -0.05821141 -0.08294434 -0.05167542 -0.05806251 -0.08721218 -0.05294419 -0.01707876 -0.08928255 -0.1244043 -0.07409076 -0.06565844 -0.09530194 -0.0977147 -0.05670955 -0.0765715 -0.1387833 -0.1253726 -0.1166079 -0.01803024 -0.1187784 -0.01451567 -0.1162297 -0.1701069 ]
<!EndOfComponent> 
<Rescale> 1024 1024 
<LearnRateCoef> 0  [ 6.504987 4.641927 7.45633 6.455488 341.1964 4.53077 8.613284 8.247912 7.424343 6.01893 6.424051 576.9625 6.245071 7.513563 7.899252 9.913464 5.894247 6.000405 7.626574 6.535233 4.911381 8.602541 4.609755 7.846811 4.65287 5.827423 442.8706 8.434324 3.028665 3.262814 5.035852 6.329584 8.770802 6.04475 5.763285 5.109933 4.77645 348.7966 418.929 4.795669 3.314073 6.26313 4.23932 5.442569 4.580891 5.013771 3.507581 6.981238 7.275681 475.5704 4.318075 5.757264 4.400387 4.241385 5.48278 6.225617 5.294955 8.446145 3.873262 8.835255 5.3426 8.048242 2.758361 453.0533 7.253421 5.720453 8.292372 10.68671 7.338895 8.431107 4.067814 3.469668 4.332536 8.373232 478.0388 6.732689 530.3365 8.837123 6.9174 3.770678 6.281823 2.296402 6.473865 6.174192 5.621662 5.433456 7.246543 431.6789 5.887044 6.850178 8.808678 6.090009 6.996367 6.798429 2.929861 6.802494 3.253708 8.833376 5.914082 7.667496 7.813171 6.489211 7.91095 3.6993 7.373293 5.657056 5.997968 3.607279 6.709004 5.713093 6.253186 403.32 8.042692 7.109678 7.303627 4.667225 7.100787 458.314 4.903583 8.446944 8.16323 476.9489 6.635305 8.983029 5.312424 5.619748 6.45747 3.981457 8.425605 5.318979 4.971885 478.9722 6.745471 6.964931 7.903927 6.62135 8.524327 7.579585 5.772294 5.663507 7.344039 6.894228 5.646155 2.941274 8.014377 7.877797 8.905231 5.915671 7.143952 6.169066 5.487173 7.571374 5.49879 6.312168 5.21593 5.154178 7.281957 9.443637 5.085487 5.805369 6.254934 5.65546 6.577584 9.516632 7.088832 7.665825 6.754716 6.82289 6.617403 4.975515 6.54788 7.054182 6.465125 6.925366 5.023451 4.780401 4.77579 7.331017 7.378548 5.230527 2.769362 7.580609 6.871408 5.501022 3.515063 6.427293 6.746631 8.897085 4.885303 6.950367 9.217045 7.937223 7.668293 3.051121 5.140934 4.56354 9.39139 4.607883 7.02036 6.059889 7.97991 432.8262 5.821066 8.514559 6.854475 3.04721 5.125976 469.0971 6.752454 3.111385 5.627974 6.488134 8.967565 4.20056 4.786807 4.597657 7.400144 6.297636 6.848502 5.960364 477.6857 6.618555 6.789898 7.647577 3.817316 7.316702 5.45737 7.811504 6.649837 6.037103 6.341252 4.814316 7.892728 432.9725 3.339631 6.598904 6.078964 6.201274 6.689584 8.945631 5.743041 6.649615 7.515747 6.486703 8.05893 3.915658 7.603005 4.84156 376.2188 344.7381 6.380651 6.78027 6.757144 5.16335 5.467821 5.551038 6.57876 3.690585 7.015882 4.337966 4.434705 5.160656 2.734007 5.884529 8.455215 4.8611 3.751136 6.885616 6.832871 5.327247 6.467513 7.68346 3.750457 7.362202 5.710983 5.968653 5.186049 7.341863 5.358351 530.4691 4.894036 5.162913 6.507578 9.598658 4.536825 5.113968 8.090742 4.437627 4.01038 3.622517 7.657167 6.584388 6.931387 4.950325 4.933364 4.968422 3.074259 7.988294 6.647717 8.791622 5.35694 6.81375 6.83062 6.870418 4.125876 6.760436 7.073832 6.822107 8.381783 509.2072 5.036395 7.211782 4.526984 7.680674 7.748248 5.670656 6.446404 7.362062 6.904794 5.621683 9.415988 8.344628 6.933282 8.371501 9.64467 8.048067 3.13313 6.463499 8.250153 532.3337 8.126474 5.913514 8.584426 7.534742 6.736399 5.75718 3.357655 5.369555 5.185216 6.537482 6.14495 5.602658 408.6937 7.629905 8.254736 6.674048 2.359334 8.146689 5.77151 4.841728 7.079364 6.459795 4.751109 4.794614 6.607199 7.442557 9.01541 6.471201 6.515146 4.416271 4.994349 7.844907 7.776869 6.208468 8.082023 5.773561 5.329636 6.525322 6.433956 3.644596 6.520356 6.518117 6.469878 5.571473 7.377608 13.16058 6.470948 5.822577 5.517059 2.989962 474.6115 5.995818 5.420052 4.727822 4.137817 5.918179 5.687488 6.9006 7.166643 6.495926 6.778558 9.629876 8.544755 6.29858 3.722628 4.314048 5.00625 6.517688 395.6011 3.55896 9.97846 502.8569 5.260593 6.40755 5.001224 6.550796 6.771415 5.55882 6.362437 5.216475 7.018028 7.515585 6.140785 5.615284 504.2822 5.737275 6.59892 7.154167 5.631903 7.551343 6.437199 6.763729 7.041477 7.687891 3.664876 8.638301 262.7135 3.416031 5.72344 5.941663 4.982255 7.072927 5.434076 436.6425 8.296665 5.116399 6.43121 3.288094 6.521009 6.64219 7.731625 6.332435 4.806076 6.558686 6.123816 8.660296 3.689113 4.005227 8.718749 7.053565 6.068973 7.553411 5.666941 7.458498 5.933425 8.860669 7.388253 5.791012 5.729612 7.158012 4.834641 6.913008 7.310591 8.795241 6.053821 4.462937 6.16071 5.382952 5.271753 7.202572 6.417033 6.866435 4.655488 501.0446 4.288931 4.619483 2.819864 462.804 6.846356 5.922766 5.782617 8.204087 5.52376 4.119445 7.496422 4.922433 7.376812 7.567047 7.269783 496.2625 4.802724 6.120278 8.906737 4.559484 7.354078 8.265604 4.726656 7.087577 6.630403 6.828095 6.863712 4.534912 8.180916 9.268209 6.577075 9.446709 6.124639 3.673187 3.714378 4.891933 6.931332 428.8083 6.418758 7.636667 6.974306 4.071266 6.485179 7.331456 4.327602 5.411515 221.4543 6.015122 2.387567 4.261583 459.8966 9.133246 5.445806 417.3548 3.861675 5.559813 2.98723 425.4901 5.695894 4.811221 6.087446 4.819314 6.101233 5.455766 5.818568 547.9292 6.925073 6.631448 5.25283 5.698227 10.27477 6.594139 2.825848 4.401753 6.840136 9.505722 3.033978 4.814742 3.667173 409.5819 7.68889 4.964215 4.967385 5.297022 5.231433 5.091141 4.850821 5.591381 5.803246 7.009676 6.834763 6.267037 8.321259 6.260905 6.890487 6.033929 5.424585 7.452216 5.624027 8.958359 5.754086 6.10554 3.172787 4.085288 7.425921 518.1846 7.277457 4.937401 8.41169 5.765416 7.856489 4.793165 5.842597 4.586847 6.687963 8.070807 7.482049 6.383489 407.2117 7.412174 7.049067 421.0301 7.352192 5.667487 4.866482 7.796957 394.0526 3.975514 7.554956 7.944128 5.486917 6.928493 6.053114 3.232568 3.375216 4.953241 5.110616 5.326899 4.830946 7.365024 7.157931 6.410703 4.428661 4.853341 4.696274 3.000228 7.029534 5.309618 7.789213 4.322411 5.056439 5.339932 6.989017 6.445187 5.682391 4.468499 7.425236 5.626364 4.048602 7.187696 8.071421 6.481816 6.063827 6.025218 6.519196 6.944023 5.363297 4.830967 4.968193 8.138056 7.645283 3.119608 476.5525 5.976999 4.089686 4.346816 6.293509 5.627372 6.029564 6.548676 6.789011 5.498963 4.997598 5.767449 7.069205 5.430238 7.521865 5.568051 9.08462 8.019882 5.909135 6.834663 5.730082 8.282784 2.436897 8.873528 5.527021 5.395581 10.88825 6.092946 4.631643 4.699749 5.951022 6.800645 6.883661 2.715805 4.526761 6.998425 545.5807 8.170234 5.474882 463.6479 6.204184 6.047678 6.225583 4.644959 4.796867 2.852841 9.16492 2.29481 6.457621 6.970907 8.652137 6.979745 7.585146 7.972998 6.690082 7.332002 4.732302 4.573795 2.814126 5.587159 7.210866 8.453876 4.892713 4.55316 5.126067 5.319652 5.799452 6.132158 17.39977 4.054512 5.386894 5.22037 7.458167 2.973909 8.572004 5.879988 519.0718 5.684283 4.950745 4.901845 7.364113 2.979496 6.321251 7.145502 4.817895 5.17667 2.896045 5.646274 8.472561 8.270588 5.26917 3.041378 8.382009 6.796678 4.848629 6.698895 9.208613 6.424736 5.998837 5.762873 9.886516 6.995706 5.703366 4.411878 6.510851 6.66021 5.604146 8.955062 5.752982 5.677025 7.932666 6.775953 5.523184 6.398593 9.219413 7.825335 5.640868 8.236603 5.7299 7.509097 7.133205 7.598473 5.317312 8.15085 6.549271 516.841 503.9258 7.112425 5.090518 540.7163 8.452188 7.258387 5.615034 6.495269 5.59996 7.136631 4.419251 4.478102 374.9558 6.989553 7.066377 4.120661 6.925527 6.262501 3.32073 5.349031 7.075882 6.826335 8.032681 6.628693 5.013629 5.896621 5.529575 8.805469 5.810889 5.954667 6.25471 6.280537 5.673077 4.1457 4.660724 5.515375 7.330357 7.527913 5.616335 6.52871 6.206666 6.676083 5.21621 5.723982 6.623093 583.3817 5.810285 6.304432 8.923808 6.430891 4.450278 7.101535 7.226436 8.220551 6.099723 2.726075 5.04394 5.994363 6.302723 5.654463 8.244981 6.459098 5.611359 7.464571 3.571217 7.473431 5.247174 6.165719 574.6104 5.71141 7.547951 3.035848 2.948592 7.712112 4.055737 8.689642 5.539482 6.370724 6.293959 5.727579 5.338196 5.294785 9.48337 6.116309 6.253891 8.635005 5.762047 482.5037 6.673656 5.882303 5.204633 5.97439 7.933888 2.837808 6.309645 4.169091 6.879452 6.67391 6.438722 3.34412 4.431722 4.522189 456.5157 4.499717 5.068511 7.434096 5.419945 4.84816 482.2003 597.5711 9.026212 6.609812 8.12176 5.399083 4.603198 7.115533 7.282246 6.350618 6.605006 193.4874 5.905884 5.597426 4.799418 6.715878 5.753151 8.430921 3.25861 2.802467 6.459953 3.981341 6.305412 6.787114 552.9047 6.682729 431.1552 4.903001 5.591214 6.016969 6.109168 4.909296 5.173084 5.972649 6.74193 7.225166 4.633202 5.860878 6.80321 5.132061 6.684588 2.489703 9.412174 6.77095 5.464041 4.087245 6.872399 3.063285 8.181437 4.171258 5.018718 8.586965 7.246742 6.539689 7.141203 3.650396 5.484506 4.79003 5.479673 5.934231 8.123146 398.4421 5.811087 8.012444 8.095834 10.34128 459.4803 7.11924 7.017298 5.189285 485.77 6.711025 4.09071 3.755786 6.427777 5.161021 4.815558 246.4186 6.447989 4.840731 4.054348 4.880595 4.702703 9.097025 5.855376 5.453088 6.203698 5.002321 7.55541 5.947709 6.375607 6.873039 8.8814 5.92172 6.388584 6.196389 3.039413 6.97317 3.69538 7.105065 4.680465 6.098362 2.616954 9.698801 7.472338 6.284956 502.6305 2.594286 5.952219 7.812696 9.528574 6.954819 6.14452 7.602194 5.593759 7.525823 7.564108 7.990242 2.93004 5.127431 6.146434 6.547167 8.044268 8.082664 8.3974 6.293625 7.874427 188.0034 6.852772 5.585795 5.54187 6.90476 7.535384 7.689941 7.008524 5.850668 4.763255 4.676757 4.540274 154.9711 6.325743 400.4116 4.881513 3.915297 ]
<!EndOfComponent> 
</Nnet> 
