<Nnet> 
<AddShift> 1024 1024 
<LearnRateCoef> 0  [ -0.08790325 -0.1384993 -0.0819231 -0.06921338 -0.01433444 -0.06991529 -0.117551 -0.0147194 -0.08322889 -0.09305664 -0.1028747 -0.01396157 -0.09373107 -0.0753146 -0.1122426 -0.05382201 -0.07470788 -0.05611091 -0.0616311 -0.07467094 -0.105014 -0.07676449 -0.1700832 -0.09930235 -0.1043675 -0.0683373 -0.01356659 -0.1093094 -0.06202758 -0.08918656 -0.08061387 -0.03013848 -0.08202651 -0.05871599 -0.1073915 -0.0884533 -0.08435947 -0.01489049 -0.0140965 -0.08067877 -0.1042614 -0.1055859 -0.1674247 -0.09479203 -0.0799653 -0.1861856 -0.08020322 -0.07906743 -0.07681628 -0.09872424 -0.1529834 -0.08255138 -0.09802046 -0.07837683 -0.0890623 -0.07017395 -0.073102 -0.09060241 -0.08007685 -0.09137394 -0.08934224 -0.01578756 -0.07882366 -0.01395309 -0.1152798 -0.07499091 -0.01441798 -0.01500526 -0.09739857 -0.07632886 -0.1066927 -0.0495395 -0.09121812 -0.01355226 -0.08174054 -0.0596194 -0.01339114 -0.08846999 -0.1046418 -0.08958924 -0.1175136 -0.2536035 -0.1141968 -0.116365 -0.05098789 -0.08150421 -0.1005477 -0.01421901 -0.08723627 -0.1071903 -0.08594768 -0.06876753 -0.0947957 -0.1670334 -0.1778572 -0.10648 -0.07821304 -0.06430332 -0.1098899 -0.08827964 -0.01371227 -0.07875115 -0.08394668 -0.06163554 -0.09838795 -0.07680815 -0.1015302 -0.1029364 -0.1263998 -0.1031648 -0.07358836 -0.01387536 -0.0803522 -0.09654149 -0.08203652 -0.08559064 -0.07180847 -0.01381284 -0.05733084 -0.0935844 -0.0798555 -0.0794112 -0.1181042 -0.07940333 -0.06599902 -0.1066385 -0.1228001 -0.06873391 -0.0139489 -0.113925 -0.09902968 -0.01433214 -0.01380523 -0.01427512 -0.1127124 -0.01499564 -0.01443604 -0.09738441 -0.08348007 -0.01426603 -0.1011787 -0.077012 -0.01483217 -0.09381138 -0.08303958 -0.06810783 -0.09103511 -0.0508958 -0.1163579 -0.08626126 -0.1075646 -0.07873867 -0.1301332 -0.08410438 -0.1124425 -0.08281387 -0.01383642 -0.05655477 -0.02590972 -0.06109609 -0.01426562 -0.05579124 -0.01388632 -0.06796319 -0.07134601 -0.111773 -0.01445948 -0.01363588 -0.1641878 -0.08811282 -0.05979783 -0.08742779 -0.07926165 -0.09366798 -0.04731156 -0.06815777 -0.1686194 -0.07211257 -0.08075373 -0.07905019 -0.1039115 -0.09220134 -0.01386053 -0.1035985 -0.1511353 -0.08383431 -0.1169365 -0.01514387 -0.08927891 -0.01412274 -0.0657748 -0.06463868 -0.09802204 -0.07340467 -0.1655932 -0.118942 -0.01389851 -0.08169116 -0.0905074 -0.01564871 -0.1194673 -0.07691666 -0.09996813 -0.1091417 -0.1314957 -0.07755223 -0.07960771 -0.01373514 -0.07097963 -0.1326248 -0.1733512 -0.05360579 -0.01370048 -0.1010532 -0.05489823 -0.07939095 -0.01458467 -0.3146453 -0.07185849 -0.08110308 -0.09818655 -0.07186189 -0.098764 -0.01474868 -0.07833273 -0.09307955 -0.1076929 -0.1550715 -0.0916726 -0.07157476 -0.1136563 -0.06463037 -0.01392174 -0.01378583 -0.2541823 -0.09012353 -0.09538221 -0.1012274 -0.07404919 -0.08749327 -0.0927586 -0.01362044 -0.01447047 -0.1082074 -0.01515868 -0.0795937 -0.01469663 -0.111301 -0.0140619 -0.06653383 -0.08711902 -0.06971835 -0.1123523 -0.1139284 -0.088886 -0.06401433 -0.01451881 -0.1954455 -0.06745051 -0.07113397 -0.01343963 -0.09530458 -0.07712022 -0.08161738 -0.07541607 -0.09617627 -0.1042897 -0.06809754 -0.05969662 -0.07721054 -0.1127443 -0.1048212 -0.09290733 -0.1032031 -0.07689653 -0.08307336 -0.1495778 -0.105246 -0.07668599 -0.07026548 -0.06324324 -0.1044319 -0.09210827 -0.08909494 -0.09140137 -0.01356015 -0.01475113 -0.09490996 -0.1149616 -0.0728114 -0.05600333 -0.1066716 -0.09023651 -0.08340241 -0.01355664 -0.247482 -0.1211306 -0.0990703 -0.0822061 -0.09493569 -0.06346601 -0.08147132 -0.01409792 -0.1242711 -0.0940467 -0.1024192 -0.09954362 -0.1245967 -0.01361388 -0.0139067 -0.08637062 -0.05812446 -0.1231243 -0.05981753 -0.01444565 -0.05739043 -0.07170159 -0.1008125 -0.07392345 -0.1471933 -0.09336128 -0.01459707 -0.08092961 -0.01431686 -0.1305891 -0.1410446 -0.06927614 -0.07252434 -0.07236628 -0.01460629 -0.05729861 -0.1020402 -0.06945409 -0.1061902 -0.1341119 -0.09340823 -0.1000622 -0.01409838 -0.07746889 -0.07550235 -0.06163259 -0.09231237 -0.0906112 -0.09172179 -0.013805 -0.1142748 -0.08917493 -0.07408246 -0.1476523 -0.08943193 -0.08108524 -0.08167345 -0.05965012 -0.06285482 -0.1057027 -0.09450072 -0.0133332 -0.06609826 -0.1400765 -0.1095461 -0.01495907 -0.1048517 -0.07421231 -0.01326553 -0.06818688 -0.08253009 -0.063206 -0.1033302 -0.1003796 -0.1608256 -0.05321607 -0.07407474 -0.01433762 -0.06603188 -0.09210414 -0.01362129 -0.0789184 -0.09307694 -0.1189879 -0.08871859 -0.01386681 -0.08474916 -0.07198406 -0.09034646 -0.0403404 -0.07051212 -0.0786294 -0.01406005 -0.05002045 -0.1625744 -0.09772083 -0.1023379 -0.06968844 -0.08620892 -0.06090255 -0.09309489 -0.08019294 -0.09199019 -0.01394029 -0.08104535 -0.1268655 -0.01373144 -0.1086422 -0.08114977 -0.06753877 -0.1036968 -0.06014516 -0.2068807 -0.08773828 -0.09275254 -0.05883344 -0.09234599 -0.1370682 -0.07405578 -0.01400079 -0.05066655 -0.1174185 -0.08741735 -0.1015075 -0.0729582 -0.07039008 -0.0832236 -0.1424079 -0.319862 -0.09099614 -0.05968759 -0.01410262 -0.176444 -0.09102242 -0.01457919 -0.08136274 -0.084684 -0.09036359 -0.0134719 -0.01352111 -0.09056219 -0.01526562 -0.07475267 -0.1248706 -0.04764444 -0.08645049 -0.07546783 -0.07905422 -0.1558834 -0.05285887 -0.0150853 -0.1020016 -0.151514 -0.05893206 -0.07098819 -0.1073935 -0.07725672 -0.1034501 -0.06680409 -0.1331573 -0.08946204 -0.08490408 -0.06330637 -0.1216089 -0.0862947 -0.088898 -0.1167571 -0.1068145 -0.1277966 -0.06211927 -0.06727628 -0.1047059 -0.1195932 -0.0800946 -0.07808485 -0.09561449 -0.137399 -0.1005848 -0.01496528 -0.07370114 -0.1214188 -0.08798726 -0.124929 -0.09163462 -0.09396227 -0.0811267 -0.01359246 -0.110394 -0.09723686 -0.01482482 -0.09204528 -0.09060931 -0.05049746 -0.07032701 -0.01358055 -0.06619544 -0.1324765 -0.01444431 -0.1272136 -0.01413776 -0.06086052 -0.107195 -0.06902491 -0.08895005 -0.102774 -0.08603382 -0.07402124 -0.06731561 -0.06804726 -0.1497865 -0.06174204 -0.09635592 -0.1338644 -0.1337697 -0.1673232 -0.06433307 -0.08417454 -0.07887626 -0.09171627 -0.05605743 -0.0824414 -0.07522336 -0.06992935 -0.1207808 -0.0984978 -0.01578875 -0.1236358 -0.1106182 -0.06239633 -0.01343198 -0.09493485 -0.07959798 -0.01778334 -0.1891261 -0.01402415 -0.1179742 -0.01412779 -0.01346657 -0.07400782 -0.1328713 -0.07596854 -0.08075041 -0.1432366 -0.01552545 -0.01367373 -0.1580405 -0.01383863 -0.01447333 -0.1828329 -0.08368041 -0.06871291 -0.04571631 -0.08739866 -0.07862683 -0.01363771 -0.1003734 -0.07952265 -0.1188042 -0.01379037 -0.01408071 -0.08665708 -0.09037793 -0.1324548 -0.1374418 -0.01436012 -0.0857332 -0.09327001 -0.09646738 -0.01463315 -0.08368824 -0.1047478 -0.06961044 -0.08300862 -0.1039757 -0.08060503 -0.01417734 -0.01643832 -0.07689917 -0.07974053 -0.1039504 -0.07623307 -0.07751506 -0.09106143 -0.08390791 -0.01429395 -0.3193144 -0.1125502 -0.08652477 -0.1020316 -0.08559895 -0.09911612 -0.1050178 -0.1219702 -0.06281503 -0.07720807 -0.01334622 -0.09648699 -0.0153115 -0.07339713 -0.06693774 -0.01408774 -0.1626225 -0.07380671 -0.09254397 -0.06734821 -0.01468051 -0.09454166 -0.1121604 -0.2040825 -0.06226778 -0.07106233 -0.01381473 -0.2069431 -0.1048084 -0.08631491 -0.1015534 -0.1142309 -0.08143744 -0.07921812 -0.08891062 -0.06285949 -0.09242718 -0.1911184 -0.08220918 -0.1794352 -0.09181451 -0.1818459 -0.09385215 -0.06469782 -0.0822912 -0.1253921 -0.06505816 -0.1363067 -0.08555133 -0.07317825 -0.0931353 -0.1206996 -0.1069344 -0.06002364 -0.09851182 -0.06658212 -0.07894122 -0.01495914 -0.05900421 -0.01572827 -0.1265396 -0.1059785 -0.1364328 -0.04723444 -0.1090616 -0.1283529 -0.01494668 -0.0891614 -0.1038296 -0.07600874 -0.08574299 -0.1276004 -0.1124232 -0.1080744 -0.07906165 -0.09960253 -0.04485328 -0.01509287 -0.01492113 -0.2182365 -0.09296625 -0.09573868 -0.0136729 -0.08689894 -0.1256887 -0.1105166 -0.07479195 -0.08202676 -0.1003969 -0.1052419 -0.05472265 -0.1211432 -0.09488344 -0.08952741 -0.07346982 -0.08222339 -0.1078247 -0.1007385 -0.1249381 -0.07205127 -0.07987054 -0.08221245 -0.01449067 -0.09149346 -0.09066179 -0.0135994 -0.126218 -0.03142985 -0.04765151 -0.1368315 -0.09613049 -0.04470239 -0.08369187 -0.0959402 -0.04621478 -0.3550668 -0.08545388 -0.09602331 -0.08494908 -0.05330469 -0.1024978 -0.09458435 -0.09074358 -0.08577531 -0.08083679 -0.1205185 -0.1158398 -0.08337587 -0.08485413 -0.06786899 -0.1290983 -0.1821603 -0.05151005 -0.01412829 -0.01380729 -0.1168567 -0.01388919 -0.1029422 -0.08684186 -0.09181758 -0.09835663 -0.06096818 -0.0132913 -0.05465453 -0.1212539 -0.07058847 -0.04901944 -0.08790208 -0.07932553 -0.06624778 -0.01373935 -0.08560736 -0.08179503 -0.0833245 -0.08338685 -0.07603481 -0.1156821 -0.07865299 -0.06504001 -0.06151782 -0.1704106 -0.07170438 -0.07988963 -0.1028099 -0.09395264 -0.09169162 -0.06519977 -0.05526225 -0.1107995 -0.06915795 -0.08544245 -0.06166933 -0.07334296 -0.05375531 -0.06218337 -0.09838804 -0.08293349 -0.1114103 -0.1078792 -0.01323524 -0.0925051 -0.106969 -0.09273738 -0.07639791 -0.145662 -0.06833326 -0.1448127 -0.09677479 -0.1050488 -0.05417989 -0.08536441 -0.01480484 -0.01373199 -0.1533291 -0.1590475 -0.01343952 -0.07154764 -0.06867766 -0.05987786 -0.01496354 -0.0804783 -0.0973801 -0.09003423 -0.1472736 -0.08980781 -0.1800329 -0.1290389 -0.08544796 -0.07777467 -0.01417214 -0.09551733 -0.1004485 -0.1025427 -0.01669655 -0.03558074 -0.03683914 -0.09607103 -0.01703539 -0.06945056 -0.0150158 -0.08334801 -0.08343239 -0.1066398 -0.1002915 -0.08559243 -0.1572612 -0.1019061 -0.01476675 -0.08894888 -0.09368338 -0.01440366 -0.0874119 -0.07473472 -0.01389868 -0.1133671 -0.01360914 -0.07056354 -0.01354585 -0.08881643 -0.1582996 -0.09598053 -0.03955458 -0.06961686 -0.1187185 -0.08717916 -0.01442857 -0.07608011 -0.1071689 -0.07328609 -0.06814293 -0.01375282 -0.07579665 -0.09878931 -0.08108319 -0.1130117 -0.1415497 -0.1189802 -0.01464953 -0.1052483 -0.01358005 -0.01344227 -0.2123365 -0.06885554 -0.07051121 -0.1044972 -0.09128788 -0.07919143 -0.01422719 -0.06893635 -0.120589 -0.06959368 -0.08300024 -0.09121751 -0.07761788 -0.08231151 -0.08510485 -0.01407333 -0.07982282 -0.0600202 -0.01371623 -0.01518893 -0.1018725 -0.1642088 -0.09458651 -0.1124695 -0.1350998 -0.08125831 -0.1486637 -0.01439651 -0.1603358 -0.06322289 -0.07167542 -0.09612758 -0.1142154 -0.01411377 -0.1023257 -0.127724 -0.01452385 -0.1088646 -0.0147973 -0.01394256 -0.1158775 -0.09807234 -0.1288642 -0.08447873 -0.07418897 -0.1426165 -0.1157878 -0.0863862 -0.1292967 -0.1018723 -0.01390849 -0.07736672 -0.1053434 -0.1234074 -0.07815439 -0.109669 -0.1015487 -0.07329473 -0.08133545 -0.07542625 -0.06921395 -0.08520982 -0.09406586 -0.01354487 -0.08000565 -0.1009647 -0.09616411 -0.01560153 -0.1220809 -0.08405232 -0.08985884 -0.05780016 -0.09521852 -0.06707074 -0.09428322 -0.08777031 -0.09304041 -0.01365852 -0.06781051 -0.01531089 -0.1141191 -0.09943355 -0.01510241 -0.08436684 -0.08843421 -0.08708675 -0.1048241 -0.04799998 -0.09136397 -0.1239637 -0.08118404 -0.07730877 -0.1049918 -0.09325245 -0.06104119 -0.08572404 -0.05895828 -0.06336232 -0.09002184 -0.09336457 -0.01385052 -0.1779395 -0.07798082 -0.03662974 -0.07901302 -0.01601222 -0.0677323 -0.09505899 -0.09275384 -0.01449782 -0.1595225 -0.1367614 -0.07102503 -0.07379236 -0.01426328 -0.0992166 -0.07804184 -0.08842383 -0.07976305 -0.0938471 -0.08403318 -0.1061175 -0.06484094 -0.1011087 -0.07827405 -0.05015625 -0.01396163 -0.07283054 -0.07040428 -0.01634847 -0.07530802 -0.1040289 -0.06486855 -0.01434957 -0.01566161 -0.07748564 -0.09900431 -0.1116292 -0.06935273 -0.07200526 -0.1007691 -0.06011599 -0.07061149 -0.1128895 -0.0693919 -0.01369762 -0.1094598 -0.07916591 -0.08535292 -0.1034827 -0.05832131 -0.07428693 -0.1034516 -0.07131245 -0.09234717 -0.06201985 -0.01415227 -0.309361 -0.09529945 -0.07306992 -0.07188927 -0.01409796 -0.0138176 -0.09214625 -0.08374177 -0.123407 -0.01431042 -0.01368444 -0.08850681 -0.07899308 -0.1325543 -0.01517182 -0.01421936 -0.05952903 -0.09326144 -0.1024255 -0.08902797 -0.0704543 -0.01389158 -0.05678146 -0.01498214 -0.09331784 -0.09657462 ]
<!EndOfComponent> 
<Rescale> 1024 1024 
<LearnRateCoef> 0  [ 6.610492 4.678928 7.107554 7.688811 416.0881 7.486178 3.975206 362.9638 6.428065 6.37865 5.059091 460.0255 7.835355 6.750194 6.087821 8.523042 6.00694 5.721486 6.290788 6.511957 4.728133 8.497608 3.073012 5.161833 5.347789 6.549699 517.3553 5.227128 6.247465 4.47654 5.776255 7.136346 7.165932 8.829045 5.162268 6.309703 5.958447 352.4906 439.8354 7.882476 6.317676 4.735444 3.185724 6.026412 5.72921 3.361462 6.23162 5.263134 6.683763 6.491021 3.5109 6.782867 5.097928 7.416559 7.854773 7.305825 7.651231 7.176363 7.734713 7.266781 4.774069 265.2359 8.31173 464.1247 6.171053 8.29638 402.5204 341.3346 6.346104 7.312698 3.813784 8.713274 6.799126 520.1668 6.85866 5.706811 543.1071 4.96997 4.848042 6.752379 5.72695 2.733062 5.455233 5.158504 7.072708 6.661679 5.869915 430.5793 7.54594 4.476898 4.967976 7.855261 6.106193 3.380951 3.439916 5.184515 6.360719 6.009158 5.418954 6.773662 494.7572 8.429569 5.854933 5.35821 5.665616 7.426048 5.639907 6.374245 5.757457 6.642932 6.898012 475.7477 7.936966 4.52383 5.919403 6.656138 5.238154 484.332 6.220857 5.916818 6.287835 8.830295 4.067388 6.447876 7.58155 5.794785 4.863318 7.152217 463.2491 4.205155 6.063624 422.4321 483.1507 421.7456 5.483454 339.1347 402.0187 6.582245 7.660448 428.2855 5.970464 5.459552 358.943 6.718034 6.615857 7.599998 5.914229 7.956035 4.522031 6.361165 5.654377 6.610426 3.717936 6.560119 5.546755 6.77988 478.8606 8.305662 7.789623 7.049011 421.2717 7.575318 473.9005 6.771022 6.588159 4.975618 397.8434 509.4612 3.279377 5.469172 9.026868 6.354125 5.818286 5.950864 7.817991 7.757199 3.323385 6.903607 5.287511 6.992824 5.621287 6.53192 472.9385 6.422056 4.707921 5.789501 5.874288 322.285 5.060944 443.3875 7.802196 7.263927 6.081418 6.360773 3.190502 4.901034 471.6832 5.987368 4.497457 286.328 5.721814 7.442417 4.572766 6.967603 3.681955 7.952052 6.316364 493.8434 8.012602 3.488103 4.398921 6.469501 500.497 7.065136 9.122236 7.031507 384.8183 2.278873 7.836317 5.04617 6.351628 4.816846 4.878205 361.3057 7.265378 3.724482 4.926883 3.465196 6.104964 5.330316 6.00684 5.988764 466.3592 486.9895 2.592623 4.968125 7.959518 4.419908 5.647773 4.284168 7.790702 509.6807 399.8388 5.204559 320.7549 4.987647 371.4201 4.551184 450.8586 7.227603 4.552921 6.342021 4.219264 5.749471 5.247223 6.452481 392.1894 3.13909 5.514159 7.135217 537.3499 4.51379 8.051848 7.372083 7.467663 5.259571 6.186791 7.328063 8.753085 5.2777 5.004065 5.873014 4.814116 6.365739 5.969454 5.761791 4.633163 6.415522 7.649896 7.768799 7.204585 5.641611 6.225122 6.964001 6.598823 520.4459 362.2776 5.755265 5.499532 6.239046 8.751724 5.781993 6.837516 6.640176 518.8657 2.639307 5.541107 6.76386 5.901722 5.339395 6.22737 5.863082 453.0181 4.347111 4.628422 5.281415 6.303579 5.399082 510.461 464.1159 5.802285 10.09842 4.433711 8.612349 398.2441 9.279531 7.769278 6.483792 7.29568 3.867733 6.635172 385.9412 6.794096 420.7648 4.445522 5.074842 9.007707 6.346618 6.490852 378.1977 9.168568 5.604825 5.932385 6.227664 4.257678 5.07084 5.397874 441.5434 4.8871 6.920578 6.509181 5.897484 6.90527 6.292017 481.9305 5.281377 6.246495 7.95887 4.148383 6.875841 7.951483 6.294286 7.62685 8.096918 6.104302 5.588839 550.4799 4.811184 4.241694 5.022612 343.1947 6.169335 6.199808 561.6555 7.879384 6.883635 7.946005 5.828887 4.965397 3.126583 9.576265 8.205235 408.5019 7.488946 5.095848 509.4968 6.671369 5.840067 3.670878 6.286548 476.8893 7.588855 5.863026 4.948168 19.20552 6.938166 5.388079 447.7982 9.406087 3.500378 6.19077 3.972773 6.704394 6.389268 8.190286 5.656834 6.339239 6.051517 465.3102 7.889479 5.951545 496.6177 5.574936 5.146305 7.721351 5.302615 8.14351 2.776452 7.603772 5.192304 6.763971 4.886783 4.634005 6.742192 454.2721 5.976782 4.755469 6.020884 5.621675 5.835616 8.665214 7.048801 3.665128 2.422612 6.101781 9.316861 444.8826 3.876781 7.523166 385.3748 7.722279 8.656072 3.749823 531.8566 524.031 4.138363 314.6408 5.992921 5.340562 7.61999 6.781308 6.670174 6.082309 3.525827 8.790863 332.922 4.710539 3.145355 6.509858 7.8479 3.839374 6.445344 4.993353 7.562543 5.136495 6.844896 7.228951 8.116853 5.278809 6.417126 6.586702 5.559336 4.830354 4.799392 8.940749 8.02732 6.061214 5.044431 7.19675 8.302005 6.13385 3.706991 5.081112 344.3263 5.562063 5.597057 6.10207 5.402302 6.404295 5.84702 6.444695 517.968 4.240191 7.634845 362.6317 4.49585 7.060806 6.726394 5.58016 517.7012 8.810773 4.51426 399.3494 3.553107 444.4777 10.12518 4.823842 6.343966 7.778824 6.512897 7.449655 7.167199 8.448426 8.471562 5.110316 6.929815 4.710989 3.477731 5.30478 4.066251 6.50172 8.34099 6.157164 5.748894 8.723463 5.980887 7.671186 7.688683 4.615907 7.038649 269.0465 5.361763 3.863 8.621541 536.1027 5.015121 6.760564 155.7043 3.000198 456.2552 5.234456 440.7339 533.4983 7.290396 3.673059 7.271039 6.768467 4.615399 289.4601 499.823 4.598824 479.5456 398.119 2.996095 7.572496 4.817974 7.217149 4.951339 6.00675 507.6494 5.524133 7.076177 5.143761 486.3598 452.342 7.54701 7.078608 4.636009 4.093369 413.9498 7.793176 5.144264 6.610682 382.9189 7.262893 5.253908 7.902924 6.274242 4.935564 6.36878 433.7789 219.4416 5.458517 6.324463 5.581873 6.528061 7.158394 3.932942 7.944312 416.9952 2.275079 5.364079 5.519598 5.729922 7.332469 5.34562 5.956308 4.863053 6.031132 6.399855 550.3533 5.966164 312.304 6.395312 6.314352 445.5089 3.260094 7.425005 6.462075 9.679736 378.0083 5.158555 5.475849 2.797609 8.627209 8.226335 484.2267 2.777819 5.34522 7.052147 4.896577 4.524454 7.112602 7.923391 6.956337 6.61129 4.398685 3.068668 7.434935 2.88083 5.587271 2.92946 5.091907 7.970695 7.247795 5.295598 6.307981 4.700814 4.08533 6.914401 4.17429 4.543911 5.847316 5.388114 7.31613 5.890738 5.2139 344.2622 7.623544 274.866 5.028244 4.703879 5.050038 7.608066 6.489675 3.783799 345.6792 5.649815 5.818752 6.799153 5.060806 4.859781 4.129804 6.063866 4.165473 5.60966 7.337321 329.7521 346.1964 2.7413 6.286534 6.156691 504.8028 7.437764 5.458081 5.767947 7.759889 7.478588 6.561061 5.126549 6.732389 4.625899 7.420461 5.681 7.644041 5.141114 5.66182 3.851783 4.41327 8.250531 7.090015 7.510243 389.7151 6.304754 4.794182 513.4118 4.945684 8.503116 8.423458 4.794445 6.387428 6.717595 4.585273 4.162431 7.682403 2.306077 6.109746 6.120568 5.534731 11.97339 4.993547 5.320912 4.718601 6.343564 7.237031 4.101983 5.664671 6.73559 7.009896 5.554237 4.365464 3.639541 5.699065 440.6635 483.7477 4.802091 470.4615 5.305227 7.56453 4.386972 6.850195 10.16164 560.4852 8.973601 3.865565 8.275054 7.617188 5.258798 8.730375 6.407036 496.2398 6.637427 5.425809 6.397951 6.484831 4.673298 4.001112 5.448226 5.206413 8.321342 4.226727 8.086809 6.489411 5.350987 4.48551 4.67941 6.662642 6.236832 5.187235 7.222891 6.886852 8.734215 7.508338 7.079035 7.057384 5.117369 7.137093 5.753442 4.619194 569.0266 6.688429 4.213189 6.044344 7.796995 4.613157 9.933212 4.094505 6.718024 5.586093 7.655111 4.20553 358.3853 492.4005 4.349773 3.535002 536.654 7.687106 6.685943 9.335503 341.5553 4.898099 5.966575 6.804289 3.906838 7.329174 2.899525 5.248864 6.841501 5.701886 435.2886 6.520226 5.057514 4.524817 212.2608 6.623246 8.726768 4.864806 202.8735 6.625955 346.2858 5.882064 5.250931 5.597642 5.741204 5.027896 3.741466 5.52342 365.4008 7.502455 7.158062 401.0288 6.01489 5.639655 471.5554 4.333005 511.3051 8.819088 517.5427 5.643932 3.316662 6.552235 10.07901 8.804832 5.555593 6.953926 408.2925 6.698375 5.040166 5.133167 7.080832 493.0002 6.875733 6.133048 7.006618 6.323964 3.953868 4.259639 378.6462 5.091913 517.1037 535.4724 2.904021 6.881681 6.066327 5.784685 5.950727 6.707303 430.6188 9.149882 5.386472 7.282209 7.793152 7.148226 6.725442 9.371483 4.017581 446.1657 7.40834 6.350729 496.3228 324.0603 6.475199 4.979967 5.759194 6.181739 4.518281 6.551228 3.381993 410.4069 3.159525 8.395914 9.242149 4.706007 5.968596 443.1327 4.456602 3.955765 395.7554 5.72655 360.8917 463.1634 6.076841 6.206775 4.830675 5.900147 6.601449 3.729141 5.448891 5.198254 5.088665 5.600507 472.7359 7.290057 4.826261 4.964653 7.577976 5.502731 6.181999 8.229095 7.148339 5.676862 8.550271 4.947617 4.632569 519.4273 7.618259 6.012438 6.279977 279.9465 5.483136 7.872881 4.656378 8.341469 5.579848 7.550502 7.089914 6.210605 5.091188 505.1965 5.054891 310.7253 5.890548 6.144836 328.3412 6.215476 6.002466 6.139184 5.203218 7.631695 5.879032 5.04188 7.999952 8.433037 5.831568 6.202707 7.622616 5.287816 8.932734 7.325252 6.567819 6.760059 478.201 3.422115 5.330358 8.507767 6.50819 254.2233 7.601367 4.939034 4.957542 393.4906 3.400925 3.89024 7.962801 5.526101 426.1534 7.193903 7.957618 6.439055 6.903583 5.271304 6.974037 6.16602 8.237777 7.060063 5.547056 10.03406 462.5678 8.417566 5.449753 221.0208 6.768476 5.440929 5.931231 416.5245 281.7921 5.371804 5.809144 5.405672 5.399189 8.58581 6.027309 5.728094 8.011223 5.674474 6.645119 497.4752 3.887901 6.309364 5.617126 6.253511 8.461697 8.019976 6.583781 7.547002 5.657965 8.82445 436.2178 2.48259 6.647141 7.860205 8.277014 445.2888 478.0303 4.942146 7.340969 4.532664 414.0832 503.5299 6.503572 5.981865 3.393207 320.1351 426.2788 6.778414 6.971589 5.068308 4.211556 8.716797 474.2641 6.349451 341.2804 6.799771 4.741415 ]
<!EndOfComponent> 
</Nnet> 
