<Nnet> 
<AddShift> 1024 1024 
<LearnRateCoef> 0  [ -0.09207967 -0.01332376 -0.1041365 -0.01382661 -0.01330565 -0.01310077 -0.06945115 -0.01293725 -0.01308424 -0.05639032 -0.09498777 -0.01264227 -0.1011564 -0.05120115 -0.01302444 -0.06600767 -0.09242 -0.07230344 -0.1493385 -0.07859197 -0.1017075 -0.0133076 -0.1886255 -0.1099895 -0.05577076 -0.01309881 -0.01294266 -0.01337301 -0.1309548 -0.1140885 -0.01344457 -0.08590221 -0.01321999 -0.1083238 -0.01385522 -0.1500581 -0.07410007 -0.01325264 -0.01266197 -0.07813146 -0.09914249 -0.1042527 -0.271068 -0.06909893 -0.1189191 -0.09188193 -0.0628979 -0.2207607 -0.01342762 -0.01275463 -0.06021446 -0.2492004 -0.09666014 -0.07833126 -0.1447382 -0.1007891 -0.06138033 -0.01281039 -0.1284439 -0.09482118 -0.1053079 -0.01300569 -0.2621451 -0.01307518 -0.01309808 -0.1422607 -0.01305151 -0.0131304 -0.09396292 -0.1164554 -0.01313548 -0.07050399 -0.08092826 -0.01263327 -0.01288837 -0.01300814 -0.01275865 -0.01327327 -0.06948987 -0.2932603 -0.0582267 -0.09492006 -0.06598325 -0.1095796 -0.05895672 -0.0128632 -0.01344627 -0.01328429 -0.1107241 -0.08091141 -0.1341636 -0.01317839 -0.07808441 -0.06096314 -0.07121043 -0.07943448 -0.1717005 -0.04775542 -0.09969059 -0.0720535 -0.01286583 -0.01305038 -0.07155357 -0.0985537 -0.09117253 -0.01306209 -0.116299 -0.1377901 -0.07260917 -0.01302684 -0.1392389 -0.01311888 -0.0881856 -0.0868005 -0.05576412 -0.08792594 -0.07250673 -0.01294222 -0.09490919 -0.06966428 -0.05736245 -0.01303297 -0.0753611 -0.07503052 -0.237186 -0.01304449 -0.1107777 -0.05659796 -0.01285671 -0.07641229 -0.07983153 -0.01313293 -0.01292331 -0.01324501 -0.01272001 -0.01285169 -0.01293414 -0.08929528 -0.09294359 -0.01325836 -0.07639564 -0.1390914 -0.01289471 -0.07050245 -0.1051785 -0.0129916 -0.08751102 -0.08419954 -0.1202328 -0.08154094 -0.08368067 -0.07239152 -0.1401178 -0.01305562 -0.1168406 -0.01285885 -0.01264854 -0.01308515 -0.1006858 -0.08017215 -0.01290614 -0.102525 -0.01316771 -0.06123562 -0.01304614 -0.01348119 -0.01300767 -0.01299829 -0.1177125 -0.05765378 -0.1195991 -0.01336832 -0.01321454 -0.07728151 -0.0135917 -0.01312 -0.02374143 -0.01326863 -0.01343393 -0.01293973 -0.1991113 -0.1195146 -0.01282761 -0.01304367 -0.01353211 -0.120926 -0.2451672 -0.0130657 -0.1624768 -0.01332939 -0.3057765 -0.05371906 -0.1046461 -0.07544305 -0.0933732 -0.1668232 -0.01318918 -0.06297068 -0.07967213 -0.06030604 -0.01316798 -0.09219928 -0.1455969 -0.01296819 -0.1582001 -0.1397247 -0.08182477 -0.01346732 -0.0133175 -0.2014507 -0.07672369 -0.09403621 -0.01312863 -0.05988227 -0.01317491 -0.01334436 -0.01350787 -0.07879616 -0.01323477 -0.09454163 -0.01301738 -0.067689 -0.1024599 -0.01314654 -0.08138521 -0.05338445 -0.1348094 -0.06476781 -0.2511437 -0.2328026 -0.1422216 -0.09601288 -0.121498 -0.01304854 -0.09048313 -0.2433537 -0.01316934 -0.0792136 -0.01305309 -0.1454814 -0.08120697 -0.01286258 -0.01320368 -0.06837554 -0.01353346 -0.1042134 -0.01325677 -0.06899777 -0.01325182 -0.01322563 -0.01351871 -0.05896912 -0.120279 -0.01304076 -0.04364268 -0.08781365 -0.01323525 -0.1250714 -0.1061771 -0.08394828 -0.0720022 -0.09198504 -0.1196567 -0.1128586 -0.01313287 -0.1122233 -0.01302471 -0.05232715 -0.09337982 -0.08254228 -0.01297907 -0.01310429 -0.05246732 -0.2122813 -0.01354162 -0.01330738 -0.08107878 -0.01350576 -0.1471732 -0.01285578 -0.01302453 -0.08229128 -0.1134396 -0.01329165 -0.07361958 -0.01278436 -0.01258818 -0.1844054 -0.06803323 -0.07349126 -0.06588202 -0.01323981 -0.08024513 -0.1135835 -0.01296761 -0.1176571 -0.1025955 -0.01447038 -0.07499485 -0.01295242 -0.117325 -0.0997103 -0.01295565 -0.170158 -0.08149344 -0.07290849 -0.09149597 -0.09676474 -0.01297762 -0.01247578 -0.06137646 -0.01302056 -0.1390572 -0.01303266 -0.01300393 -0.01334378 -0.01293308 -0.1254991 -0.1120409 -0.2614226 -0.1098871 -0.01329301 -0.1069133 -0.01309196 -0.1072393 -0.1179625 -0.1072923 -0.1011622 -0.07342116 -0.0128899 -0.01430973 -0.06262414 -0.1406796 -0.01338806 -0.169454 -0.06369821 -0.01349431 -0.06632883 -0.07022933 -0.114576 -0.2218754 -0.08471059 -0.01326596 -0.1203928 -0.01344998 -0.096026 -0.0902338 -0.06240587 -0.1357946 -0.1330802 -0.06602278 -0.1048965 -0.1019528 -0.08555055 -0.1832209 -0.01290399 -0.01270277 -0.08614088 -0.07320776 -0.1413284 -0.01308901 -0.05372347 -0.01342354 -0.08193989 -0.01312651 -0.06577788 -0.06117811 -0.01322216 -0.08862661 -0.1569619 -0.08625626 -0.01299392 -0.08990356 -0.1239352 -0.06702531 -0.01294657 -0.08093431 -0.08875589 -0.08873463 -0.1663455 -0.01294961 -0.01318971 -0.01297039 -0.09937103 -0.01296511 -0.08954804 -0.08176148 -0.01293634 -0.1169318 -0.01325482 -0.08574615 -0.09919912 -0.07924288 -0.1236017 -0.09091416 -0.06829171 -0.07093643 -0.1225939 -0.01301358 -0.08739511 -0.01318941 -0.01279248 -0.09230068 -0.1428582 -0.06708963 -0.01323834 -0.09691788 -0.1523521 -0.01329473 -0.1153509 -0.324026 -0.02438082 -0.06675479 -0.08551814 -0.01296215 -0.01299736 -0.1206407 -0.111416 -0.1007494 -0.08731883 -0.0130554 -0.06191875 -0.07277682 -0.1758223 -0.09779628 -0.1019746 -0.01324984 -0.1015677 -0.3043993 -0.01333509 -0.1245563 -0.108102 -0.08323207 -0.01277797 -0.01295634 -0.1179011 -0.01360588 -0.08057985 -0.1170443 -0.2350879 -0.01315746 -0.01318395 -0.1050371 -0.06042739 -0.06956194 -0.01308234 -0.07215062 -0.07885865 -0.01317654 -0.01276215 -0.0680868 -0.08176224 -0.09492163 -0.06047871 -0.01346037 -0.01302186 -0.109122 -0.01338873 -0.1717281 -0.01315075 -0.07959644 -0.01310247 -0.01478425 -0.01299944 -0.01275817 -0.07451025 -0.05915168 -0.06196382 -0.06121162 -0.01323308 -0.0131791 -0.09993912 -0.1580415 -0.01283646 -0.107431 -0.1307697 -0.2427925 -0.01282382 -0.1187396 -0.01327344 -0.04909177 -0.0128812 -0.01280819 -0.07820493 -0.01323043 -0.0725434 -0.01327337 -0.01314883 -0.14285 -0.01303019 -0.06262237 -0.08255301 -0.01310542 -0.08911271 -0.01336773 -0.01325225 -0.01348243 -0.1047469 -0.01350956 -0.01334563 -0.0131561 -0.08766371 -0.0799013 -0.0835923 -0.07441913 -0.01333162 -0.1386963 -0.1483375 -0.09238049 -0.1036802 -0.1112143 -0.01494085 -0.03655759 -0.1242879 -0.01314839 -0.01341342 -0.01307352 -0.06059159 -0.09021997 -0.097298 -0.01316084 -0.068128 -0.0959847 -0.1615488 -0.01278082 -0.09462442 -0.1691118 -0.01308598 -0.04435121 -0.01286705 -0.1247847 -0.01305744 -0.01298132 -0.098026 -0.09631743 -0.09554055 -0.06782307 -0.1887013 -0.07832121 -0.01298686 -0.1067288 -0.01290864 -0.0130619 -0.2103631 -0.01337926 -0.08039343 -0.08366328 -0.1070127 -0.08201445 -0.01271816 -0.06955583 -0.07509986 -0.01339423 -0.01278974 -0.01310387 -0.0130409 -0.05723538 -0.0130363 -0.04167031 -0.01442215 -0.0695486 -0.04593181 -0.07836329 -0.01361546 -0.08702075 -0.1085495 -0.1114226 -0.1269949 -0.04696415 -0.1169157 -0.01303934 -0.01335191 -0.1061267 -0.09236886 -0.07490753 -0.08084222 -0.09260102 -0.07631639 -0.01308687 -0.0129516 -0.1224576 -0.1907608 -0.01328266 -0.09740848 -0.08265646 -0.08794333 -0.0724645 -0.1125204 -0.1127165 -0.01333511 -0.01308824 -0.07323693 -0.01319717 -0.01307433 -0.0128902 -0.01373564 -0.300059 -0.08118779 -0.01394189 -0.08550265 -0.01307285 -0.1139925 -0.01312242 -0.1973331 -0.0492932 -0.1174925 -0.0129783 -0.07141605 -0.07113442 -0.1307635 -0.04093673 -0.1765788 -0.1133844 -0.05384449 -0.13072 -0.01300373 -0.09302443 -0.1892302 -0.08979452 -0.0751843 -0.05145712 -0.08558431 -0.3324513 -0.1060648 -0.01369229 -0.07804359 -0.1055643 -0.0128516 -0.1428768 -0.07556463 -0.1488661 -0.07016394 -0.04725366 -0.1548008 -0.01308071 -0.09777196 -0.1525348 -0.01299816 -0.09340297 -0.1034262 -0.04864785 -0.1540473 -0.09885824 -0.08189528 -0.01308692 -0.219578 -0.0135141 -0.07111377 -0.08085483 -0.1109537 -0.0837274 -0.07657467 -0.2688504 -0.1034473 -0.06472548 -0.01271351 -0.09284568 -0.01306587 -0.01301509 -0.1610409 -0.04518247 -0.06479164 -0.01296764 -0.1233788 -0.1573358 -0.01306694 -0.06691928 -0.01277853 -0.1174628 -0.09543582 -0.01319457 -0.09493984 -0.1023591 -0.05663741 -0.1327597 -0.1318007 -0.0969165 -0.04585145 -0.1047577 -0.15792 -0.1031426 -0.07079789 -0.01287827 -0.05738209 -0.08874848 -0.01307105 -0.1347893 -0.0634502 -0.01324893 -0.135128 -0.07398075 -0.1332788 -0.09099064 -0.07476407 -0.01304227 -0.2094208 -0.0691367 -0.1189403 -0.01463127 -0.05397744 -0.1343287 -0.01303207 -0.04294362 -0.120473 -0.2145079 -0.1183509 -0.01304733 -0.1890754 -0.08093082 -0.01278419 -0.1396006 -0.08457825 -0.0749131 -0.08961327 -0.01296903 -0.01414028 -0.01284161 -0.09748263 -0.0133349 -0.05994154 -0.07204011 -0.0135176 -0.01265333 -0.08051971 -0.08387502 -0.04381872 -0.08337254 -0.1060525 -0.1245176 -0.1186928 -0.01342286 -0.06441009 -0.3133973 -0.06030194 -0.1283401 -0.1195219 -0.32174 -0.05873693 -0.01297475 -0.07719416 -0.01320232 -0.01294179 -0.0133389 -0.0784543 -0.0574193 -0.0898945 -0.03129807 -0.1351191 -0.06719533 -0.08858848 -0.06738596 -0.09180827 -0.01329316 -0.05805594 -0.1334467 -0.1176092 -0.1018565 -0.1208021 -0.01321922 -0.0128583 -0.01335199 -0.06007816 -0.06918295 -0.01293273 -0.1008581 -0.1191865 -0.1299396 -0.01275345 -0.07335836 -0.06260917 -0.0873794 -0.01290819 -0.01288091 -0.01258416 -0.09159287 -0.01280111 -0.01314654 -0.01328299 -0.0522286 -0.01297079 -0.08831152 -0.1069191 -0.1415043 -0.08995046 -0.01299504 -0.2137728 -0.1003722 -0.07369595 -0.07152448 -0.09982371 -0.1194581 -0.09852208 -0.05799855 -0.01327941 -0.1056919 -0.01304472 -0.1116527 -0.01322273 -0.1029372 -0.01358246 -0.01304913 -0.2745517 -0.1221007 -0.08424016 -0.09104559 -0.06181037 -0.07721508 -0.01362629 -0.08310006 -0.08384778 -0.01276424 -0.01295236 -0.08926827 -0.01322705 -0.1648015 -0.01272066 -0.01309828 -0.01275478 -0.1215093 -0.1430232 -0.1028497 -0.08786885 -0.01309602 -0.1323815 -0.05590847 -0.01362174 -0.06171051 -0.07164056 -0.1211438 -0.07342581 -0.01329067 -0.01304837 -0.01305658 -0.1323734 -0.09834025 -0.08713171 -0.08807172 -0.01320649 -0.01289577 -0.01286242 -0.01277666 -0.1388782 -0.06409472 -0.1411932 -0.1012281 -0.01322723 -0.09072455 -0.01285053 -0.07874259 -0.06324695 -0.01299741 -0.01296541 -0.1290929 -0.1236977 -0.0130705 -0.1330467 -0.01306193 -0.01294401 -0.07076869 -0.01293986 -0.1036368 -0.1011663 -0.0937142 -0.1096845 -0.07416011 -0.09948989 -0.05834221 -0.09465281 -0.01315793 -0.1466704 -0.01303001 -0.115759 -0.1538903 -0.01353555 -0.01301128 -0.1367213 -0.0838092 -0.08170447 -0.09277736 -0.01295947 -0.0130211 -0.01267262 -0.06850065 -0.1398512 -0.01320759 -0.06772546 -0.07998177 -0.04976417 -0.09687696 -0.0641915 -0.01299558 -0.01287736 -0.1388378 -0.1076618 -0.1470575 -0.01325766 -0.118569 -0.1281348 -0.1408656 -0.1619307 -0.2474554 -0.07209683 -0.1596757 -0.1659625 -0.01283504 -0.06843413 -0.01304063 -0.08170921 -0.08422959 -0.178966 -0.06107672 -0.1164013 -0.1027998 -0.1054601 -0.1037393 -0.01300485 -0.08707846 -0.01308591 -0.01288219 -0.09395315 -0.09791729 -0.2742034 -0.01301644 -0.01291145 -0.1190428 -0.06517908 -0.1114583 -0.2376656 -0.05885468 -0.1026599 -0.01310522 -0.01306094 -0.1720585 -0.06700351 -0.1318596 -0.0645395 -0.01326351 -0.06695224 -0.06698022 -0.01319561 -0.01329205 -0.01317024 -0.1363987 -0.05999045 -0.01308809 -0.08048655 -0.01310555 -0.08810086 -0.08493723 -0.07401024 -0.01302544 -0.1126003 -0.1271401 -0.08867208 -0.07901272 -0.01326138 -0.09970722 -0.07108722 -0.01330583 -0.09617363 -0.038775 -0.1298838 -0.06733756 -0.1190966 -0.01311428 -0.09691039 -0.09989192 -0.09690995 -0.01370063 -0.1148747 -0.01278132 -0.09622881 -0.01303155 -0.1469719 -0.01312582 -0.01329276 -0.05853617 -0.08658016 -0.06939266 -0.12122 -0.07279329 -0.0129685 -0.1949767 -0.01283762 -0.01284995 -0.1852081 -0.0132945 -0.1387417 -0.07695094 -0.1235424 -0.01287527 -0.01280744 -0.1025297 -0.1497706 -0.1496315 -0.1141189 -0.01320206 -0.0130741 -0.2116383 -0.08872247 -0.07874772 -0.01291323 -0.01322825 -0.01262222 -0.08959274 -0.07943001 -0.01305985 -0.01306129 -0.01304462 -0.07464039 -0.1147481 -0.1004448 -0.08806138 -0.01286575 -0.01317563 -0.1148539 -0.2117511 -0.08682542 -0.08103242 -0.01296063 -0.1412264 -0.01307364 -0.07189206 -0.1359296 ]
<!EndOfComponent> 
<Rescale> 1024 1024 
<LearnRateCoef> 0  [ 4.897011 957.2386 5.105185 839.7616 961.8694 1011.643 5.057781 1053.629 1015.831 6.146086 6.429543 1135.103 5.607142 6.494442 1031.099 6.799326 5.573916 5.442666 4.078249 5.192754 4.879426 961.6043 3.216536 5.32152 6.071353 1011.585 1052.338 946.7728 3.926049 5.946823 928.5098 6.90572 982.6011 5.212623 844.1036 4.576051 7.02041 974.3287 1129.597 5.991311 5.615115 6.553891 2.533583 6.226081 5.755206 6.281613 5.77042 3.009541 934.1865 1103.518 8.210882 2.723459 6.120736 6.511702 3.882515 5.645224 5.211938 1087.815 3.540392 6.416708 3.524553 1035.689 2.565778 1018.044 1012.171 4.729924 1023.96 1004.063 7.028167 5.507745 1002.75 6.910258 7.299951 1137.68 1066.634 1034.919 1101.997 970.4405 6.064794 2.87947 8.400539 6.029017 5.370513 4.165482 5.649014 1072.884 929.8064 966.944 5.11921 5.657616 4.962784 992.7046 6.080236 6.107076 6.943964 6.580485 3.344056 6.634108 6.261006 7.856322 1072.66 1023.042 8.095317 3.909252 4.282486 1021.39 5.940595 4.642588 6.502317 1029.596 5.274604 1007.153 7.079781 6.340401 6.075902 4.430081 5.295944 1051.959 6.172091 6.636377 7.267154 1028.793 5.052653 6.216152 2.960485 1025.807 5.053843 5.990386 1075.153 5.528476 6.628722 1003.827 1057.262 976.217 1112.601 1076.271 1054.409 4.624883 6.565982 973.2805 4.411917 5.469162 1064.959 4.945622 6.134721 1039.37 5.480058 6.433277 4.779621 6.561033 4.893033 7.379432 4.093343 1023.303 4.626894 1074.544 1133.391 1015.367 5.700418 6.313456 1061.79 5.802643 995.1227 6.461903 1025.336 921.0167 1035.432 1037.808 4.971804 6.358235 5.979933 947.6202 983.8577 6.816107 897.0123 1006.882 8.98695 970.3282 931.7435 1052.753 3.21066 5.248098 1082.82 1026.431 910.5743 3.648161 2.812074 1020.753 3.718167 956.6364 2.31773 7.933364 5.630441 5.207633 6.157719 3.886482 989.6294 5.706022 4.823072 5.660967 995.0396 7.326752 4.174057 1045.649 4.181047 4.837296 6.44266 925.6713 958.7316 3.278543 5.131806 5.607934 1004.787 5.436723 993.3079 952.7862 915.8047 5.863986 978.1885 5.470365 1032.606 5.017863 6.622681 1000.05 4.921507 5.726376 5.014872 6.447504 2.683482 2.905971 3.402315 6.251242 4.198893 1024.91 6.290883 2.990791 994.9019 6.80699 1023.449 4.138422 5.055056 1073.763 986.4569 7.844026 910.5683 5.109574 973.4047 6.732203 974.8027 981.0321 912.7881 8.929024 4.965429 1026.938 6.836949 5.937504 978.4939 3.572745 5.297351 5.638275 5.614737 5.467091 3.846791 4.251643 1003.379 5.859088 1031.054 6.210226 6.081841 4.40792 1042.63 1010.536 6.176138 3.213516 908.9783 960.931 6.249928 915.0056 4.456327 1074.587 1030.778 4.565424 5.399482 965.0767 4.884413 1095.052 1150.969 2.975518 6.139783 5.988786 5.564628 977.787 6.551157 6.195092 1045.499 4.145362 4.619671 727.2719 7.234201 1049.905 5.02928 5.662973 1049.114 3.018167 5.941264 5.790553 5.89482 7.020841 1042.878 1184.603 5.439515 1032.118 4.996643 1028.84 1036.164 953.4042 1054.695 4.613136 3.772112 2.765122 6.224079 965.1276 6.031463 1013.889 5.827485 5.784706 4.600903 5.829705 5.168386 1066.134 755.2172 6.515608 4.550265 942.6171 3.378011 7.260116 919.5837 5.740853 6.533998 6.189718 2.844165 5.175822 971.6044 3.82145 928.4221 6.856157 5.498355 5.531332 4.654156 4.113032 6.611982 6.020566 5.737689 5.920817 2.954466 1062.166 1117.908 6.292523 5.195357 3.49525 1014.632 5.841021 935.2972 7.631687 1004.863 7.08583 5.596807 982.1355 4.99509 3.680952 5.413236 1039.066 6.518178 5.185694 5.909695 1051.246 4.724914 4.78561 5.067455 2.969508 1050.492 989.9308 1044.757 4.514764 1046.125 6.058218 7.749352 1053.888 5.773392 974.1673 5.715837 6.147056 6.462462 4.784141 6.65001 7.413885 7.607667 5.985171 1033.901 5.96438 990.1486 1092.674 3.95549 4.505228 6.14863 976.4918 5.186571 3.214653 964.9246 4.015183 2.427674 10.4939 4.662933 7.150296 1047.315 1037.922 5.425037 6.118078 4.966513 4.500401 1023.049 5.63381 4.777403 2.924133 5.620845 6.374393 975.2811 5.770564 2.653179 955.7638 3.756194 6.013779 6.282588 1096.791 1048.823 5.088611 894.8382 4.282047 4.402594 2.898272 997.3366 991.1451 5.554783 6.055588 5.764816 1016.362 5.673207 5.203732 992.4512 1101.27 4.750946 4.418822 5.150044 6.319941 927.5664 1031.549 6.519138 942.8974 3.161827 998.7807 4.898088 1010.968 680.7184 1037.706 1102.301 7.238077 7.749894 8.825479 6.325577 978.6248 992.3464 6.668924 4.940575 1080.54 4.305419 5.489136 2.868106 1083.978 5.347375 969.5525 8.993953 1068.572 1088.499 5.656517 980.1553 5.092016 969.5012 998.8646 5.129473 1029.551 5.72033 5.784748 1010.71 6.336943 947.7736 974.5988 921.1384 5.965021 913.3593 952.6213 998.1932 4.652646 5.491808 6.207069 5.697998 955.9586 4.03537 4.828816 5.232196 4.412644 5.510352 657.2582 6.640125 5.836008 999.593 935.6958 1018.068 5.832696 6.028889 4.11263 996.8827 7.213814 6.671749 3.937849 1095.914 6.580393 4.150031 1015.448 5.961983 1072.457 5.205385 1022.899 1041.802 5.604754 6.019688 6.298546 5.56263 3.28325 7.214466 1040.406 5.874718 1060.758 1021.502 2.783488 944.3951 6.701939 4.540921 4.949585 4.470763 1113.168 6.131266 4.935987 941.1584 1093.429 1011.014 1026.975 5.861236 1028.102 6.563792 737.2206 5.285215 6.583848 6.341489 892.3536 6.987389 4.827688 5.109307 4.337672 7.035475 5.227653 1026.969 950.278 5.549708 5.04126 5.962106 5.912887 5.52593 4.847902 1015.093 1050.002 4.553002 3.539574 967.5679 5.207268 4.480625 7.282369 6.230385 5.092956 5.403629 955.3038 1014.996 5.870331 988.046 1018.339 1066.481 866.7979 2.750582 6.304862 823.5543 5.74334 1018.756 5.846222 1006.327 3.653329 7.069529 5.08417 1043.033 5.47211 4.958425 4.321916 7.390286 3.498891 4.388733 6.96741 5.268859 1036.508 5.980712 3.610764 4.824823 6.318215 7.058961 4.682131 2.239909 5.932395 869.4315 6.614577 3.973658 1076.64 4.713757 6.801445 4.689693 7.79802 6.166124 4.706612 1016.371 4.964726 4.286134 1037.945 5.419322 6.091726 6.358181 4.103166 4.986907 5.741075 1015.133 2.885739 914.4571 5.036303 6.209584 4.897419 6.732289 5.583662 2.643546 4.96515 6.005672 1114.692 4.013853 1020.62 1033.473 4.68995 6.638523 7.016302 1045.664 5.690565 3.979042 1020.199 4.844099 1096.738 4.735916 4.700121 987.7173 5.19979 7.517501 5.988628 3.506066 3.713135 4.52968 6.166863 6.733912 3.016299 4.853227 5.069407 1069.133 8.368931 6.271048 1019.203 4.852492 5.70276 975.5244 5.479221 5.179482 3.998177 5.769341 7.02217 1026.548 3.024206 5.484093 5.298524 695.3454 5.870264 4.723817 1028.946 6.958829 5.63911 2.961149 3.647094 1024.839 3.142759 6.325377 1094.553 3.558984 6.13693 6.612348 5.409604 1045.293 786.2175 1079.435 7.239044 954.9128 6.964973 5.628073 913.1794 1131.868 5.583757 5.629886 6.107032 4.488379 6.035633 4.562826 4.94795 935.4448 6.86671 2.328829 5.342751 4.79822 5.679035 2.248531 6.761555 1043.345 4.525024 987.0635 1052.935 953.7125 7.909454 6.164901 5.667181 8.074807 4.004984 5.588545 6.036104 5.373315 5.809105 964.5816 6.511479 5.34919 5.014849 5.726468 5.064617 982.1287 1074.788 950.4993 6.070553 5.293186 1054.916 4.910142 5.365561 4.956041 1102.897 6.958177 5.794379 6.552398 1061.33 1068.35 1152.066 4.84233 1090.069 1000.52 967.1938 6.168898 1044.889 7.19571 5.29365 3.230587 6.972282 1038.779 2.91767 5.983805 5.340091 6.861413 6.735071 5.014525 6.023496 5.29185 968.6836 5.698419 1026.315 5.215454 982.1425 4.362954 898.9954 1024.305 2.771424 5.664895 5.882757 6.28182 5.957452 5.297832 889.873 4.977423 7.600312 1100.702 1049.625 5.6621 981.0568 3.333673 1112.601 1012.343 1103.067 5.479031 4.462586 6.197508 5.092794 1012.769 5.598815 5.977703 890.476 6.211461 5.622728 4.926702 4.565144 965.8621 1024.198 1023.168 4.475606 4.786728 6.212714 5.532962 985.8171 1064.676 1073.331 1097.155 3.523531 6.453951 3.468406 6.349821 980.4747 4.98679 1077.03 6.065353 6.700987 1037.72 1046.038 4.894827 4.488252 1019.58 3.905586 1021.405 1052.02 5.094888 1053.349 5.883284 5.997392 5.125764 4.700424 4.809997 5.390873 6.381471 6.217002 997.6854 5.123762 1029.094 5.537295 4.106451 910.1539 1034.463 4.174897 7.451494 7.479195 6.34319 1047.858 1031.971 1126.363 4.903278 3.4292 985.7376 5.500543 7.992977 6.99764 5.548884 5.234032 1038.281 1069.568 4.198705 4.084098 5.308641 973.4023 5.442921 5.76589 4.354878 3.835836 2.705709 7.01743 4.514356 3.892962 1080.961 4.931192 1026.752 5.85549 5.514482 2.934741 6.769807 5.527442 5.289215 6.17269 5.882707 1036.13 4.898662 1015.616 1068.247 5.371267 6.454018 2.617918 1033.096 1060.657 3.721349 5.975046 4.900494 2.727182 6.761831 4.389842 1010.716 1021.675 3.443441 6.685532 5.259113 5.319862 972.7682 4.932405 6.206102 987.6105 965.5782 994.4038 3.439905 4.983586 1014.944 7.823546 1010.378 6.705187 4.220631 6.259089 1030.721 5.042369 4.133749 5.401436 4.77224 972.6935 6.470464 7.656136 962.1711 4.075153 6.388367 5.092947 5.974891 3.88138 1008.411 5.361354 5.898297 6.204091 874.8851 5.079829 1095.737 5.637794 1029.438 3.601459 1005.001 965.0251 5.649017 7.557503 5.829259 5.2615 5.288977 1044.446 3.007689 1080.092 1076.947 3.232566 965.1246 5.033439 7.555061 4.547803 1070.164 1088.577 6.149282 5.12351 4.314431 5.676684 986.6537 1017.375 3.011938 6.413709 7.95807 1060.02 980.1625 1141.068 6.779107 7.885197 1022.117 1021.521 1025.77 4.739167 6.116923 5.627275 6.314144 1072.631 993.2132 5.12443 2.732042 6.315474 6.254926 1047.638 3.400885 1018.179 5.418109 4.342083 ]
<!EndOfComponent> 
</Nnet> 
