<Nnet> 
<Splice> 440 40 
[ -5 -4 -3 -2 -1 0 1 2 3 4 5 ]
<!EndOfComponent> 
<AddShift> 440 440 
<LearnRateCoef> 0  [ -0.07475004 -0.00301746 0.008861126 0.02176588 0.1784876 -0.03246582 -0.01395189 0.001172407 -0.01873503 -0.01286619 0.001276463 0.0005371929 0.006023177 0.02190507 -0.01368201 0.01517918 -0.00469834 -0.003170798 -0.001573313 -0.0006091628 0.1628421 -0.01460617 -0.1152221 0.0009659996 -0.03220186 -0.006913709 0.004049653 -0.01003411 0.03844807 0.006535124 0.01986153 -0.01328202 -0.02855064 8.12201e-05 0.04741752 0.006151304 -0.01294657 0.01188702 -0.0336969 -0.002863544 -0.07135513 -0.003277001 0.008192109 0.02141623 0.1754905 -0.03282134 -0.01322366 0.00148513 -0.02046723 -0.01293135 0.0011469 0.0003082837 0.005781209 0.02106009 -0.01370517 0.01448191 -0.004385898 -0.003112712 -0.001213838 -0.001500623 0.1616813 -0.01442301 -0.1153161 0.0009572509 -0.03240178 -0.007223936 0.003825356 -0.01043482 0.03831166 0.006252522 0.02044284 -0.0129976 -0.0284862 2.350746e-05 0.04789517 0.005916701 -0.01293795 0.01153997 -0.03322506 -0.003082834 -0.06833471 -0.003719867 0.007548321 0.02122968 0.1730065 -0.0332066 -0.01257671 0.001740673 -0.02218314 -0.01293759 0.0009999778 0.0001563334 0.005522963 0.02025621 -0.0136908 0.01371727 -0.004107674 -0.003009861 -0.0009692353 -0.002195463 0.1607193 -0.01421045 -0.1153235 0.0009165076 -0.03283198 -0.007470634 0.003668631 -0.01074936 0.03827209 0.00599565 0.02091549 -0.0128262 -0.02846636 -8.778198e-05 0.04813835 0.005631187 -0.01304684 0.01123121 -0.03285514 -0.003242523 -0.06558834 -0.004332894 0.006961962 0.02119963 0.1707769 -0.03364587 -0.01200193 0.002005746 -0.0238802 -0.01304535 0.0008113778 -0.0001060714 0.005298798 0.01946956 -0.01405727 0.01298463 -0.00388077 -0.002871245 -0.0007517932 -0.00279523 0.1599579 -0.0141065 -0.1150872 0.0008454126 -0.03296795 -0.007666562 0.003597532 -0.01108733 0.03832937 0.005728843 0.02133299 -0.01275114 -0.02843226 -0.000197161 0.04839011 0.005256499 -0.01317704 0.01090892 -0.03251734 -0.003375692 -0.06300684 -0.005074287 0.006433156 0.0212645 0.1688911 -0.03413112 -0.01151083 0.002264709 -0.02555538 -0.01319203 0.0006320497 -0.0003874416 0.005119978 0.01870543 -0.01448371 0.01238068 -0.003708198 -0.00265534 -0.0005507675 -0.003240587 0.1594035 -0.01397489 -0.1147452 0.0007155887 -0.03313698 -0.007762525 0.003540446 -0.01126294 0.03848759 0.005487804 0.02169636 -0.01268012 -0.02835156 -0.0002865407 0.04902296 0.004843239 -0.01330889 0.0106138 -0.03229344 -0.003553108 -0.06055164 -0.00593484 0.005973953 0.02153239 0.1673085 -0.03462545 -0.01105995 0.002509509 -0.0272228 -0.01330947 0.000486223 -0.0006756423 0.005004394 0.01793088 -0.01487197 0.01191493 -0.003560613 -0.002473513 -0.0003490144 -0.003597662 0.159023 -0.01377786 -0.1142797 0.0005630832 -0.03367069 -0.007818074 0.003433128 -0.01137034 0.03872612 0.005243015 0.02204757 -0.01259553 -0.02825593 -0.0002840354 0.0496738 0.004516017 -0.01344243 0.01040608 -0.03211848 -0.003677925 -0.05809643 -0.006795392 0.00551475 0.02180028 0.165726 -0.03511978 -0.01060908 0.002754309 -0.02889022 -0.01342691 0.0003403963 -0.000963843 0.004888811 0.01715634 -0.01526023 0.01144918 -0.003413028 -0.002291686 -0.0001472614 -0.003954737 0.1586424 -0.01358084 -0.1138142 0.0004105777 -0.0342044 -0.007873623 0.00332581 -0.01147773 0.03896466 0.004998225 0.02239879 -0.01251093 -0.02816029 -0.0002815302 0.05032465 0.004188794 -0.01357597 0.01019836 -0.03194351 -0.003802742 -0.05563003 -0.007427154 0.005122236 0.02228774 0.1641985 -0.03555583 -0.01019378 0.003057407 -0.03046077 -0.01360792 0.000218613 -0.001324466 0.004903261 0.01644003 -0.01547767 0.01100901 -0.003275409 -0.002051744 0.0001387514 -0.004352101 0.1583386 -0.01341458 -0.1134508 0.0002895209 -0.03487299 -0.007785663 0.003307428 -0.01178765 0.03906197 0.004761932 0.0227421 -0.01218934 -0.02796472 -0.0003063572 0.05067738 0.003948165 -0.01368351 0.009977622 -0.03161914 -0.00392324 -0.05318601 -0.007834456 0.004755896 0.02286357 0.1626493 -0.0359176 -0.009829221 0.003485038 -0.03192126 -0.01379339 0.000110414 -0.001723288 0.005017864 0.01579208 -0.01567332 0.01066427 -0.003178214 -0.00180345 0.000518914 -0.004812624 0.1580415 -0.01326252 -0.1131805 0.0001692759 -0.03510605 -0.007579577 0.00335443 -0.01211185 0.03891265 0.004461724 0.02308978 -0.01161575 -0.02777967 -0.0002388174 0.05095613 0.003744084 -0.01383909 0.009714315 -0.03125565 -0.003991424 -0.05076052 -0.008061686 0.004412031 0.02339116 0.1611321 -0.03618384 -0.009517855 0.004020128 -0.03327214 -0.01389692 -1.028193e-05 -0.002060695 0.005186589 0.01520155 -0.01572418 0.0104625 -0.003116578 -0.001707394 0.0009055249 -0.005342155 0.1576168 -0.01302759 -0.1129047 3.498496e-05 -0.03527068 -0.007336656 0.003520024 -0.01204047 0.03854506 0.004181303 0.02345304 -0.01100444 -0.02743768 -4.826562e-05 0.05120694 0.003603193 -0.01404655 0.009344726 -0.03084998 -0.004057125 -0.04838123 -0.00809388 0.004095207 0.02374497 0.1595898 -0.03633623 -0.009240967 0.004474531 -0.03452428 -0.013862 -0.0001068276 -0.002272554 0.005407168 0.01468523 -0.01566985 0.01027544 -0.00305395 -0.001698235 0.001263397 -0.005960544 0.1570939 -0.01276767 -0.1127279 -2.742086e-05 -0.03545336 -0.007117838 0.003660397 -0.0119137 0.03791244 0.003895079 0.02379669 -0.0105706 -0.02685428 0.0001855454 0.05130509 0.003450951 -0.0141277 0.009161266 -0.0304057 -0.004076208 ]
<!EndOfComponent> 
<Rescale> 440 440 
<LearnRateCoef> 0  [ 0.3190446 0.5239039 0.536285 0.5815974 0.5229097 0.6336859 0.7312527 0.753625 0.5721624 0.917001 0.7978811 0.7612959 0.8082952 0.7481492 0.6645046 0.8106326 0.852136 0.9129321 0.8750214 0.8278149 0.5290218 0.7410373 0.4951572 0.9286273 0.6288214 0.9218138 0.931739 0.7164556 0.8698073 0.9547408 0.9636159 0.8253511 0.8844767 0.9428009 0.6848102 0.9185874 0.980448 0.9157212 0.8291047 0.981981 0.3194949 0.5238887 0.5360491 0.5815811 0.5232052 0.6335867 0.7311453 0.7534747 0.5725192 0.9164411 0.7978861 0.7613143 0.8082625 0.748254 0.6645417 0.8104464 0.8521817 0.9125553 0.8750569 0.8275815 0.5289991 0.7410311 0.4951627 0.9284713 0.6287174 0.9217919 0.9311953 0.7163077 0.8697892 0.9544895 0.9634822 0.8256149 0.8833993 0.9426116 0.6847357 0.9184592 0.9803448 0.9151089 0.8289836 0.981861 0.3199046 0.5238535 0.5358298 0.5815648 0.523465 0.6335194 0.7310747 0.753325 0.5728863 0.9159235 0.7978888 0.7613275 0.8082408 0.7483932 0.6645852 0.810295 0.8522524 0.9122146 0.8751462 0.8274193 0.528985 0.7410231 0.4951864 0.9283525 0.6285911 0.9218097 0.9306465 0.7161744 0.8698398 0.9543126 0.963371 0.8259313 0.8824075 0.9424114 0.6846966 0.9183102 0.9801922 0.914529 0.8288806 0.9817991 0.3202822 0.5237767 0.5356364 0.5815567 0.5237284 0.6334721 0.7310187 0.7531918 0.5732554 0.9155012 0.7978656 0.7614008 0.8082426 0.7485363 0.6646815 0.8100796 0.8523237 0.9119443 0.8751833 0.8272681 0.5289798 0.7410538 0.4952776 0.9282292 0.6285104 0.9217894 0.9301628 0.7160466 0.8698572 0.9541736 0.9632585 0.8261587 0.8815995 0.9422186 0.684755 0.918529 0.9801845 0.9139873 0.8287699 0.9817712 0.3206392 0.5236604 0.5354631 0.5815588 0.5239634 0.6334391 0.7309523 0.7530868 0.5736234 0.9151754 0.7978513 0.7615106 0.8082736 0.7486671 0.6647936 0.8098599 0.8523712 0.9117219 0.8751999 0.8270874 0.5289781 0.7410777 0.4954393 0.9280673 0.6284314 0.9217487 0.9298713 0.7159357 0.869755 0.9540045 0.9631549 0.8264008 0.8811297 0.9421569 0.6848952 0.9188617 0.9802578 0.9137052 0.8286598 0.9817585 0.320976 0.523498 0.5353125 0.5815647 0.5241722 0.6334044 0.7308632 0.7529874 0.57399 0.9149143 0.7979327 0.7616277 0.8083448 0.748711 0.6649101 0.8097461 0.852363 0.9116299 0.8753668 0.8268245 0.5290016 0.7411762 0.4956591 0.9279911 0.6284492 0.9218389 0.9297386 0.7158305 0.8693541 0.9537398 0.9630352 0.8271087 0.8807644 0.9422457 0.6851256 0.9193327 0.9804535 0.9137716 0.8286037 0.9817231 0.3213141 0.5233358 0.5351622 0.5815706 0.5243815 0.6333697 0.7307741 0.7528881 0.5743579 0.9146534 0.7980141 0.7617449 0.8084159 0.7487552 0.6650268 0.8096326 0.8523549 0.9115377 0.8755339 0.826562 0.5290251 0.7412748 0.4958791 0.927915 0.6284671 0.9219292 0.929606 0.7157255 0.8689537 0.9534754 0.9629158 0.8278183 0.8803995 0.9423345 0.6853565 0.9198046 0.9806491 0.913838 0.8285477 0.9816877 0.3216562 0.5232027 0.535018 0.5816094 0.5246002 0.633297 0.7306154 0.7528393 0.5746909 0.9146187 0.7981341 0.7618811 0.8085337 0.7486907 0.6651676 0.8096076 0.8522438 0.9115736 0.8758421 0.826139 0.5291079 0.7413883 0.4961272 0.9279459 0.6285383 0.9221764 0.9297047 0.7156711 0.8682246 0.953118 0.9627455 0.8285369 0.880529 0.9425523 0.6856781 0.9204724 0.9809331 0.9141709 0.8286955 0.98159 0.321999 0.5231075 0.5348704 0.5816566 0.524881 0.633194 0.7304058 0.7528948 0.5749889 0.914849 0.798247 0.7620195 0.8086525 0.7485373 0.665315 0.8096188 0.8520567 0.9117857 0.876106 0.8256149 0.5292295 0.7415186 0.496361 0.9279448 0.6286715 0.9224122 0.9301056 0.7156294 0.867371 0.9526952 0.9625317 0.8290157 0.881072 0.9428869 0.6860932 0.9212915 0.9812556 0.9148033 0.8289019 0.9814652 0.322344 0.523042 0.5347183 0.5817116 0.525179 0.6330711 0.7301709 0.7530489 0.575251 0.9151949 0.79837 0.76218 0.8087793 0.7483475 0.6654963 0.8095979 0.8518201 0.9121594 0.8763353 0.825016 0.5294182 0.7416571 0.4966115 0.9279119 0.6288848 0.922576 0.930606 0.7156872 0.8664861 0.9522634 0.9622825 0.8294941 0.8816184 0.9432726 0.6864965 0.9221064 0.9815346 0.9156234 0.8291736 0.981312 0.3226882 0.523018 0.5345703 0.5817791 0.525513 0.6329355 0.7299244 0.7531903 0.5754885 0.9156089 0.7985082 0.7623439 0.808915 0.7481365 0.6656809 0.8096232 0.8515724 0.9125484 0.8766335 0.8243926 0.5296192 0.7418005 0.496859 0.927911 0.6290882 0.9227018 0.9311056 0.7157732 0.8655945 0.9518184 0.9619984 0.8301041 0.882186 0.9436907 0.6869329 0.9229711 0.9818164 0.9162856 0.8294827 0.9811585 ]
<!EndOfComponent> 
</Nnet> 
